{"learner":{"attributes":{"scikit_learn":"{\"_estimator_type\": \"regressor\"}"},"feature_names":["thread__park","SetIntField","SetByteArrayRegion","NewStringUTF","gc","vmops","thread__sleep","GetStringLength","GetObjectClass","GetMethodID","method__compile","safepoint","GetObjectArrayElement","CallVoidMethod","compiled__method__load","NewString","IsInstanceOf","GetEnv","CallObjectMethod","ReleaseIntArrayElements","GetByteArrayElements","Throw","compiled__method__unload"],"feature_types":["float","float","float","int","float","float","float","float","float","float","float","float","float","float","float","int","float","float","float","float","float","float","float"],"gradient_booster":{"model":{"gbtree_model_param":{"num_parallel_tree":"1","num_trees":"100"},"iteration_indptr":[0,1,2,3,4,5,6,7,8,9,10,11,12,13,14,15,16,17,18,19,20,21,22,23,24,25,26,27,28,29,30,31,32,33,34,35,36,37,38,39,40,41,42,43,44,45,46,47,48,49,50,51,52,53,54,55,56,57,58,59,60,61,62,63,64,65,66,67,68,69,70,71,72,73,74,75,76,77,78,79,80,81,82,83,84,85,86,87,88,89,90,91,92,93,94,95,96,97,98,99,100],"tree_info":[0,0,0,0,0,0,0,0,0,0,0,0,0,0,0,0,0,0,0,0,0,0,0,0,0,0,0,0,0,0,0,0,0,0,0,0,0,0,0,0,0,0,0,0,0,0,0,0,0,0,0,0,0,0,0,0,0,0,0,0,0,0,0,0,0,0,0,0,0,0,0,0,0,0,0,0,0,0,0,0,0,0,0,0,0,0,0,0,0,0,0,0,0,0,0,0,0,0,0,0],"trees":[{"base_weights":[7.626579E-6,9.080529E0,-7.522527E1,1.226877E1,-2.1492604E2,-6.0228996E1,-1.3599538E2,-4.535176E0,2.809196E1,-7.024943E1,-4.3600998E1,-6.9765526E1,7.5807233E0,-4.1332947E1,-5.438013E0,-2.6019611E1,1.8533155E1,2.6226406E1,3.5066387E1,-3.6502644E1,-9.765367E1,-4.098587E0,1.1313495E1,1.7937238E0,-7.583323E1,2.4999E1,-8.528604E1,2.792097E1,-6.616405E1,-3.911262E1,1.8821537E1,-1.1277354E2,1.6240644E1,-8.273898E0,1.6854692E0,1.2443504E1,-3.6773172E-1,3.6720166E0,-4.126714E1,-3.546605E0,-3.141942E1,3.524322E0,1.3436645E1,-2.6593416E1,3.3287294E0,7.21866E0,1.44325075E1,-2.9702406E0,-3.980696E1,-1.703825E1,-1.1096499E1,-1.1551232E0,7.6356378E0,-3.6506863E1,-2.2158669E1,-2.2883654E0,5.5990343E0,-3.2298055E0,-6.579315E-1,1.9557167E0,4.0362053E0,-2.5970514E0,2.431572E0],"categories":[],"categories_nodes":[],"categories_segments":[],"categories_sizes":[],"default_left":[0,0,0,0,0,0,0,0,0,0,0,0,0,0,0,0,0,0,0,0,0,0,0,0,0,0,0,0,0,0,0,0,0,0,0,0,0,0,0,0,0,0,0,0,0,0,0,0,0,0,0,0,0,0,0,0,0,0,0,0,0,0,0],"id":0,"left_children":[1,3,5,7,9,11,13,15,17,-1,-1,19,21,-1,-1,23,25,27,-1,29,31,33,35,37,39,41,43,45,47,49,51,53,55,57,-1,59,61,-1,-1,-1,-1,-1,-1,-1,-1,-1,-1,-1,-1,-1,-1,-1,-1,-1,-1,-1,-1,-1,-1,-1,-1,-1,-1],"loss_changes":[1.8518429E6,1.730255E6,2.5791612E5,6.345459E5,1.1486875E4,1.5314294E5,9.469E3,5.743986E5,2.0052275E5,0E0,0E0,1.8845681E5,1.3542555E3,0E0,0E0,8.314256E5,3.7737694E5,1.90504E5,0E0,1.459807E4,1.94703E5,3.710505E2,3.0817358E2,5.635859E5,3.9647038E5,1.3767428E5,1.1666172E4,9.107431E4,8.103136E4,1.354875E3,8.496428E2,2.5358125E4,9.5196436E2,6.7313416E1,0E0,3.8013916E1,2.808658E2,0E0,0E0,0E0,0E0,0E0,0E0,0E0,0E0,0E0,0E0,0E0,0E0,0E0,0E0,0E0,0E0,0E0,0E0,0E0,0E0,0E0,0E0,0E0,0E0,0E0,0E0],"parents":[2147483647,0,0,1,1,2,2,3,3,4,4,5,5,6,6,7,7,8,8,11,11,12,12,15,15,16,16,17,17,19,19,20,20,21,21,22,22,23,23,24,24,25,25,26,26,27,27,28,28,29,29,30,30,31,31,32,32,33,33,35,35,36,36],"right_children":[2,4,6,8,10,12,14,16,18,-1,-1,20,22,-1,-1,24,26,28,-1,30,32,34,36,38,40,42,44,46,48,50,52,54,56,58,-1,60,62,-1,-1,-1,-1,-1,-1,-1,-1,-1,-1,-1,-1,-1,-1,-1,-1,-1,-1,-1,-1,-1,-1,-1,-1,-1,-1],"split_conditions":[9.2979E4,5.2849E4,5E0,4.985E3,1.248E3,0E0,6.979E3,2E0,4.175E3,-7.024943E1,-4.3600998E1,0E0,6.72E3,-4.1332947E1,-5.438013E0,0E0,6.359E3,3.3247E4,3.5066387E1,6.72E2,1.03543E5,2E0,8E0,9E0,7.92E3,4.653E3,3.14E2,4E0,7.6E1,4.15E2,6.425E3,1.6938E4,1.54688E5,3E0,1.6854692E0,2E1,9.7697E4,3.6720166E0,-4.126714E1,-3.546605E0,-3.141942E1,3.524322E0,1.3436645E1,-2.6593416E1,3.3287294E0,7.21866E0,1.44325075E1,-2.9702406E0,-3.980696E1,-1.703825E1,-1.1096499E1,-1.1551232E0,7.6356378E0,-3.6506863E1,-2.2158669E1,-2.2883654E0,5.5990343E0,-3.2298055E0,-6.579315E-1,1.9557167E0,4.0362053E0,-2.5970514E0,2.431572E0],"split_indices":[0,18,11,18,0,16,1,0,12,0,0,7,1,0,0,0,2,18,0,6,2,5,10,5,1,18,6,4,10,9,1,2,0,10,0,8,0,0,0,0,0,0,0,0,0,0,0,0,0,0,0,0,0,0,0,0,0,0,0,0,0,0,0],"split_type":[0,0,0,0,0,0,0,0,0,0,0,0,0,0,0,0,0,0,0,0,0,0,0,0,0,0,0,0,0,0,0,0,0,0,0,0,0,0,0,0,0,0,0,0,0,0,0,0,0,0,0,0,0,0,0,0,0,0,0,0,0,0,0],"sum_hessian":[2.709E3,2.418E3,2.91E2,2.385E3,3.3E1,2.35E2,5.6E1,1.157E3,1.228E3,2.4E1,9E0,2.06E2,2.9E1,5.5E1,1E0,5.99E2,5.58E2,1.204E3,2.4E1,9.5E1,1.11E2,7E0,2.2E1,3.85E2,2.14E2,5.26E2,3.2E1,1.183E3,2.1E1,9.1E1,4E0,9.8E1,1.3E1,5E0,2E0,2E1,2E0,3.59E2,2.6E1,6.7E1,1.47E2,3.16E2,2.1E2,3.1E1,1E0,9.95E2,1.88E2,1.2E1,9E0,7E0,8.4E1,1E0,3E0,7.8E1,2E1,1E0,1.2E1,3E0,2E0,4E0,1.6E1,1E0,1E0],"tree_param":{"num_deleted":"0","num_feature":"23","num_nodes":"63","size_leaf_vector":"1"}},{"base_weights":[-1.1030091E-1,6.6980805E0,-5.098133E1,9.009415E0,-1.5379677E2,-5.9257725E1,5.21141E0,-2.5993397E0,1.9675714E1,-8.8583786E1,-5.022689E1,-2.6484995E1,-8.011503E1,-2.206459E0,8.612746E0,-1.8334661E1,1.5185581E1,2.0896654E1,-4.825925E1,-3.7150795E0,-2.9310133E1,-3.140377E1,2.5843138E1,-8.778359E1,1.1604932E1,-1.4295059E1,9.9956256E-1,9.285459E0,-3.125763E-1,1.1582136E0,-5.3245895E1,2.015414E1,-6.0405224E1,1.9562967E1,2.4967264E1,2.651129E1,-7.7955154E1,-2.6928549E1,-2.6295803E1,9.779054E0,7.563366E0,-2.9800087E1,-7.120586E1,-1.9451112E0,1.3495111E1,-6.3870416E0,-4.573517E-2,2.5193224E0,-3.7492447E0,2.9860687E0,9.669967E0,-2.2074945E0,2.0668352E0,2.5734727E0,-2.934552E1,-2.181915E1,7.2393956E0,7.5890656E0,-4.558714E0,-1.904175E1,5.662134E0,5.4577756E0,2.0042673E1,8.6019335E0,2.0310564E0,-5.606107E1,-1.4714397E1,-1.9637673E0,-8.396457E0,-3.816605E-1,3.2797868E0,-2.3969261E1,-1.1389296E1,4.234743E0,9.070084E-1,-3.5161676E0,-2.8083605E-1,1.2126435E0,1.310875E-1,2.983498E0,4.604004E-1],"categories":[],"categories_nodes":[],"categories_segments":[],"categories_sizes":[],"default_left":[0,0,0,0,0,0,0,0,0,0,0,0,0,0,0,0,0,0,0,0,0,0,0,0,0,0,0,0,0,0,0,0,0,0,0,0,0,0,0,0,0,0,0,0,0,0,0,0,0,0,0,0,0,0,0,0,0,0,0,0,0,0,0,0,0,0,0,0,0,0,0,0,0,0,0,0,0,0,0,0,0],"id":1,"left_children":[1,3,5,7,9,11,13,15,17,19,-1,21,23,25,27,29,31,33,35,-1,-1,37,39,41,43,45,47,49,51,53,55,57,59,61,-1,63,65,67,-1,-1,69,-1,71,-1,73,-1,-1,-1,75,77,79,-1,-1,-1,-1,-1,-1,-1,-1,-1,-1,-1,-1,-1,-1,-1,-1,-1,-1,-1,-1,-1,-1,-1,-1,-1,-1,-1,-1,-1,-1],"loss_changes":[9.389482E5,8.883445E5,1.4913225E5,2.920245E5,1.53815625E4,1.8858888E5,1.0786917E3,3.1651056E5,1.0294716E5,4.3476406E3,0E0,2.9124516E4,1.2059E5,5.568772E2,1.7702368E2,4.0837388E5,2.00649E5,9.878744E4,5.0915027E4,0E0,0E0,2.3064008E4,9.880205E2,2.2988125E4,5.661692E2,2.9354034E2,4.530755E2,3.6523193E1,2.0292552E2,2.8432112E5,3.2590294E5,9.1100234E4,9.222586E3,7.544256E4,0E0,1.0461426E2,4.120921E4,1.8686172E3,0E0,0E0,1.3298566E2,0E0,1.6613625E4,0E0,4.1820312E1,0E0,0E0,0E0,1.6842255E2,6.3099155E0,4.067334E1,0E0,0E0,0E0,0E0,0E0,0E0,0E0,0E0,0E0,0E0,0E0,0E0,0E0,0E0,0E0,0E0,0E0,0E0,0E0,0E0,0E0,0E0,0E0,0E0,0E0,0E0,0E0,0E0,0E0,0E0],"parents":[2147483647,0,0,1,1,2,2,3,3,4,4,5,5,6,6,7,7,8,8,9,9,11,11,12,12,13,13,14,14,15,15,16,16,17,17,18,18,21,21,22,22,23,23,24,24,25,25,26,26,27,27,28,28,29,29,30,30,31,31,32,32,33,33,35,35,36,36,37,37,40,40,42,42,44,44,48,48,49,49,50,50],"right_children":[2,4,6,8,10,12,14,16,18,20,-1,22,24,26,28,30,32,34,36,-1,-1,38,40,42,44,46,48,50,52,54,56,58,60,62,-1,64,66,68,-1,-1,70,-1,72,-1,74,-1,-1,-1,76,78,80,-1,-1,-1,-1,-1,-1,-1,-1,-1,-1,-1,-1,-1,-1,-1,-1,-1,-1,-1,-1,-1,-1,-1,-1,-1,-1,-1,-1,-1,-1],"split_conditions":[8.4513E4,5.2849E4,0E0,4.985E3,7.17E2,0E0,8.01E2,2E0,3.3247E4,8.47E2,-5.022689E1,7E3,1.03543E5,8.6485E4,8E0,0E0,6.359E3,4.175E3,2.18E2,-3.7150795E0,-2.9310133E1,6E0,8.036E3,6.55E2,1.54688E5,6.21E3,9.7697E4,8.6485E4,9.7697E4,9E0,0E0,1.3E1,4.3E1,3.0389E4,2.4967264E1,0E0,8.83E2,3.967E3,-2.6295803E1,9.779054E0,8.17E3,-2.9800087E1,2.3084E4,-1.9451112E0,7.312E3,-6.3870416E0,-4.573517E-2,2.5193224E0,9.9756E4,6.94E3,7.765E3,-2.2074945E0,2.0668352E0,2.5734727E0,-2.934552E1,-2.181915E1,7.2393956E0,7.5890656E0,-4.558714E0,-1.904175E1,5.662134E0,5.4577756E0,2.0042673E1,8.6019335E0,2.0310564E0,-5.606107E1,-1.4714397E1,-1.9637673E0,-8.396457E0,-3.816605E-1,3.2797868E0,-2.3969261E1,-1.1389296E1,4.234743E0,9.070084E-1,-3.5161676E0,-2.8083605E-1,1.2126435E0,1.310875E-1,2.983498E0,4.604004E-1],"split_indices":[0,18,16,18,9,7,6,0,18,0,0,1,2,0,10,0,2,12,0,0,0,11,1,9,0,1,0,0,0,5,7,4,5,0,0,0,0,1,0,0,1,0,2,0,1,0,0,0,0,1,1,0,0,0,0,0,0,0,0,0,0,0,0,0,0,0,0,0,0,0,0,0,0,0,0,0,0,0,0,0,0],"split_type":[0,0,0,0,0,0,0,0,0,0,0,0,0,0,0,0,0,0,0,0,0,0,0,0,0,0,0,0,0,0,0,0,0,0,0,0,0,0,0,0,0,0,0,0,0,0,0,0,0,0,0,0,0,0,0,0,0,0,0,0,0,0,0,0,0,0,0,0,0,0,0,0,0,0,0,0,0,0,0,0,0],"sum_hessian":[2.709E3,2.39E3,3.19E2,2.357E3,3.3E1,2.78E2,4.1E1,1.129E3,1.228E3,7E0,2.6E1,1.09E2,1.69E2,1.3E1,2.8E1,5.99E2,5.3E2,1.207E3,2.1E1,1E0,6E0,1E2,9E0,1.56E2,1.3E1,2E0,1.1E1,2.6E1,2E0,3.85E2,2.14E2,4.98E2,3.2E1,1.183E3,2.4E1,6E0,1.5E1,9.4E1,6E0,6E0,3E0,8.9E1,6.7E1,1E0,1.2E1,1E0,1E0,4E0,7E0,2E0,2.4E1,1E0,1E0,3.59E2,2.6E1,1.71E2,4.3E1,4.35E2,6.3E1,3.1E1,1E0,1.151E3,3.2E1,5E0,1E0,2E0,1.3E1,5E0,8.9E1,1E0,2E0,5.2E1,1.5E1,1.1E1,1E0,1E0,6E0,1E0,1E0,2.3E1,1E0],"tree_param":{"num_deleted":"0","num_feature":"23","num_nodes":"81","size_leaf_vector":"1"}},{"base_weights":[-1.6342287E-1,4.6281667E0,-3.5965073E1,6.2805605E0,-1.1010632E2,-4.178844E1,3.5750434E0,4.3538666E0,4.0957012E1,-8.440336E1,-4.354018E1,-1.8757488E1,-5.6445004E1,-2.4710906E0,6.0758667E0,5.6072536E0,-7.0255646E1,5.8020485E1,-1.444255E1,-1.0596283E2,-5.321091E1,-2.2345573E1,1.9357916E1,-6.186354E1,8.351785E0,-1.2150803E1,3.9347562E-1,6.538324E0,-2.6569113E-1,2.5191276E0,2.7848494E1,-2.127296E1,-3.0805794E1,6.654924E1,1.3702053E1,-1.7998665E1,7.068613E0,-3.7343067E1,-3.781548E1,-5.9064526E1,7.987839E-1,-1.8959042E1,-1.9534023E1,1.0416193E1,3.016645E1,-2.1579676E1,-5.1528305E1,-1.653344E0,9.842098E0,-5.4289856E0,-3.887558E-2,1.9146863E0,-3.940458E0,7.1898513E0,3.556621E0,-1.876371E0,1.7568101E0,-1.7890846E0,3.0902677E0,6.309666E0,1.7144043E1,5.7852907E0,-7.5787196E0,2.0395739E1,-1.4382317E0,-8.120691E0,-1.6352104E0,-3.1578188E0,-1.302098E1,-9.294059E0,-2.000248E1,-6.0239596E0,-1.8053569E0,3.9923494E0,6.3741994E-1,1.2077863E1,4.0146723E0,-2.2192398E1,-1.4197486E1,3.9634676E0,1.8254225E0,-1.6999284E0,9.6230394E-1,4.185677E-1,2.219804E0,1.8785638E0,-1.1337662E-2],"categories":[],"categories_nodes":[],"categories_segments":[],"categories_sizes":[],"default_left":[0,0,0,0,0,0,0,0,0,0,0,0,0,0,0,0,0,0,0,0,0,0,0,0,0,0,0,0,0,0,0,0,0,0,0,0,0,0,0,0,0,0,0,0,0,0,0,0,0,0,0,0,0,0,0,0,0,0,0,0,0,0,0,0,0,0,0,0,0,0,0,0,0,0,0,0,0,0,0,0,0,0,0,0,0,0,0],"id":2,"left_children":[1,3,5,7,9,11,13,15,17,19,-1,21,23,25,27,29,31,33,35,37,39,41,43,45,47,49,51,53,55,57,59,61,-1,63,-1,65,-1,-1,67,69,-1,71,-1,73,75,-1,77,-1,79,-1,-1,-1,81,83,85,-1,-1,-1,-1,-1,-1,-1,-1,-1,-1,-1,-1,-1,-1,-1,-1,-1,-1,-1,-1,-1,-1,-1,-1,-1,-1,-1,-1,-1,-1,-1,-1],"loss_changes":[4.650583E5,4.53993E5,7.38315E4,1.5736178E5,1.8360844E4,9.3119E4,6.50067E2,2.0939906E5,1.1805628E5,9.156453E3,0E0,1.5476309E4,6.0204312E4,3.6524734E2,8.971826E1,1.5096542E5,5.659097E4,6.9644062E3,4.4785464E3,1.0433047E4,3.7549473E3,1.3393805E4,6.522495E2,1.26313125E4,3.434829E2,2.1208276E2,3.106554E2,2.8822876E1,1.4661375E2,1.2759411E5,5.2319094E4,3.0759775E3,0E0,5.8603125E3,0E0,3.0392432E3,0E0,0E0,1.5308398E2,7.173047E1,0E0,1.2571133E3,0E0,1.3955573E2,1.3885522E2,0E0,4.1415E3,0E0,8.419446E1,0E0,0E0,0E0,1.0453835E2,1.6383057E1,6.8303345E1,0E0,0E0,0E0,0E0,0E0,0E0,0E0,0E0,0E0,0E0,0E0,0E0,0E0,0E0,0E0,0E0,0E0,0E0,0E0,0E0,0E0,0E0,0E0,0E0,0E0,0E0,0E0,0E0,0E0,0E0,0E0,0E0],"parents":[2147483647,0,0,1,1,2,2,3,3,4,4,5,5,6,6,7,7,8,8,9,9,11,11,12,12,13,13,14,14,15,15,16,16,17,17,18,18,19,19,20,20,21,21,22,22,23,23,24,24,25,25,26,26,27,27,28,28,29,29,30,30,31,31,33,33,35,35,38,38,39,39,41,41,43,43,44,44,46,46,48,48,52,52,53,53,54,54],"right_children":[2,4,6,8,10,12,14,16,18,20,-1,22,24,26,28,30,32,34,36,38,40,42,44,46,48,50,52,54,56,58,60,62,-1,64,-1,66,-1,-1,68,70,-1,72,-1,74,76,-1,78,-1,80,-1,-1,-1,82,84,86,-1,-1,-1,-1,-1,-1,-1,-1,-1,-1,-1,-1,-1,-1,-1,-1,-1,-1,-1,-1,-1,-1,-1,-1,-1,-1,-1,-1,-1,-1,-1,-1],"split_conditions":[8.4513E4,5.2849E4,0E0,7.0402E4,7.1577E4,0E0,6.72E3,4.7322E4,2E0,1.01E3,-4.354018E1,7E3,1.03543E5,8.6485E4,8E0,0E0,1E1,6E0,4E0,8E0,7.54E2,6E0,2E0,1E0,1.54688E5,6.21E3,9.7697E4,1.15095E5,9.7697E4,4.985E3,6E0,0E0,-3.0805794E1,7.7636E4,1.3702053E1,7.8387E4,7.068613E0,-3.7343067E1,8.47E2,2.2E1,7.987839E-1,1E0,-1.9534023E1,8.036E3,7.865E3,-2.1579676E1,9.2979E4,-1.653344E0,1.249E3,-5.4289856E0,-3.887558E-2,1.9146863E0,2E0,6.822E3,8.73E2,-1.876371E0,1.7568101E0,-1.7890846E0,3.0902677E0,6.309666E0,1.7144043E1,5.7852907E0,-7.5787196E0,2.0395739E1,-1.4382317E0,-8.120691E0,-1.6352104E0,-3.1578188E0,-1.302098E1,-9.294059E0,-2.000248E1,-6.0239596E0,-1.8053569E0,3.9923494E0,6.3741994E-1,1.2077863E1,4.0146723E0,-2.2192398E1,-1.4197486E1,3.9634676E0,1.8254225E0,-1.6999284E0,9.6230394E-1,4.185677E-1,2.219804E0,1.8785638E0,-1.1337662E-2],"split_indices":[0,18,16,0,18,7,1,0,8,0,0,1,2,0,10,12,4,4,4,5,6,11,8,8,0,1,0,0,0,18,4,8,0,0,0,0,0,0,0,10,0,14,0,1,1,0,0,0,7,0,0,0,4,1,6,0,0,0,0,0,0,0,0,0,0,0,0,0,0,0,0,0,0,0,0,0,0,0,0,0,0,0,0,0,0,0,0],"split_type":[0,0,0,0,0,0,0,0,0,0,0,0,0,0,0,0,0,0,0,0,0,0,0,0,0,0,0,0,0,0,0,0,0,0,0,0,0,0,0,0,0,0,0,0,0,0,0,0,0,0,0,0,0,0,0,0,0,0,0,0,0,0,0,0,0,0,0,0,0,0,0,0,0,0,0,0,0,0,0,0,0,0,0,0,0,0,0],"sum_hessian":[2.709E3,2.39E3,3.19E2,2.357E3,3.3E1,2.78E2,4.1E1,2.234E3,1.23E2,2.1E1,1.2E1,1.09E2,1.69E2,1.2E1,2.9E1,2.198E3,3.6E1,9.4E1,2.9E1,1.1E1,1E1,1E2,9E0,1.56E2,1.3E1,2E0,1E1,2.7E1,2E0,1.931E3,2.67E2,1.5E1,2.1E1,5.3E1,4.1E1,2.7E1,2E0,8E0,3E0,9E0,1E0,9.4E1,6E0,6E0,3E0,7.6E1,8E1,1E0,1.2E1,1E0,1E0,4E0,6E0,2.1E1,6E0,1E0,1E0,9.24E2,1.007E3,2.18E2,4.9E1,1E0,1.4E1,5.2E1,1E0,1.5E1,1.2E1,1E0,2E0,3E0,6E0,8.6E1,8E0,4E0,2E0,1E0,2E0,1E1,7E1,5E0,7E0,5E0,1E0,1E0,2E1,3E0,3E0],"tree_param":{"num_deleted":"0","num_feature":"23","num_nodes":"87","size_leaf_vector":"1"}},{"base_weights":[-1.7484659E-1,1.1824121E0,-6.571492E1,4.8168774E0,-2.5364237E1,1.7428102E1,-7.625137E1,1.9061416E0,1.9122555E1,-4.7046455E1,-1.9759907E1,5.678883E0,1.2628579E0,-1.00513245E2,-4.4454777E1,4.0032554E0,-3.7616085E1,1.0359663E1,3.650347E1,-2.0468323E1,-4.9402393E1,-2.4017385E1,2.504799E0,-1.09683304E2,-3.8228306E1,-5.754229E1,-2.4946373E1,7.959442E-1,2.7951452E1,-2.4518425E1,-6.0491352E1,1.4024089E1,-1.2501118E1,4.1696747E1,3.422584E0,2.65493E0,-1.1542349E1,-2.965758E1,-1.5323424E1,-9.635007E0,-3.5323143E1,-2.0598226E0,4.399308E0,-1.3031097E2,-7.991535E1,-2.6841455E0,-1.2993543E1,-1.8834326E1,-5.745784E0,-3.1043375E1,1.6600901E0,-3.047014E0,2.4123242E0,1.189971E1,1.9252048E0,-1.9627144E1,4.9812138E-1,3.9427578E0,-2.3810759E1,3.6686323E0,1.3596211E1,-4.9356575E0,-1.1823835E0,1.54032345E1,1.0918258E1,4.769805E0,-3.6621249E0,-1.928615E0,4.4858804E0,-2.3272402E0,-1.1059839E1,-3.7282357E0,4.686831E0,-1.2125497E1,1.8424933E0,-3.0984545E0,1.1473223E-1,1.4485719E0,1.2058411E-1,-4.1422028E1,-6.7386155E0,-4.9834013E0,-2.7274508E1,-9.846828E0,-2.5212412E0,-1.4112672E0,2.1583078E0],"categories":[],"categories_nodes":[],"categories_segments":[],"categories_sizes":[],"default_left":[0,0,0,0,0,0,0,0,0,0,0,0,0,0,0,0,0,0,0,0,0,0,0,0,0,0,0,0,0,0,0,0,0,0,0,0,0,0,0,0,0,0,0,0,0,0,0,0,0,0,0,0,0,0,0,0,0,0,0,0,0,0,0,0,0,0,0,0,0,0,0,0,0,0,0,0,0,0,0,0,0,0,0,0,0,0,0],"id":3,"left_children":[1,3,5,7,9,11,13,15,17,19,21,-1,-1,23,25,27,29,31,33,35,37,39,41,43,45,47,49,51,53,55,57,59,61,63,65,67,-1,69,-1,71,73,75,77,79,81,-1,-1,-1,-1,83,85,-1,-1,-1,-1,-1,-1,-1,-1,-1,-1,-1,-1,-1,-1,-1,-1,-1,-1,-1,-1,-1,-1,-1,-1,-1,-1,-1,-1,-1,-1,-1,-1,-1,-1,-1,-1],"loss_changes":[2.411453E5,2.5638069E5,4.9510703E4,9.727633E4,3.7954953E4,5.9249756E1,3.33325E4,1.6119148E5,5.978314E4,3.0588906E3,2.4326781E4,0E0,0E0,1.1228219E4,4.4368125E3,1.4176775E5,2.7878875E4,2.2291035E4,2.2534656E4,3.016676E3,4.3721875E2,3.461946E4,3.7226593E2,3.7091875E3,3.5673633E2,1.412082E3,1.8359512E3,1.293485E5,5.473722E4,6.864336E4,4.969483E4,1.2256484E4,1.1865176E3,3.9631094E3,3.8992307E3,5.42971E2,0E0,8.1908887E2,0E0,6.965123E3,2.5600672E4,2.664655E2,4.9536926E1,6.9446562E3,6.8456562E3,0E0,0E0,0E0,0E0,8.670801E1,1.3950934E2,0E0,0E0,0E0,0E0,0E0,0E0,0E0,0E0,0E0,0E0,0E0,0E0,0E0,0E0,0E0,0E0,0E0,0E0,0E0,0E0,0E0,0E0,0E0,0E0,0E0,0E0,0E0,0E0,0E0,0E0,0E0,0E0,0E0,0E0,0E0,0E0],"parents":[2147483647,0,0,1,1,2,2,3,3,4,4,5,5,6,6,7,7,8,8,9,9,10,10,13,13,14,14,15,15,16,16,17,17,18,18,19,19,20,20,21,21,22,22,23,23,24,24,25,25,26,26,27,27,28,28,29,29,30,30,31,31,32,32,33,33,34,34,35,35,37,37,39,39,40,40,41,41,42,42,43,43,44,44,49,49,50,50],"right_children":[2,4,6,8,10,12,14,16,18,20,22,-1,-1,24,26,28,30,32,34,36,38,40,42,44,46,48,50,52,54,56,58,60,62,64,66,68,-1,70,-1,72,74,76,78,80,82,-1,-1,-1,-1,84,86,-1,-1,-1,-1,-1,-1,-1,-1,-1,-1,-1,-1,-1,-1,-1,-1,-1,-1,-1,-1,-1,-1,-1,-1,-1,-1,-1,-1,-1,-1,-1,-1,-1,-1,-1,-1],"split_conditions":[3.3247E4,8.4513E4,2.18E2,0E0,4.44E2,0E0,1.3059E4,1E1,6E0,1.4079E5,0E0,5.678883E0,1.2628579E0,8E0,6E0,6E0,1.08E2,5.024E3,6.8E1,2.446E3,0E0,0E0,6.72E3,8.83E2,8.47E2,5.208E3,6.85E2,4.985E3,0E0,2.3E1,1.2E1,1.119E3,7.8387E4,6.9E2,7.59E2,1.21126E5,-1.1542349E1,4.329E3,-1.5323424E1,7E3,1.03543E5,8.6485E4,7E0,7.53E2,6.2586E4,-2.6841455E0,-1.2993543E1,-1.8834326E1,-5.745784E0,4.998E3,1.172E3,-3.047014E0,2.4123242E0,1.189971E1,1.9252048E0,-1.9627144E1,4.9812138E-1,3.9427578E0,-2.3810759E1,3.6686323E0,1.3596211E1,-4.9356575E0,-1.1823835E0,1.54032345E1,1.0918258E1,4.769805E0,-3.6621249E0,-1.928615E0,4.4858804E0,-2.3272402E0,-1.1059839E1,-3.7282357E0,4.686831E0,-1.2125497E1,1.8424933E0,-3.0984545E0,1.1473223E-1,1.4485719E0,1.2058411E-1,-4.1422028E1,-6.7386155E0,-4.9834013E0,-2.7274508E1,-9.846828E0,-2.5212412E0,-1.4112672E0,2.1583078E0],"split_indices":[18,0,0,16,9,0,7,11,4,0,16,0,0,5,11,4,0,0,10,2,10,7,1,0,0,2,6,18,8,0,4,12,0,9,8,0,0,1,0,1,2,0,10,9,18,0,0,0,0,2,0,0,0,0,0,0,0,0,0,0,0,0,0,0,0,0,0,0,0,0,0,0,0,0,0,0,0,0,0,0,0,0,0,0,0,0,0],"split_type":[0,0,0,0,0,0,0,0,0,0,0,0,0,0,0,0,0,0,0,0,0,0,0,0,0,0,0,0,0,0,0,0,0,0,0,0,0,0,0,0,0,0,0,0,0,0,0,0,0,0,0,0,0,0,0,0,0,0,0,0,0,0,0,0,0,0,0,0,0,0,0,0,0,0,0,0,0,0,0,0,0,0,0,0,0,0,0],"sum_hessian":[2.709E3,2.655E3,5.4E1,2.336E3,3.19E2,6E0,4.8E1,1.942E3,3.94E2,6.4E1,2.55E2,5E0,1E0,2.6E1,2.2E1,1.845E3,9.7E1,2.63E2,1.31E2,6E0,5.8E1,2.14E2,4.1E1,2.2E1,4E0,1.2E1,1E1,1.628E3,2.17E2,6.3E1,3.4E1,2.27E2,3.6E1,1.13E2,1.8E1,3E0,3E0,6E0,5.2E1,9.5E1,1.19E2,1.2E1,2.9E1,1.1E1,1.1E1,1E0,3E0,1E1,2E0,8E0,2E0,6.48E2,9.8E2,1.4E2,7.7E1,2.4E1,3.9E1,7E0,2.7E1,2.16E2,1.1E1,2.4E1,1.2E1,3.7E1,7.6E1,1E1,8E0,2E0,1E0,2E0,4E0,8.6E1,9E0,1.06E2,1.3E1,2E0,1E1,2.6E1,3E0,1E1,1E0,2E0,9E0,7E0,1E0,1E0,1E0],"tree_param":{"num_deleted":"0","num_feature":"23","num_nodes":"87","size_leaf_vector":"1"}},{"base_weights":[-1.8180898E-1,8.1426126E-1,-4.827964E1,3.3772788E0,-1.790632E1,1.3191351E1,-5.6075912E1,2.1171026E0,2.887087E1,-3.3512447E1,-1.387388E1,4.2591634E0,1.0734284E0,-7.3918396E1,-3.269231E1,-2.040954E0,9.9618845E0,4.0538773E1,-6.747233E0,-1.7817774E1,-1.0714991E1,-1.6855534E1,1.719675E0,-8.280394E1,-3.6701977E1,-4.2170387E1,-1.8518917E1,1.0831271E1,-9.412163E0,1.12473135E1,-4.157367E1,4.9451748E1,2.3992764E1,-3.5995393E0,-1.3760243E1,2.0918822E0,-9.431857E0,-6.7345147E0,-2.4811886E1,-4.9019866E0,2.5456917E0,-1.03533585E2,-5.862891E1,-1.2085185E1,-2.281524E0,-1.3697694E1,-4.596628E0,-6.931378E0,1.4110769E0,3.9066913E0,-1.3740219E1,-8.376256E0,1.7527086E0,2.3559973E0,6.6557984E0,-1.592641E1,-4.2752275E0,5.953992E0,1.5636643E1,7.9890056E0,4.7374578E0,3.5131662E0,-2.0313957E0,-1.1220429E0,3.8129976E0,-2.6226194E0,3.421387E0,-9.072292E0,-1.8014355E-1,-4.1498704E0,2.3669015E-1,-6.9367677E-1,1.0055438E0,-3.5832565E1,-1.4943204E1,-8.438069E0,-2.291938E1,-1.1995766E0,1.8345612E0],"categories":[],"categories_nodes":[],"categories_segments":[],"categories_sizes":[],"default_left":[0,0,0,0,0,0,0,0,0,0,0,0,0,0,0,0,0,0,0,0,0,0,0,0,0,0,0,0,0,0,0,0,0,0,0,0,0,0,0,0,0,0,0,0,0,0,0,0,0,0,0,0,0,0,0,0,0,0,0,0,0,0,0,0,0,0,0,0,0,0,0,0,0,0,0,0,0,0,0],"id":4,"left_children":[1,3,5,7,9,11,13,15,17,19,21,-1,-1,23,25,27,29,31,33,35,-1,37,39,41,43,45,47,49,51,53,55,57,59,61,-1,63,-1,65,67,69,71,73,75,-1,-1,-1,-1,-1,77,-1,-1,-1,-1,-1,-1,-1,-1,-1,-1,-1,-1,-1,-1,-1,-1,-1,-1,-1,-1,-1,-1,-1,-1,-1,-1,-1,-1,-1,-1],"loss_changes":[1.2987222E5,1.27498484E5,2.7098156E4,7.501831E4,1.9672906E4,1.6888184E1,1.8027297E4,7.269557E4,4.5988258E4,1.6122109E3,1.1931598E4,0E0,0E0,5.8895156E3,2.308789E3,1.3834773E5,5.160896E4,1.1053875E4,3.2827773E3,2.7778115E3,0E0,1.7146086E4,2.4220227E2,4.453875E3,4.23208E2,5.1802344E2,1.0379194E3,6.6484266E4,2.6189345E5,2.7818594E4,5.2209688E3,3.1555938E3,2.4996094E2,1.3904222E3,0E0,3.571626E2,0E0,3.595562E3,1.5755336E4,2.650408E2,1.565618E2,2.5969219E3,4.3550547E3,0E0,0E0,0E0,0E0,0E0,1.0079545E2,0E0,0E0,0E0,0E0,0E0,0E0,0E0,0E0,0E0,0E0,0E0,0E0,0E0,0E0,0E0,0E0,0E0,0E0,0E0,0E0,0E0,0E0,0E0,0E0,0E0,0E0,0E0,0E0,0E0,0E0],"parents":[2147483647,0,0,1,1,2,2,3,3,4,4,5,5,6,6,7,7,8,8,9,9,10,10,13,13,14,14,15,15,16,16,17,17,18,18,19,19,21,21,22,22,23,23,24,24,25,25,26,26,27,27,28,28,29,29,30,30,31,31,32,32,33,33,35,35,37,37,38,38,39,39,40,40,41,41,42,42,48,48],"right_children":[2,4,6,8,10,12,14,16,18,20,22,-1,-1,24,26,28,30,32,34,36,-1,38,40,42,44,46,48,50,52,54,56,58,60,62,-1,64,-1,66,68,70,72,74,76,-1,-1,-1,-1,-1,78,-1,-1,-1,-1,-1,-1,-1,-1,-1,-1,-1,-1,-1,-1,-1,-1,-1,-1,-1,-1,-1,-1,-1,-1,-1,-1,-1,-1,-1,-1],"split_conditions":[3.3247E4,8.4513E4,2.18E2,7.2314E4,4.44E2,0E0,1.3059E4,0E0,2E0,1.49782E5,0E0,4.2591634E0,1.0734284E0,7E0,6E0,0E0,1.4163E4,6E0,4.6E1,0E0,-1.0714991E1,0E0,8.6485E4,8.83E2,3.75E2,5.208E3,6.85E2,1E1,8.302E3,6E0,5.301E3,7.3344E4,8.38E3,0E0,-1.3760243E1,3.305E3,-9.431857E0,7E3,5.0586E4,6.21E3,1E0,6E0,7.1577E4,-1.2085185E1,-2.281524E0,-1.3697694E1,-4.596628E0,-6.931378E0,1.172E3,3.9066913E0,-1.3740219E1,-8.376256E0,1.7527086E0,2.3559973E0,6.6557984E0,-1.592641E1,-4.2752275E0,5.953992E0,1.5636643E1,7.9890056E0,4.7374578E0,3.5131662E0,-2.0313957E0,-1.1220429E0,3.8129976E0,-2.6226194E0,3.421387E0,-9.072292E0,-1.8014355E-1,-4.1498704E0,2.3669015E-1,-6.9367677E-1,1.0055438E0,-3.5832565E1,-1.4943204E1,-8.438069E0,-2.291938E1,-1.1995766E0,1.8345612E0],"split_indices":[18,0,0,0,9,0,7,7,8,0,16,0,0,4,11,10,2,4,8,7,0,7,0,0,8,2,6,4,1,4,1,0,1,7,0,1,0,1,2,1,14,4,18,0,0,0,0,0,0,0,0,0,0,0,0,0,0,0,0,0,0,0,0,0,0,0,0,0,0,0,0,0,0,0,0,0,0,0,0],"split_type":[0,0,0,0,0,0,0,0,0,0,0,0,0,0,0,0,0,0,0,0,0,0,0,0,0,0,0,0,0,0,0,0,0,0,0,0,0,0,0,0,0,0,0,0,0,0,0,0,0,0,0,0,0,0,0,0,0,0,0,0,0,0,0,0,0,0,0,0,0,0,0,0,0,0,0,0,0,0,0],"sum_hessian":[2.709E3,2.655E3,5.4E1,2.336E3,3.19E2,6E0,4.8E1,2.227E3,1.09E2,6.4E1,2.55E2,5E0,1E0,2.6E1,2.2E1,1.456E3,7.71E2,8.2E1,2.7E1,9E0,5.5E1,2.14E2,4.1E1,2E1,6E0,1.2E1,1E1,5.3E2,9.26E2,7.53E2,1.8E1,5.2E1,3E1,2.6E1,1E0,4E0,5E0,9.5E1,1.19E2,4E0,3.7E1,9E0,1.1E1,5E0,1E0,1E1,2E0,8E0,2E0,5.11E2,1.9E1,4.18E2,5.08E2,5.76E2,1.77E2,1.2E1,6E0,5E0,4.7E1,2.1E1,9E0,4E0,2.2E1,3E0,1E0,8.6E1,9E0,9.7E1,2.2E1,1E0,3E0,5E0,3.2E1,6E0,3E0,5E0,6E0,1E0,1E0],"tree_param":{"num_deleted":"0","num_feature":"23","num_nodes":"79","size_leaf_vector":"1"}},{"base_weights":[-1.8294314E-1,5.567576E-1,-3.590044E1,-2.0261866E1,1.7057774E0,2.998722E0,-4.1724377E1,-2.4374285E1,5.4257445E0,7.501263E-1,2.5549915E1,-5.5316944E1,-2.3953777E1,-3.457822E1,-1.5208214E1,9.929589E-1,9.064163E0,-2.6808329E0,6.3741384E0,3.557521E1,1.0374488E1,-3.0015993E1,-4.7735905E1,-3.0926527E1,-1.3535639E1,-3.0605667E1,-2.0693142E1,-5.401552E0,-2.5789663E1,3.789518E0,-7.0359983E0,7.5609E0,-9.003406E0,2.233351E1,1.7542162E0,5.095814E1,2.7378939E1,6.2600613E0,3.9430227E0,-3.4657963E1,-1.836895E1,-9.961959E0,-3.677304E0,-5.7404814E0,-2.989493E0,-1.0826474E1,-2.7969131E0,4.2154264E0,-4.1234393E0,8.044052E-2,-1.00203085E1,-6.761021E-1,1.6927623E0,-3.4998095E-1,-2.463509E0,3.85279E0,-1.8656585E0,-9.330007E0,6.39211E-1,1.1176602E1,1.748867E0,-1.0777849E0,2.7896655E0,3.124621E0,1.6534561E1,1.0266617E1,4.4926167E0,2.7208622E0,-1.75215E0,-1.3016778E1,6.012497E-2,-1.9007481E0,1.5593766E0],"categories":[],"categories_nodes":[],"categories_segments":[],"categories_sizes":[],"default_left":[0,0,0,0,0,0,0,0,0,0,0,0,0,0,0,0,0,0,0,0,0,0,0,0,0,0,0,0,0,0,0,0,0,0,0,0,0,0,0,0,0,0,0,0,0,0,0,0,0,0,0,0,0,0,0,0,0,0,0,0,0,0,0,0,0,0,0,0,0,0,0,0,0],"id":5,"left_children":[1,3,5,7,9,-1,11,13,15,17,19,21,23,25,27,29,-1,31,33,35,37,-1,39,41,43,45,-1,47,49,51,53,55,57,59,61,63,65,67,-1,69,-1,-1,-1,-1,71,-1,-1,-1,-1,-1,-1,-1,-1,-1,-1,-1,-1,-1,-1,-1,-1,-1,-1,-1,-1,-1,-1,-1,-1,-1,-1,-1,-1],"loss_changes":[7.16189E4,6.3568766E4,1.5118367E4,1.4815965E4,5.7357684E4,0E0,1.05108125E4,1.0697727E4,2.1676084E3,4.675141E4,1.4388332E4,4.380867E3,1.2521787E3,5.5413906E3,6.605662E3,4.3082523E2,0E0,9.7523016E4,6.764592E4,5.9176094E3,3.7342236E2,0E0,2.2897188E3,1.4631055E2,5.9235754E2,5.7311016E3,0E0,5.8736665E3,6.1573516E3,1.6949084E2,2.49234E1,4.1928945E4,2.291166E5,5.051428E4,2.8795883E4,2.6281875E3,2.882668E3,6.649035E2,0E0,4.57408E3,0E0,0E0,0E0,0E0,1.6992227E2,0E0,0E0,0E0,0E0,0E0,0E0,0E0,0E0,0E0,0E0,0E0,0E0,0E0,0E0,0E0,0E0,0E0,0E0,0E0,0E0,0E0,0E0,0E0,0E0,0E0,0E0,0E0,0E0],"parents":[2147483647,0,0,1,1,2,2,3,3,4,4,6,6,7,7,8,8,9,9,10,10,11,11,12,12,13,13,14,14,15,15,17,17,18,18,19,19,20,20,22,22,23,23,24,24,25,25,27,27,28,28,29,29,30,30,31,31,32,32,33,33,34,34,35,35,36,36,37,37,39,39,44,44],"right_children":[2,4,6,8,10,-1,12,14,16,18,20,22,24,26,28,30,-1,32,34,36,38,-1,40,42,44,46,-1,48,50,52,54,56,58,60,62,64,66,68,-1,70,-1,-1,-1,-1,72,-1,-1,-1,-1,-1,-1,-1,-1,-1,-1,-1,-1,-1,-1,-1,-1,-1,-1,-1,-1,-1,-1,-1,-1,-1,-1,-1,-1],"split_conditions":[3.3247E4,4.63E2,2.18E2,1.7E1,1.5711E4,2.998722E0,1.3059E4,2.84E2,3.31E2,1E0,2.6282E4,4.5154E4,6E0,9E0,4.28E2,3.625E3,9.064163E0,0E0,0E0,1E0,0E0,-3.0015993E1,7.1577E4,5.208E3,4.944E3,2.8E1,-2.0693142E1,2.8E1,3E0,4.8E1,3.967E3,0E0,4.974E3,1E0,8.11E2,3E0,1.62E4,2.7009E4,3.9430227E0,1.01E3,-1.836895E1,-9.961959E0,-3.677304E0,-5.7404814E0,1.311E3,-1.0826474E1,-2.7969131E0,4.2154264E0,-4.1234393E0,8.044052E-2,-1.00203085E1,-6.761021E-1,1.6927623E0,-3.4998095E-1,-2.463509E0,3.85279E0,-1.8656585E0,-9.330007E0,6.39211E-1,1.1176602E1,1.748867E0,-1.0777849E0,2.7896655E0,3.124621E0,1.6534561E1,1.0266617E1,4.4926167E0,2.7208622E0,-1.75215E0,-1.3016778E1,6.012497E-2,-1.9007481E0,1.5593766E0],"split_indices":[18,9,0,7,18,0,7,6,0,14,1,18,11,19,6,1,0,10,8,8,10,0,18,2,2,17,0,0,11,0,1,8,2,0,9,4,1,1,0,0,0,0,0,0,0,0,0,0,0,0,0,0,0,0,0,0,0,0,0,0,0,0,0,0,0,0,0,0,0,0,0,0,0],"split_type":[0,0,0,0,0,0,0,0,0,0,0,0,0,0,0,0,0,0,0,0,0,0,0,0,0,0,0,0,0,0,0,0,0,0,0,0,0,0,0,0,0,0,0,0,0,0,0,0,0,0,0,0,0,0,0,0,0,0,0,0,0,0,0,0,0,0,0,0,0,0,0,0,0],"sum_hessian":[2.709E3,2.655E3,5.4E1,1.38E2,2.517E3,6E0,4.8E1,1.19E2,1.9E1,2.421E3,9.6E1,2.6E1,2.2E1,5.5E1,6.4E1,1.7E1,2E0,1.504E3,9.17E2,5.7E1,3.9E1,2E0,2.4E1,1.2E1,1E1,5.1E1,4E0,3.4E1,3E1,1.3E1,4E0,5.74E2,9.3E2,2.05E2,7.12E2,1.8E1,3.9E1,1.7E1,2.2E1,1.4E1,1E1,1E1,2E0,6E0,4E0,4E1,1.1E1,1E1,2.4E1,7E0,2.3E1,3E0,1E1,1E0,3E0,4.15E2,1.59E2,3.11E2,6.19E2,1.07E2,9.8E1,4.17E2,2.95E2,2E0,1.6E1,2.4E1,1.5E1,1.4E1,3E0,1.1E1,3E0,3E0,1E0],"tree_param":{"num_deleted":"0","num_feature":"23","num_nodes":"73","size_leaf_vector":"1"}},{"base_weights":[-1.5303998E-1,3.9363423E-1,-2.6549652E1,-1.47031E0,9.887732E0,7.42541E0,-3.0861403E1,-4.9044952E0,3.6518168E0,7.878642E0,3.072297E1,2.4446912E0,4.6260682E-1,-4.0993767E1,-1.762509E1,-1.568698E1,8.717185E-1,-5.3195295E0,1.2756679E1,1.304795E1,6.931769E-1,2.4572664E1,3.851526E1,-2.4012793E1,-3.466815E1,-2.269775E1,-1.0027846E1,2.7806318E0,-5.0460068E1,-4.4585674E1,1.6159009E0,8.127057E0,-1.2552434E1,2.6253374E1,5.10799E0,1.9161674E1,6.3264446E0,1.3893813E1,-7.8777033E-1,2.5686197E1,2.4647613E0,3.964989E-1,1.2323262E1,-3.8723015E1,-1.0704086E1,-1.8227738E0,-7.0729733E0,-4.3564153E0,-1.7313232E0,2.677621E0,-4.0636284E1,2.6947381E0,-2.467449E1,-1.4518828E1,7.424675E-1,6.001781E0,-2.5488865E-1,4.3041143E0,-1.1439655E1,-1.1173679E1,-2.782515E0,8.676926E0,6.285095E-1,-9.636005E-1,2.2924862E0,-1.1340649E1,6.4296756E0,1.3390617E0,4.4017897E0,4.374105E0,4.3638384E-1,-3.8543584E0,1.5864529E-1,2.8510087E0,8.048795E0,-1.6054682E1,-8.7714815E0,1.3222504E-2,-4.0206437E0,-1.3119817E0,1.3254708E0],"categories":[],"categories_nodes":[],"categories_segments":[],"categories_sizes":[],"default_left":[0,0,0,0,0,0,0,0,0,0,0,0,0,0,0,0,0,0,0,0,0,0,0,0,0,0,0,0,0,0,0,0,0,0,0,0,0,0,0,0,0,0,0,0,0,0,0,0,0,0,0,0,0,0,0,0,0,0,0,0,0,0,0,0,0,0,0,0,0,0,0,0,0,0,0,0,0,0,0,0,0],"id":6,"left_children":[1,3,5,7,9,11,13,15,17,19,21,-1,-1,23,25,27,29,31,33,35,37,39,41,-1,43,45,47,49,51,53,55,57,59,61,63,65,67,69,71,73,-1,-1,-1,75,77,-1,-1,-1,79,-1,-1,-1,-1,-1,-1,-1,-1,-1,-1,-1,-1,-1,-1,-1,-1,-1,-1,-1,-1,-1,-1,-1,-1,-1,-1,-1,-1,-1,-1,-1,-1],"loss_changes":[3.911669E4,4.7016355E4,8.286219E3,3.908604E4,1.800884E4,1.7233002E1,5.849121E3,8.284866E4,7.2928984E4,1.4811363E4,8.7472656E2,0E0,0E0,3.894293E3,6.587705E2,2.981099E5,2.9401432E4,4.386806E4,4.559768E4,9.412453E3,3.2952517E3,2.2609668E2,1.3752148E3,0E0,2.0147812E3,4.665088E1,3.849469E2,2.5943319E5,3.0496003E5,2.6302637E3,3.8738363E4,4.6008742E4,2.3366738E4,1.0258742E4,6.0112036E3,1.6460422E4,1.6759023E3,1.239707E2,2.4202761E3,1.5200586E2,0E0,0E0,0E0,1.3816797E3,1.4558661E2,0E0,0E0,0E0,1.0055624E2,0E0,0E0,0E0,0E0,0E0,0E0,0E0,0E0,0E0,0E0,0E0,0E0,0E0,0E0,0E0,0E0,0E0,0E0,0E0,0E0,0E0,0E0,0E0,0E0,0E0,0E0,0E0,0E0,0E0,0E0,0E0,0E0],"parents":[2147483647,0,0,1,1,2,2,3,3,4,4,5,5,6,6,7,7,8,8,9,9,10,10,13,13,14,14,15,15,16,16,17,17,18,18,19,19,20,20,21,21,22,22,24,24,25,25,26,26,27,27,28,28,29,29,30,30,31,31,32,32,33,33,34,34,35,35,36,36,37,37,38,38,39,39,43,43,44,44,48,48],"right_children":[2,4,6,8,10,12,14,16,18,20,22,-1,-1,24,26,28,30,32,34,36,38,40,42,-1,44,46,48,50,52,54,56,58,60,62,64,66,68,70,72,74,-1,-1,-1,76,78,-1,-1,-1,80,-1,-1,-1,-1,-1,-1,-1,-1,-1,-1,-1,-1,-1,-1,-1,-1,-1,-1,-1,-1,-1,-1,-1,-1,-1,-1,-1,-1,-1,-1,-1,-1],"split_conditions":[3.3247E4,0E0,2.18E2,1.5E1,1.2E1,0E0,1.3059E4,4.974E3,7.75E2,1.4E1,2.2E1,2.4446912E0,4.6260682E-1,4.5154E4,6E0,8.18E2,5.301E3,4.7322E4,4.97E3,8.3E2,4E0,3.3E1,3.305E3,-2.4012793E1,8E0,3.59E2,6.79E2,1.3E1,0E0,9E0,8.27E2,1.7E1,9.2979E4,8E0,1.08E2,7.69E2,6E0,4.7E1,2.18E2,5.5E1,2.4647613E0,3.964989E-1,1.2323262E1,7.31E2,8.47E2,-1.8227738E0,-7.0729733E0,-4.3564153E0,1.248E3,2.677621E0,-4.0636284E1,2.6947381E0,-2.467449E1,-1.4518828E1,7.424675E-1,6.001781E0,-2.5488865E-1,4.3041143E0,-1.1439655E1,-1.1173679E1,-2.782515E0,8.676926E0,6.285095E-1,-9.636005E-1,2.2924862E0,-1.1340649E1,6.4296756E0,1.3390617E0,4.4017897E0,4.374105E0,4.3638384E-1,-3.8543584E0,1.5864529E-1,2.8510087E0,8.048795E0,-1.6054682E1,-8.7714815E0,1.3222504E-2,-4.0206437E0,-1.3119817E0,1.3254708E0],"split_indices":[18,16,0,0,4,0,7,2,9,0,4,0,0,18,11,6,1,0,2,9,7,10,1,0,5,8,6,8,10,5,9,4,0,4,0,6,4,8,0,7,0,0,0,6,0,0,0,0,0,0,0,0,0,0,0,0,0,0,0,0,0,0,0,0,0,0,0,0,0,0,0,0,0,0,0,0,0,0,0,0,0],"split_type":[0,0,0,0,0,0,0,0,0,0,0,0,0,0,0,0,0,0,0,0,0,0,0,0,0,0,0,0,0,0,0,0,0,0,0,0,0,0,0,0,0,0,0,0,0,0,0,0,0,0,0,0,0,0,0,0,0,0,0,0,0,0,0,0,0,0,0,0,0,0,0,0,0,0,0,0,0,0,0,0,0],"sum_hessian":[2.709E3,2.655E3,5.4E1,2.22E3,4.35E2,6E0,4.8E1,1.329E3,8.91E2,3.98E2,3.7E1,5E0,1E0,2.6E1,2.2E1,4.63E2,8.66E2,4.49E2,4.42E2,2.31E2,1.67E2,2.3E1,1.4E1,2E0,2.4E1,1.2E1,1E1,3.03E2,1.6E2,1.3E1,8.53E2,1.57E2,2.92E2,1.59E2,2.83E2,1.2E2,1.11E2,1.6E1,1.51E2,2.1E1,2E0,1E0,1.3E1,2E1,4E0,1E0,1.1E1,6E0,4E0,2.91E2,1.2E1,5.6E1,1.04E2,1.2E1,1E0,1E2,7.53E2,1.39E2,1.8E1,3.3E1,2.59E2,1.43E2,1.6E1,6.6E1,2.17E2,4E0,1.16E2,9.2E1,1.9E1,1.5E1,1E0,1.4E1,1.37E2,2E0,1.9E1,6E0,1.4E1,1E0,3E0,3E0,1E0],"tree_param":{"num_deleted":"0","num_feature":"23","num_nodes":"81","size_leaf_vector":"1"}},{"base_weights":[-1.4903896E-1,1.5725557E1,-6.8156487E-1,2.0843273E1,-2.6276953E1,-1.7098166E0,8.360385E0,2.850629E1,1.63162E1,9.4861984E-1,-3.8080574E1,-5.3387604E0,2.023658E0,1.515778E1,3.8887026E0,4.001299E0,8.937906E0,-1.2316473E0,1.9069149E1,-3.7234728E0,6.1543813E0,-1.2615382E1,-2.1384544E0,5.981159E-1,-1.5381986E1,8.403929E0,-3.9871874E0,1.7778904E1,-6.9723177E-1,2.4194083E0,7.5732245E0,6.088403E0,1.1274643E0,2.018238E1,-6.6313457E0,-4.7816135E1,2.6840791E-2,1.0752905E1,-1.828134E1,-6.979129E0,1.2791772E1,1.4905267E1,2.371226E1,-2.8727283E0,1.399022E0,3.7617452E0,-2.9948175E0,5.657553E0,1.2529496E1,-1.8955766E-1,5.773575E-1,6.993074E0,-1.0959657E1,-1.7986256E1,-9.004906E-1,1.1000901E0,-2.2918663E1,6.946596E0,-5.352076E-1,4.009259E0,1.3579273E-1,2.6781886E0,-1.0827431E1,-1.5850219E0,-6.732059E0,-4.6815842E-2,5.94509E0,3.1277007E-1,4.600691E0,8.905257E0,5.6236196E0,6.985977E-1,-1.0671834E0,1.4270148E0,5.5102444E-1,-1.6614594E-1,-3.0676522E0,-1.690194E0,1.8466089E0,3.9129262E0,1.0319996E0],"categories":[],"categories_nodes":[],"categories_segments":[],"categories_sizes":[],"default_left":[0,0,0,0,0,0,0,0,0,0,0,0,0,0,0,0,0,0,0,0,0,0,0,0,0,0,0,0,0,0,0,0,0,0,0,0,0,0,0,0,0,0,0,0,0,0,0,0,0,0,0,0,0,0,0,0,0,0,0,0,0,0,0,0,0,0,0,0,0,0,0,0,0,0,0,0,0,0,0,0,0],"id":7,"left_children":[1,3,5,7,9,11,13,15,17,19,21,23,25,27,29,-1,-1,-1,31,-1,-1,-1,-1,33,35,37,39,41,43,45,47,-1,49,51,53,55,57,59,61,63,65,67,69,71,-1,73,75,77,79,-1,-1,-1,-1,-1,-1,-1,-1,-1,-1,-1,-1,-1,-1,-1,-1,-1,-1,-1,-1,-1,-1,-1,-1,-1,-1,-1,-1,-1,-1,-1,-1],"loss_changes":[2.2920066E4,1.9463906E4,2.4401375E4,2.2754766E3,3.249728E3,3.1931232E4,8.087125E3,1.4913086E2,3.0017227E3,1.3002399E3,5.6056934E2,7.126153E4,4.4597164E4,4.417541E3,8.6410156E2,0E0,0E0,0E0,9.8856445E2,0E0,0E0,0E0,0E0,1.0660477E5,2.2190014E5,3.5549812E4,3.016007E4,1.1981406E3,1.999895E2,8.6885626E2,3.6586475E2,0E0,6.8251777E0,3.686286E4,1.0627061E5,2.1068412E5,1.2689848E4,1.3953492E4,2.2613266E4,1.3226238E4,8.280541E3,3.6583887E2,2.740869E2,5.1010986E1,0E0,1.732179E2,4.1793927E2,2.3141528E2,1.1151245E1,0E0,0E0,0E0,0E0,0E0,0E0,0E0,0E0,0E0,0E0,0E0,0E0,0E0,0E0,0E0,0E0,0E0,0E0,0E0,0E0,0E0,0E0,0E0,0E0,0E0,0E0,0E0,0E0,0E0,0E0,0E0,0E0],"parents":[2147483647,0,0,1,1,2,2,3,3,4,4,5,5,6,6,7,7,8,8,9,9,10,10,11,11,12,12,13,13,14,14,18,18,23,23,24,24,25,25,26,26,27,27,28,28,29,29,30,30,32,32,33,33,34,34,35,35,36,36,37,37,38,38,39,39,40,40,41,41,42,42,43,43,45,45,46,46,47,47,48,48],"right_children":[2,4,6,8,10,12,14,16,18,20,22,24,26,28,30,-1,-1,-1,32,-1,-1,-1,-1,34,36,38,40,42,44,46,48,-1,50,52,54,56,58,60,62,64,66,68,70,72,-1,74,76,78,80,-1,-1,-1,-1,-1,-1,-1,-1,-1,-1,-1,-1,-1,-1,-1,-1,-1,-1,-1,-1,-1,-1,-1,-1,-1,-1,-1,-1,-1,-1,-1,-1],"split_conditions":[0E0,5.136E3,0E0,8.31E2,3E0,2E0,8.3E2,5.035E3,0E0,5.103E3,1.7E1,0E0,0E0,2E0,4E0,4.001299E0,8.937906E0,-1.2316473E0,2E0,-3.7234728E0,6.1543813E0,-1.2615382E1,-2.1384544E0,8.18E2,8.284E3,1.2E1,0E0,6E0,7.646E3,2E0,6E0,6.088403E0,8.27E3,1E0,4.944E3,4.577E3,8.03E2,8.796E4,6E1,1.5711E4,6E0,0E0,2E0,5.136E3,1.399022E0,8.38E2,3E0,7.403E3,5.118E3,-1.8955766E-1,5.773575E-1,6.993074E0,-1.0959657E1,-1.7986256E1,-9.004906E-1,1.1000901E0,-2.2918663E1,6.946596E0,-5.352076E-1,4.009259E0,1.3579273E-1,2.6781886E0,-1.0827431E1,-1.5850219E0,-6.732059E0,-4.6815842E-2,5.94509E0,3.1277007E-1,4.600691E0,8.905257E0,5.6236196E0,6.985977E-1,-1.0671834E0,1.4270148E0,5.5102444E-1,-1.6614594E-1,-3.0676522E0,-1.690194E0,1.8466089E0,3.9129262E0,1.0319996E0],"split_indices":[4,2,12,9,14,0,9,1,8,1,0,8,7,0,12,0,0,0,10,0,0,0,0,6,1,4,20,4,2,14,4,0,1,0,2,2,6,0,0,18,4,10,10,2,0,6,4,1,2,0,0,0,0,0,0,0,0,0,0,0,0,0,0,0,0,0,0,0,0,0,0,0,0,0,0,0,0,0,0,0,0],"split_type":[0,0,0,0,0,0,0,0,0,0,0,0,0,0,0,0,0,0,0,0,0,0,0,0,0,0,0,0,0,0,0,0,0,0,0,0,0,0,0,0,0,0,0,0,0,0,0,0,0,0,0,0,0,0,0,0,0,0,0,0,0,0,0,0,0,0,0,0,0,0,0,0,0,0,0,0,0,0,0,0,0],"sum_hessian":[2.709E3,8.7E1,2.622E3,7.8E1,9E0,2.355E3,2.67E2,2.7E1,5.1E1,3E0,6E0,1.194E3,1.161E3,1.05E2,1.62E2,3E0,2.4E1,6E0,4.5E1,2E0,1E0,5E0,1E0,7.51E2,4.43E2,5.63E2,5.98E2,9E1,1.5E1,1.17E2,4.5E1,4.2E1,3E0,2.02E2,5.49E2,1.42E2,3.01E2,5.18E2,4.5E1,5.08E2,9E1,6.3E1,2.7E1,1.1E1,4E0,9.4E1,2.3E1,3.4E1,1.1E1,1E0,2E0,1.92E2,1E1,3.4E1,5.15E2,5.1E1,9.1E1,2.1E1,2.8E2,4.13E2,1.05E2,1.8E1,2.7E1,4.59E2,4.9E1,3.2E1,5.8E1,2E0,6.1E1,1E1,1.7E1,1E0,1E1,6.1E1,3.3E1,1.8E1,5E0,1E0,3.3E1,1E1,1E0],"tree_param":{"num_deleted":"0","num_feature":"23","num_nodes":"81","size_leaf_vector":"1"}},{"base_weights":[-1.0967985E-1,-1.0635555E1,4.592184E-1,-9.032119E0,-1.5540371E1,-9.717052E-1,6.9964924E0,-1.1776307E0,-1.3078509E1,1.4507917E1,-1.5727472E0,1.4941449E1,-7.415785E-1,1.8913572E0,-1.8984898E1,-1.3732908E1,6.6762843E0,1.9902523E1,1.1155928E1,3.4648757E0,-3.2841048E0,2.365513E1,3.3483167E0,-7.50794E0,3.9035091E0,-1.0952905E0,1.2026198E1,4.082767E0,-8.005637E0,-7.285698E0,-1.8056252E1,1.5942956E1,8.4910555E0,-2.103342E0,1.331316E1,1.0483138E1,-5.171631E0,-1.2381584E1,-1.6022676E-1,2.0848118E1,8.966084E1,-3.9699505E1,1.6163273E1,-1.7747105E0,-3.8349064E1,7.2255406E0,-8.518125E0,2.778416E-1,-7.6983466E0,-3.4285145E0,3.6303859E0,-7.02932E0,-1.6836492E0,5.0259886E0,-1.6112366E-1,6.7827535E-1,-9.149388E-1,4.2699995E0,-1.2020891E0,6.3182297E0,-1.8680878E-1,-6.069904E0,-2.7681568E-1,-8.884455E0,1.6094854E0,-1.7743366E0,4.1399944E-1,9.952612E0,2.1505985E0,3.7267834E1,7.5625873E0,-1.8923416E1,3.6060083E0,9.572574E0,3.9166777E0,1.7267333E0,-6.4026904E0,-6.196579E0,-2.0881687E1,2.3700953E0,-1.0049984E1,-6.2748723E0,-1.150615E0],"categories":[],"categories_nodes":[],"categories_segments":[],"categories_sizes":[],"default_left":[0,0,0,0,0,0,0,0,0,0,0,0,0,0,0,0,0,0,0,0,0,0,0,0,0,0,0,0,0,0,0,0,0,0,0,0,0,0,0,0,0,0,0,0,0,0,0,0,0,0,0,0,0,0,0,0,0,0,0,0,0,0,0,0,0,0,0,0,0,0,0,0,0,0,0,0,0,0,0,0,0,0,0],"id":8,"left_children":[1,3,5,7,-1,9,11,13,15,17,19,21,23,25,27,29,-1,31,33,35,37,39,41,43,45,47,-1,-1,-1,49,51,53,-1,55,57,59,61,63,65,67,69,71,73,75,77,79,81,-1,-1,-1,-1,-1,-1,-1,-1,-1,-1,-1,-1,-1,-1,-1,-1,-1,-1,-1,-1,-1,-1,-1,-1,-1,-1,-1,-1,-1,-1,-1,-1,-1,-1,-1,-1],"loss_changes":[1.6232776E4,8.707038E3,2.406616E4,4.275214E3,0E0,1.966336E4,2.8414209E4,2.6044707E3,2.3634492E3,1.2064961E3,1.7538223E4,2.2953098E4,7.4154375E3,4.721101E3,2.1201187E3,2.3213145E3,0E0,5.1342285E2,1.4867725E3,3.1330662E4,4.3138688E4,2.2217008E4,5.525561E4,1.6906588E4,5.8386562E3,1.9604337E3,0E0,0E0,0E0,3.109921E3,3.346502E3,3.027954E2,0E0,3.99399E1,7.5828125E2,3.3493027E4,1.4828048E4,1.1882121E5,1.0031994E4,2.100957E4,8.0074766E3,2.8568137E4,3.3511328E3,1.2205829E4,6.85799E3,3.3150083E3,1.6614932E3,0E0,0E0,0E0,0E0,0E0,0E0,0E0,0E0,0E0,0E0,0E0,0E0,0E0,0E0,0E0,0E0,0E0,0E0,0E0,0E0,0E0,0E0,0E0,0E0,0E0,0E0,0E0,0E0,0E0,0E0,0E0,0E0,0E0,0E0,0E0,0E0],"parents":[2147483647,0,0,1,1,2,2,3,3,5,5,6,6,7,7,8,8,9,9,10,10,11,11,12,12,13,13,14,14,15,15,17,17,18,18,19,19,20,20,21,21,22,22,23,23,24,24,25,25,29,29,30,30,31,31,33,33,34,34,35,35,36,36,37,37,38,38,39,39,40,40,41,41,42,42,43,43,44,44,45,45,46,46],"right_children":[2,4,6,8,-1,10,12,14,16,18,20,22,24,26,28,30,-1,32,34,36,38,40,42,44,46,48,-1,-1,-1,50,52,54,-1,56,58,60,62,64,66,68,70,72,74,76,78,80,82,-1,-1,-1,-1,-1,-1,-1,-1,-1,-1,-1,-1,-1,-1,-1,-1,-1,-1,-1,-1,-1,-1,-1,-1,-1,-1,-1,-1,-1,-1,-1,-1,-1,-1,-1,-1],"split_conditions":[4.63E2,9E0,6E0,3E0,-1.5540371E1,0E0,5.3E1,1.277E3,4.3E1,8.302E3,8.06E2,1E0,4.479E3,7.72E2,4E0,2.446E3,6.6762843E0,4.91E3,0E0,3E0,4.965E3,1.4E1,3E0,7.26E3,9.154E3,1.75912E5,1.2026198E1,4.082767E0,-8.005637E0,3.59E2,7E0,0E0,8.4910555E0,8.309E3,2E0,1E0,2E0,1E0,1E0,7E0,0E0,7.76E2,3E0,4.677E3,0E0,1.511E3,3.61E2,2.778416E-1,-7.6983466E0,-3.4285145E0,3.6303859E0,-7.02932E0,-1.6836492E0,5.0259886E0,-1.6112366E-1,6.7827535E-1,-9.149388E-1,4.2699995E0,-1.2020891E0,6.3182297E0,-1.8680878E-1,-6.069904E0,-2.7681568E-1,-8.884455E0,1.6094854E0,-1.7743366E0,4.1399944E-1,9.952612E0,2.1505985E0,3.7267834E1,7.5625873E0,-1.8923416E1,3.6060083E0,9.572574E0,3.9166777E0,1.7267333E0,-6.4026904E0,-6.196579E0,-2.0881687E1,2.3700953E0,-1.0049984E1,-6.2748723E0,-1.150615E0],"split_indices":[9,19,11,11,0,4,0,13,5,1,6,8,2,13,0,2,0,2,7,8,2,4,8,1,18,2,0,0,0,9,14,5,0,1,10,0,0,0,5,4,0,6,10,0,7,8,8,0,0,0,0,0,0,0,0,0,0,0,0,0,0,0,0,0,0,0,0,0,0,0,0,0,0,0,0,0,0,0,0,0,0,0,0],"split_type":[0,0,0,0,0,0,0,0,0,0,0,0,0,0,0,0,0,0,0,0,0,0,0,0,0,0,0,0,0,0,0,0,0,0,0,0,0,0,0,0,0,0,0,0,0,0,0,0,0,0,0,0,0,0,0,0,0,0,0,0,0,0,0,0,0,0,0,0,0,0,0,0,0,0,0,0,0,0,0,0,0,0,0],"sum_hessian":[2.709E3,1.38E2,2.571E3,1.34E2,4E0,2.11E3,4.61E2,4.6E1,8.8E1,7.8E1,2.032E3,2.27E2,2.34E2,4E1,6E0,8.7E1,1E0,2.8E1,5E1,5.15E2,1.517E3,1.29E2,9.8E1,9.5E1,1.39E2,3.8E1,2E0,1E0,5E0,3.6E1,5.1E1,2.1E1,7E0,7E0,4.3E1,2.84E2,2.31E2,3.87E2,1.13E3,1.25E2,4E0,2.2E1,7.6E1,8.1E1,1.4E1,1.1E2,2.9E1,3.6E1,2E0,3E1,6E0,3.5E1,1.6E1,2E1,1E0,1E0,6E0,4.1E1,2E0,1.45E2,1.39E2,5E1,1.81E2,1.96E2,1.91E2,2.38E2,8.92E2,6.5E1,6E1,2E0,2E0,1.5E1,7E0,1.1E1,6.5E1,5.9E1,2.2E1,1E1,4E0,1.09E2,1E0,7E0,2.2E1],"tree_param":{"num_deleted":"0","num_feature":"23","num_nodes":"83","size_leaf_vector":"1"}},{"base_weights":[-7.7185296E-2,-7.806169E-1,6.3353543E0,-2.9848795E0,1.2643306E0,1.1184599E1,9.441132E-1,6.5128145E0,-5.4399137E0,-1.8844048E0,7.470351E0,1.50857E1,4.9938965E0,1.7519057E0,-3.2552059E0,1.3363877E1,-1.0512138E1,-2.4726181E1,-2.2497874E-1,-7.668988E1,-5.269573E-1,2.0129692E1,-4.007775E-2,1.0572786E1,1.3932527E1,7.013405E0,-2.2255073E0,1.4197862E0,8.309608E0,-2.2798336E0,-1.0108806E0,5.862349E0,3.3947174E1,-3.0464883E0,-7.726777E1,-1.1186006E1,-6.087691E1,3.7048946E1,-9.979855E-1,5.202428E0,-9.24902E1,3.066903E0,-4.417477E0,4.7636E1,1.3886847E1,1.0423075E0,-8.089066E0,1.2332083E1,8.864116E0,7.7391224E0,2.780285E0,-3.576966E0,1.7095165E0,2.5636406E0,-4.0037146E-1,2.8732402E0,4.8572618E-1,-1.5416826E0,9.630524E-1,1.0767571E0,2.981427E1,-2.1894171E0,1.2846732E1,5.222605E0,-1.0083622E1,-2.5654594E1,-4.16738E0,3.6717448E0,-9.529454E0,-2.3006237E1,1.1885894E1,3.9576283E0,1.5446318E1,-8.6633855E-1,2.1319537E0,-3.4145203E1,-1.948007E1,4.250058E0,-4.695306E-1,-1.1260628E0,-1.2290026E1,6.1696167E0,3.1652363E1,4.509352E0,-3.7375479E0,3.0481575E0,-2.7209064E-1,-2.8330488E0,3.340677E-1,4.626073E0,2.899651E0,-5.261799E-1,2.4154615E0,-6.45591E-1,1.1376951E0,-2.1440735E-1,-1.144676E0,6.888001E-1,-7.4901585E-3,9.1515166E-1,-7.953412E-1,5.6011903E-1,-8.623594E-1,-1.14134505E-1,-7.945702E-1],"categories":[],"categories_nodes":[],"categories_segments":[],"categories_sizes":[],"default_left":[0,0,0,0,0,0,0,0,0,0,0,0,0,0,0,0,0,0,0,0,0,0,0,0,0,0,0,0,0,0,0,0,0,0,0,0,0,0,0,0,0,0,0,0,0,0,0,0,0,0,0,0,0,0,0,0,0,0,0,0,0,0,0,0,0,0,0,0,0,0,0,0,0,0,0,0,0,0,0,0,0,0,0,0,0,0,0,0,0,0,0,0,0,0,0,0,0,0,0,0,0,0,0,0,0],"id":9,"left_children":[1,3,5,7,9,11,13,15,17,19,21,23,25,27,29,31,33,35,37,39,41,43,45,-1,47,49,51,53,55,-1,57,59,61,63,65,67,69,71,73,-1,75,77,79,81,83,85,87,89,-1,91,93,95,97,99,101,-1,-1,103,-1,-1,-1,-1,-1,-1,-1,-1,-1,-1,-1,-1,-1,-1,-1,-1,-1,-1,-1,-1,-1,-1,-1,-1,-1,-1,-1,-1,-1,-1,-1,-1,-1,-1,-1,-1,-1,-1,-1,-1,-1,-1,-1,-1,-1,-1,-1],"loss_changes":[1.2229167E4,1.1015844E4,6.995885E3,2.7456414E4,2.4792213E4,3.3298906E3,4.399016E2,2.8367123E4,9.403358E4,8.546007E4,4.0598727E4,1.508E3,8.320687E2,2.2341971E2,1.9706544E2,2.6513258E4,3.4650797E4,9.672699E4,2.1272152E4,2.3889766E4,1.1590631E4,2.6641586E4,2.3519875E3,0E0,1.7098086E3,1.13653076E2,7.524917E1,2.1755394E2,2.6906403E1,0E0,3.8557243E1,2.6853863E4,1.7151383E4,4.05995E4,2.4709883E3,7.076991E4,8.883919E4,4.4877266E3,1.1093958E4,0E0,2.4958594E2,2.2182062E4,9.5042295E3,4.3262375E4,4.136615E3,4.239409E3,4.0937402E2,4.850371E2,0E0,1.2385596E2,4.8093754E1,4.1030045E0,4.1263094E0,1.7057635E2,2.3537675E2,0E0,0E0,1.698729E1,0E0,0E0,0E0,0E0,0E0,0E0,0E0,0E0,0E0,0E0,0E0,0E0,0E0,0E0,0E0,0E0,0E0,0E0,0E0,0E0,0E0,0E0,0E0,0E0,0E0,0E0,0E0,0E0,0E0,0E0,0E0,0E0,0E0,0E0,0E0,0E0,0E0,0E0,0E0,0E0,0E0,0E0,0E0,0E0,0E0,0E0,0E0],"parents":[2147483647,0,0,1,1,2,2,3,3,4,4,5,5,6,6,7,7,8,8,9,9,10,10,11,11,12,12,13,13,14,14,15,15,16,16,17,17,18,18,19,19,20,20,21,21,22,22,24,24,25,25,26,26,27,27,28,28,30,30,31,31,32,32,33,33,34,34,35,35,36,36,37,37,38,38,40,40,41,41,42,42,43,43,44,44,45,45,46,46,47,47,49,49,50,50,51,51,52,52,53,53,54,54,57,57],"right_children":[2,4,6,8,10,12,14,16,18,20,22,24,26,28,30,32,34,36,38,40,42,44,46,-1,48,50,52,54,56,-1,58,60,62,64,66,68,70,72,74,-1,76,78,80,82,84,86,88,90,-1,92,94,96,98,100,102,-1,-1,104,-1,-1,-1,-1,-1,-1,-1,-1,-1,-1,-1,-1,-1,-1,-1,-1,-1,-1,-1,-1,-1,-1,-1,-1,-1,-1,-1,-1,-1,-1,-1,-1,-1,-1,-1,-1,-1,-1,-1,-1,-1,-1,-1,-1,-1,-1,-1],"split_conditions":[0E0,1E0,8.3E2,8.03E2,8.13E2,3E0,5E0,2E0,4.965E3,2E0,4.991E3,0E0,3.558E3,1.7E1,8.33E2,0E0,7.75E2,0E0,8.28E3,5.752E3,3.0389E4,2E0,5.649E3,1.0572786E1,0E0,8.14E2,1.22E2,1E0,3E1,-2.2798336E0,0E0,1.3E1,7.498E3,3E0,0E0,8.197E3,0E0,0E0,0E0,5.202428E0,7.815E3,5E0,1.747E3,5E0,7.6571E4,8.36E2,1E0,1E0,8.864116E0,7.403E3,1E0,8.267E3,3.541E3,4E0,8.38E2,2.8732402E0,4.8572618E-1,6E0,9.630524E-1,1.0767571E0,2.981427E1,-2.1894171E0,1.2846732E1,5.222605E0,-1.0083622E1,-2.5654594E1,-4.16738E0,3.6717448E0,-9.529454E0,-2.3006237E1,1.1885894E1,3.9576283E0,1.5446318E1,-8.6633855E-1,2.1319537E0,-3.4145203E1,-1.948007E1,4.250058E0,-4.695306E-1,-1.1260628E0,-1.2290026E1,6.1696167E0,3.1652363E1,4.509352E0,-3.7375479E0,3.0481575E0,-2.7209064E-1,-2.8330488E0,3.340677E-1,4.626073E0,2.899651E0,-5.261799E-1,2.4154615E0,-6.45591E-1,1.1376951E0,-2.1440735E-1,-1.144676E0,6.888001E-1,-7.4901585E-3,9.1515166E-1,-7.953412E-1,5.6011903E-1,-8.623594E-1,-1.14134505E-1,-7.945702E-1],"split_indices":[12,0,6,6,9,7,4,8,2,0,2,16,7,8,6,0,6,8,1,1,0,0,2,0,0,6,0,14,0,0,0,4,1,5,7,1,7,10,7,0,1,8,7,4,0,6,16,10,0,1,0,1,0,4,6,0,0,4,0,0,0,0,0,0,0,0,0,0,0,0,0,0,0,0,0,0,0,0,0,0,0,0,0,0,0,0,0,0,0,0,0,0,0,0,0,0,0,0,0,0,0,0,0,0,0],"split_type":[0,0,0,0,0,0,0,0,0,0,0,0,0,0,0,0,0,0,0,0,0,0,0,0,0,0,0,0,0,0,0,0,0,0,0,0,0,0,0,0,0,0,0,0,0,0,0,0,0,0,0,0,0,0,0,0,0,0,0,0,0,0,0,0,0,0,0,0,0,0,0,0,0,0,0,0,0,0,0,0,0,0,0,0,0,0,0,0,0,0,0,0,0,0,0,0,0,0,0,0,0,0,0,0,0],"sum_hessian":[2.709E3,2.442E3,2.67E2,1.175E3,1.267E3,1.4E2,1.27E2,2.41E2,9.34E2,8.41E2,4.26E2,8.5E1,5.5E1,1.07E2,2E1,1.72E2,6.9E1,1.98E2,7.36E2,1.4E1,8.27E2,1.58E2,2.68E2,3E0,8.2E1,4.3E1,1.2E1,1.03E2,4E0,6E0,1.4E1,1.27E2,4.5E1,6.3E1,6E0,1.45E2,5.3E1,1.4E1,7.22E2,2E0,1.2E1,4.3E2,3.97E2,2.8E1,1.3E2,2.37E2,3.1E1,7.6E1,6E0,3.6E1,7E0,9E0,3E0,6.3E1,4E1,3E0,1E0,1.3E1,1E0,1.25E2,2E0,8E0,3.7E1,3.8E1,2.5E1,5E0,1E0,6.8E1,7.7E1,4.6E1,7E0,6E0,8E0,5.86E2,1.36E2,5E0,7E0,1.26E2,3.04E2,3.91E2,6E0,2E1,8E0,1.25E2,5E0,4.1E1,1.96E2,2.7E1,4E0,3.3E1,4.3E1,1E0,3.5E1,1E0,6E0,1E0,8E0,2E0,1E0,5.8E1,5E0,2.1E1,1.9E1,7E0,6E0],"tree_param":{"num_deleted":"0","num_feature":"23","num_nodes":"105","size_leaf_vector":"1"}},{"base_weights":[-4.6286013E-2,2.5858092E0,-1.2670871E0,-1.102397E1,5.005926E0,-6.8292375E0,8.6324894E-1,-2.4041117E1,1.5872143E1,8.149309E0,-2.5118897E0,-1.7067194E1,-8.544591E-1,-2.0412498E0,3.9038944E0,-4.746161E1,-8.415962E0,1.0178299E1,1.9203568E1,1.5797895E1,3.282643E0,-3.7683918E0,5.1266182E1,1.1141177E1,-3.1599009E1,-1.5342842E0,1.6225525E1,-1.2883505E-1,-1.5035512E1,1.1242329E1,1.5483313E0,-2.9020182E1,-3.9527542E1,2.628226E1,-1.5939657E1,2.1334877E0,3.4935088E0,2.5931828E1,1.5888499E1,1.166521E1,2.6481066E1,-3.740505E-1,5.1040974E0,1.7326765E1,-7.2060223E0,5.9389243E0,2.3851416E1,2.606613E1,-1.7246395E1,-4.0243923E1,1.5798992E1,-2.7908206E0,4.61637E0,7.9283724E0,-2.1850076E0,-2.3318981E1,-1.1124707E1,1.8336094E1,1.2279631E0,-2.7990432E0,3.7968233E0,3.207808E0,-1.4823377E1,1.2940554E1,3.8692248E0,-3.8486584E1,-3.1411865E0,8.276322E-1,3.864441E-2,3.825979E0,1.1775649E1,5.0707955E0,2.2818696E0,5.341572E0,9.880026E-1,1.015383E1,1.3753741E0,1.0955201E0,-5.81304E-1,2.014618E0,2.5174338E-1,-9.353935E-1,6.4621305E0,-6.491138E0,1.5771321E0,3.8159273E0,-1.1434113E0,7.216851E-2,9.86857E0,3.852566E0,-1.3769243E1,2.5069995E0,-1.5921641E1,1.0693507E1,-2.2834618E0,1.8575962E0,-1.050337E0,8.355731E-1,2.1709375E0,-1.3506434E0,4.4994535E0,-1.4734665E0,9.050811E-1,-1.1981206E1,-2.7554576E0,-2.5570912E0,7.0832114E0,-3.3543774E-1,1.5642352E0,-5.280361E0,1.1106123E-1,1.782139E0,-1.3007059E0],"categories":[],"categories_nodes":[],"categories_segments":[],"categories_sizes":[],"default_left":[0,0,0,0,0,0,0,0,0,0,0,0,0,0,0,0,0,0,0,0,0,0,0,0,0,0,0,0,0,0,0,0,0,0,0,0,0,0,0,0,0,0,0,0,0,0,0,0,0,0,0,0,0,0,0,0,0,0,0,0,0,0,0,0,0,0,0,0,0,0,0,0,0,0,0,0,0,0,0,0,0,0,0,0,0,0,0,0,0,0,0,0,0,0,0,0,0,0,0,0,0,0,0,0,0,0,0,0,0,0,0,0,0],"id":10,"left_children":[1,3,5,7,9,11,13,15,17,19,21,23,25,27,29,31,33,35,37,39,41,43,45,47,49,51,-1,53,55,57,59,61,-1,63,65,67,-1,69,71,73,75,77,79,81,83,85,-1,87,89,91,93,95,97,99,101,-1,103,105,107,109,111,-1,-1,-1,-1,-1,-1,-1,-1,-1,-1,-1,-1,-1,-1,-1,-1,-1,-1,-1,-1,-1,-1,-1,-1,-1,-1,-1,-1,-1,-1,-1,-1,-1,-1,-1,-1,-1,-1,-1,-1,-1,-1,-1,-1,-1,-1,-1,-1,-1,-1,-1,-1],"loss_changes":[8.711224E3,2.834829E4,2.1950705E4,4.5895965E4,1.7271373E4,3.1365379E4,1.1842246E4,3.1804059E4,6.201914E2,1.911805E4,1.4788801E4,7.782672E4,1.22215E4,1.704545E4,1.1305019E4,5.058575E4,1.4516107E4,1.875476E2,1.6790234E2,8.521129E3,2.106627E3,1.5498537E4,5.927703E3,2.7988953E4,5.1854773E4,2.5014673E3,0E0,9.940962E3,2.0711613E4,1.1272775E4,4.8688203E3,2.4821982E4,0E0,1.6994038E3,2.6306555E4,4.6586056E0,0E0,7.2820703E2,3.9424316E1,7.4462754E3,8.714586E3,6.7432837E2,1.4443774E3,2.651585E3,3.302752E4,2.4682507E2,0E0,7.5758047E3,2.041683E4,6.653009E4,9.563436E3,1.7316555E3,2.43719E2,1.0789049E4,6.794458E3,0E0,4.328124E3,1.3376982E4,6.3240546E2,7.9815073E3,5.743835E3,0E0,0E0,0E0,0E0,0E0,0E0,0E0,0E0,0E0,0E0,0E0,0E0,0E0,0E0,0E0,0E0,0E0,0E0,0E0,0E0,0E0,0E0,0E0,0E0,0E0,0E0,0E0,0E0,0E0,0E0,0E0,0E0,0E0,0E0,0E0,0E0,0E0,0E0,0E0,0E0,0E0,0E0,0E0,0E0,0E0,0E0,0E0,0E0,0E0,0E0,0E0,0E0],"parents":[2147483647,0,0,1,1,2,2,3,3,4,4,5,5,6,6,7,7,8,8,9,9,10,10,11,11,12,12,13,13,14,14,15,15,16,16,17,17,18,18,19,19,20,20,21,21,22,22,23,23,24,24,25,25,27,27,28,28,29,29,30,30,31,31,33,33,34,34,35,35,37,37,38,38,39,39,40,40,41,41,42,42,43,43,44,44,45,45,47,47,48,48,49,49,50,50,51,51,52,52,53,53,54,54,56,56,57,57,58,58,59,59,60,60],"right_children":[2,4,6,8,10,12,14,16,18,20,22,24,26,28,30,32,34,36,38,40,42,44,46,48,50,52,-1,54,56,58,60,62,-1,64,66,68,-1,70,72,74,76,78,80,82,84,86,-1,88,90,92,94,96,98,100,102,-1,104,106,108,110,112,-1,-1,-1,-1,-1,-1,-1,-1,-1,-1,-1,-1,-1,-1,-1,-1,-1,-1,-1,-1,-1,-1,-1,-1,-1,-1,-1,-1,-1,-1,-1,-1,-1,-1,-1,-1,-1,-1,-1,-1,-1,-1,-1,-1,-1,-1,-1,-1,-1,-1,-1,-1],"split_conditions":[0E0,1E0,1E0,0E0,4E0,4.998E3,7.75E2,8.28E2,0E0,4.984E3,1.3E1,8.009E3,5.782E3,7.685E3,0E0,8.223E3,8.302E3,5.464E3,8.297E3,1E0,0E0,4.385E3,7.652E3,3E0,0E0,8.43E3,1.6225525E1,5.3E1,2E0,8.33E3,9.9E1,4.506E3,-3.9527542E1,8.29E2,8.31E2,5.035E3,3.4935088E0,6.425E3,1E0,0E0,0E0,8.344E3,8.38E2,6E0,4.976E3,5.674E3,2.3851416E1,7.498E3,5.103E3,0E0,8.297E3,0E0,0E0,7E0,1.7E1,-2.3318981E1,2.84E2,8.13E2,7.3344E4,0E0,2.0068E4,3.207808E0,-1.4823377E1,1.2940554E1,3.8692248E0,-3.8486584E1,-3.1411865E0,8.276322E-1,3.864441E-2,3.825979E0,1.1775649E1,5.0707955E0,2.2818696E0,5.341572E0,9.880026E-1,1.015383E1,1.3753741E0,1.0955201E0,-5.81304E-1,2.014618E0,2.5174338E-1,-9.353935E-1,6.4621305E0,-6.491138E0,1.5771321E0,3.8159273E0,-1.1434113E0,7.216851E-2,9.86857E0,3.852566E0,-1.3769243E1,2.5069995E0,-1.5921641E1,1.0693507E1,-2.2834618E0,1.8575962E0,-1.050337E0,8.355731E-1,2.1709375E0,-1.3506434E0,4.4994535E0,-1.4734665E0,9.050811E-1,-1.1981206E1,-2.7554576E0,-2.5570912E0,7.0832114E0,-3.3543774E-1,1.5642352E0,-5.280361E0,1.1106123E-1,1.782139E0,-1.3007059E0],"split_indices":[0,11,0,7,5,2,9,9,4,2,5,1,2,1,8,1,1,1,1,10,10,2,1,8,7,1,0,0,0,1,0,2,0,9,9,1,0,1,7,10,7,1,6,4,2,1,0,1,1,10,1,4,7,4,7,0,6,9,0,7,0,0,0,0,0,0,0,0,0,0,0,0,0,0,0,0,0,0,0,0,0,0,0,0,0,0,0,0,0,0,0,0,0,0,0,0,0,0,0,0,0,0,0,0,0,0,0,0,0,0,0,0,0],"split_type":[0,0,0,0,0,0,0,0,0,0,0,0,0,0,0,0,0,0,0,0,0,0,0,0,0,0,0,0,0,0,0,0,0,0,0,0,0,0,0,0,0,0,0,0,0,0,0,0,0,0,0,0,0,0,0,0,0,0,0,0,0,0,0,0,0,0,0,0,0,0,0,0,0,0,0,0,0,0,0,0,0,0,0,0,0,0,0,0,0,0,0,0,0,0,0,0,0,0,0,0,0,0,0,0,0,0,0,0,0,0,0,0,0],"sum_hessian":[2.709E3,8.58E2,1.851E3,1.29E2,7.29E2,5.12E2,1.339E3,8.7E1,4.2E1,5.14E2,2.15E2,1.88E2,3.24E2,6.85E2,6.54E2,3.4E1,5.3E1,1.7E1,2.5E1,1.99E2,3.15E2,2.11E2,4E0,6.4E1,1.24E2,3.21E2,3E0,5.98E2,8.7E1,1.58E2,4.96E2,2.9E1,5E0,9E0,4.4E1,3E0,1.4E1,6E0,1.9E1,1.45E2,5.4E1,1.05E2,2.1E2,2.9E1,1.82E2,2E0,2E0,4.2E1,2.2E1,1.05E2,1.9E1,2.67E2,5.4E1,1.21E2,4.77E2,4E0,8.3E1,9.2E1,6.6E1,1.69E2,3.27E2,1E1,1.9E1,3E0,6E0,1E0,4.3E1,2E0,1E0,4E0,2E0,1.6E1,3E0,8.3E1,6.2E1,4E1,1.4E1,2.9E1,7.6E1,1.52E2,5.8E1,5E0,2.4E1,8.4E1,9.8E1,1E0,1E0,9E0,3.3E1,1.1E1,1.1E1,2.2E1,8.3E1,1E1,9E0,1.9E1,2.48E2,3.3E1,2.1E1,4.4E1,7.7E1,3.13E2,1.64E2,4E0,7.9E1,1.5E1,7.7E1,4.2E1,2.4E1,2.9E1,1.4E2,2.59E2,6.8E1],"tree_param":{"num_deleted":"0","num_feature":"23","num_nodes":"113","size_leaf_vector":"1"}},{"base_weights":[-3.9861135E-2,6.927794E-2,-2.2687351E1,-9.317267E0,3.008862E-1,-3.38694E0,-2.8138783E1,-6.5925436E0,-1.2208633E1,-4.7042868E-1,3.659884E0,-9.875332E0,1.742926E1,-3.403449E1,-3.0373027E0,-4.3926883E0,-9.105718E0,8.613552E0,-8.2229304E-1,8.764668E0,-1.0420187E0,-3.4758914E-1,8.190757E0,-3.824451E1,-6.846497E-1,-8.294678E-2,-1.2838395E0,-5.463893E0,5.013089E0,1.4881714E1,4.952202E0,-1.5993915E0,2.9105256E0,2.9437656E0,1.4272602E1,-5.611852E0,5.6268053E0,-1.5755128E0,-1.2860409E1,-4.1445327E0,-5.960429E-1,2.4090133E0,7.1757236E0,1.6454756E0,-8.434891E-1,-9.607943E-1,4.5320967E-1,-5.382434E0,1.1641147E0,2.0974953E0,-2.6495287E1,6.42345E0,1.9223416E0,-4.4140512E-1,-6.5577807E0,2.7193031E0,-1.1083435E0],"categories":[],"categories_nodes":[],"categories_segments":[],"categories_sizes":[],"default_left":[0,0,0,0,0,0,0,0,0,0,0,0,0,0,0,0,0,0,0,0,0,0,0,0,0,0,0,0,0,0,0,0,0,0,0,0,0,0,0,0,0,0,0,0,0,0,0,0,0,0,0,0,0,0,0,0,0],"id":11,"left_children":[1,3,5,7,9,11,13,15,-1,17,19,-1,21,23,25,27,-1,29,31,33,35,-1,-1,37,-1,-1,-1,39,-1,41,43,45,47,49,51,53,55,-1,-1,-1,-1,-1,-1,-1,-1,-1,-1,-1,-1,-1,-1,-1,-1,-1,-1,-1,-1],"loss_changes":[6.6999497E3,5.8682593E3,1.2724883E3,5.2890103E3,6.826007E3,3.032611E3,1.3765371E3,3.0550337E3,0E0,6.856817E3,1.1818215E4,0E0,5.822027E2,9.8214453E2,9.104908E0,1.3798236E3,0E0,1.7622974E3,5.991839E3,7.524418E3,7.863759E3,0E0,0E0,8.4266895E2,0E0,0E0,0E0,1.5696351E3,0E0,1.6036392E3,2.3048962E2,8.526377E3,7.269156E3,4.34697E4,6.656461E3,1.0260523E4,3.3979263E3,0E0,0E0,0E0,0E0,0E0,0E0,0E0,0E0,0E0,0E0,0E0,0E0,0E0,0E0,0E0,0E0,0E0,0E0,0E0,0E0],"parents":[2147483647,0,0,1,1,2,2,3,3,4,4,5,5,6,6,7,7,9,9,10,10,12,12,13,13,14,14,15,15,17,17,18,18,19,19,20,20,23,23,27,27,29,29,30,30,31,31,32,32,33,33,34,34,35,35,36,36],"right_children":[2,4,6,8,10,12,14,16,-1,18,20,-1,22,24,26,28,-1,30,32,34,36,-1,-1,38,-1,-1,-1,40,-1,42,44,46,48,50,52,54,56,-1,-1,-1,-1,-1,-1,-1,-1,-1,-1,-1,-1,-1,-1,-1,-1,-1,-1,-1,-1],"split_conditions":[7.1577E4,2.84E2,6E0,9E0,6E0,4.759E3,9.591E3,5.674E3,-1.2208633E1,0E0,5.3E1,-9.875332E0,8.47E2,1.248E3,1.248E3,9E0,-9.105718E0,8.31E2,5.058E3,4.662E3,1.7E1,-3.4758914E-1,8.190757E0,9.002E3,-6.846497E-1,-8.294678E-2,-1.2838395E0,1.7E1,5.013089E0,7.91E2,2E0,7.5E1,7.53E2,4.645E3,0E0,5E0,9.154E3,-1.5755128E0,-1.2860409E1,-4.1445327E0,-5.960429E-1,2.4090133E0,7.1757236E0,1.6454756E0,-8.434891E-1,-9.607943E-1,4.5320967E-1,-5.382434E0,1.1641147E0,2.0974953E0,-2.6495287E1,6.42345E0,1.9223416E0,-4.4140512E-1,-6.5577807E0,2.7193031E0,-1.1083435E0],"split_indices":[18,6,10,19,11,2,1,1,0,4,0,0,0,0,0,11,0,9,18,2,7,0,0,1,0,0,0,0,0,6,10,0,9,2,16,8,18,0,0,0,0,0,0,0,0,0,0,0,0,0,0,0,0,0,0,0,0],"split_type":[0,0,0,0,0,0,0,0,0,0,0,0,0,0,0,0,0,0,0,0,0,0,0,0,0,0,0,0,0,0,0,0,0,0,0,0,0,0,0,0,0,0,0,0,0,0,0,0,0,0,0,0,0,0,0,0,0],"sum_hessian":[2.709E3,2.697E3,1.2E1,6.4E1,2.633E3,3E0,9E0,6E1,4E0,2.142E3,4.91E2,1E0,2E0,7E0,2E0,5.6E1,4E0,7.9E1,2.063E3,2.35E2,2.56E2,1E0,1E0,6E0,1E0,1E0,1E0,5.4E1,2E0,2.8E1,5.1E1,1.708E3,3.55E2,1.15E2,1.2E2,1.52E2,1.04E2,1E0,5E0,1.5E1,3.9E1,1.7E1,1.1E1,4.8E1,3E0,1.127E3,5.81E2,1.5E1,3.4E2,1.11E2,4E0,6.2E1,5.8E1,1.22E2,3E1,7.6E1,2.8E1],"tree_param":{"num_deleted":"0","num_feature":"23","num_nodes":"57","size_leaf_vector":"1"}},{"base_weights":[-4.832313E-2,-4.7133195E-1,3.8078666E0,1.075013E0,-1.7513114E0,1.3062731E1,1.3567857E0,1.2290527E0,-1.2512605E1,2.8278568E0,-2.8070796E0,8.726788E0,1.1606712E1,5.755714E0,2.4268806E-1,-2.744821E1,1.4107574E0,1.9390328E0,1.7735872E1,-5.305376E0,6.6162795E-1,1.4790509E1,7.731596E0,2.9673302E0,9.121707E0,1.1192167E0,-3.5997086E0,-3.5885937E1,-4.235926E0,5.2141315E-1,7.1158633E0,9.668014E0,-1.1593059E-1,2.963457E0,6.4485927E0,-1.1911169E1,-8.0567247E-1,1.1862088E0,-1.7305723E1,7.5246686E-1,4.752425E0,3.171018E0,1.0864618E1,4.2968235E0,5.434082E-1,1.3207396E1,4.949625E0,4.937725E0,5.15357E-1,3.3449886E0,-4.1741877E0,-1.260513E1,-1.7041947E0,-2.3751917E0,4.690247E-1,1.1600918E0,-7.2481585E-1,6.657188E0,-7.711271E-1,5.845949E0,-1.114196E0,-3.8640263E0,2.9364073E-1,-5.1369095E-1,1.5278436E0,-7.4641604E0,-9.478527E-1,-2.7505755E0,3.193144E-1,-3.1487126E0,5.6362104E-1,-8.6366963E-1,-6.4037642E0,-2.2805558E-1,5.6666565E-1,1.6621784E0,3.8809663E-1,4.0125437E0,9.50561E-1,1.6343474E0,7.3945343E-1,1.2793449E0,-2.759763E-1,4.757192E0,1.7792041E0,1.7586977E0,1.6849443E-1,1.7748479E0,-1.9011143E0,8.223811E-3,1.0582556E0,1.9971086E-1,1.305534E0,-1.3978951E0,1.4856329E0],"categories":[],"categories_nodes":[],"categories_segments":[],"categories_sizes":[],"default_left":[0,0,0,0,0,0,0,0,0,0,0,0,0,0,0,0,0,0,0,0,0,0,0,0,0,0,0,0,0,0,0,0,0,0,0,0,0,0,0,0,0,0,0,0,0,0,0,0,0,0,0,0,0,0,0,0,0,0,0,0,0,0,0,0,0,0,0,0,0,0,0,0,0,0,0,0,0,0,0,0,0,0,0,0,0,0,0,0,0,0,0,0,0,0,0],"id":12,"left_children":[1,3,5,7,9,11,13,15,-1,17,19,-1,21,23,25,27,29,31,33,35,37,39,41,43,45,47,49,51,53,55,57,59,61,63,-1,65,67,69,71,73,-1,75,77,79,81,83,85,87,89,91,93,-1,-1,-1,-1,-1,-1,-1,-1,-1,-1,-1,-1,-1,-1,-1,-1,-1,-1,-1,-1,-1,-1,-1,-1,-1,-1,-1,-1,-1,-1,-1,-1,-1,-1,-1,-1,-1,-1,-1,-1,-1,-1,-1,-1],"loss_changes":[4.4223525E3,4.837288E3,6.061701E3,7.346817E3,6.4717183E3,9.6912695E2,1.0424812E3,5.791439E3,0E0,3.2915103E3,9.4233E3,0E0,5.395376E2,3.765171E2,5.799518E2,1.2190029E3,5.5673247E3,3.7812212E3,7.1380273E2,1.8776043E4,4.3184785E3,4.0115527E2,3.370464E2,7.822975E1,2.5849902E2,3.2027332E2,1.4162933E2,6.872827E2,7.642677E1,9.355263E3,2.1667773E4,6.6419185E3,2.653569E3,4.8545837E1,0E0,2.8978281E4,5.9056978E3,3.6117021E3,6.9627344E2,6.5929213E0,0E0,4.6215034E1,2.474386E2,2.0309692E1,5.8374557E1,7.949927E1,4.0761444E1,2.4709183E2,1.7921486E2,5.1954536E0,1.5598926E2,0E0,0E0,0E0,0E0,0E0,0E0,0E0,0E0,0E0,0E0,0E0,0E0,0E0,0E0,0E0,0E0,0E0,0E0,0E0,0E0,0E0,0E0,0E0,0E0,0E0,0E0,0E0,0E0,0E0,0E0,0E0,0E0,0E0,0E0,0E0,0E0,0E0,0E0,0E0,0E0,0E0,0E0,0E0,0E0],"parents":[2147483647,0,0,1,1,2,2,3,3,4,4,5,5,6,6,7,7,9,9,10,10,12,12,13,13,14,14,15,15,16,16,17,17,18,18,19,19,20,20,21,21,22,22,23,23,24,24,25,25,26,26,27,27,28,28,29,29,30,30,31,31,32,32,33,33,35,35,36,36,37,37,38,38,39,39,41,41,42,42,43,43,44,44,45,45,46,46,47,47,48,48,49,49,50,50],"right_children":[2,4,6,8,10,12,14,16,-1,18,20,-1,22,24,26,28,30,32,34,36,38,40,42,44,46,48,50,52,54,56,58,60,62,64,-1,66,68,70,72,74,-1,76,78,80,82,84,86,88,90,92,94,-1,-1,-1,-1,-1,-1,-1,-1,-1,-1,-1,-1,-1,-1,-1,-1,-1,-1,-1,-1,-1,-1,-1,-1,-1,-1,-1,-1,-1,-1,-1,-1,-1,-1,-1,-1,-1,-1,-1,-1,-1,-1,-1,-1],"split_conditions":[0E0,0E0,4.965E3,1.6E1,4.376E3,0E0,8.12E2,8.6E1,-1.2512605E1,2.2E1,5.017E3,8.726788E0,1E0,5.3E1,5E0,1.75912E5,2E0,5E0,5.18E2,2E0,7.1577E4,0E0,2E0,5E0,5E0,4.986E3,8.297E3,4.5E1,0E0,0E0,1E0,9.6E1,8E0,3.31E2,6.4485927E0,8.267E3,0E0,4.986E3,6E0,8.256E3,4.752425E0,2E0,9.48E2,8E0,7.62E3,8.09E2,2.28E2,4E0,1.119E3,8.13E3,4.945E3,-1.260513E1,-1.7041947E0,-2.3751917E0,4.690247E-1,1.1600918E0,-7.2481585E-1,6.657188E0,-7.711271E-1,5.845949E0,-1.114196E0,-3.8640263E0,2.9364073E-1,-5.1369095E-1,1.5278436E0,-7.4641604E0,-9.478527E-1,-2.7505755E0,3.193144E-1,-3.1487126E0,5.6362104E-1,-8.6366963E-1,-6.4037642E0,-2.2805558E-1,5.6666565E-1,1.6621784E0,3.8809663E-1,4.0125437E0,9.50561E-1,1.6343474E0,7.3945343E-1,1.2793449E0,-2.759763E-1,4.757192E0,1.7792041E0,1.7586977E0,1.6849443E-1,1.7748479E0,-1.9011143E0,8.223811E-3,1.0582556E0,1.9971086E-1,1.305534E0,-1.3978951E0,1.4856329E0],"split_indices":[12,8,2,4,2,16,6,6,0,4,18,0,10,8,4,2,14,8,6,0,18,10,7,4,4,2,1,0,0,10,0,0,8,0,0,1,10,2,10,1,0,10,9,10,1,9,8,14,12,1,12,0,0,0,0,0,0,0,0,0,0,0,0,0,0,0,0,0,0,0,0,0,0,0,0,0,0,0,0,0,0,0,0,0,0,0,0,0,0,0,0,0,0,0,0],"split_type":[0,0,0,0,0,0,0,0,0,0,0,0,0,0,0,0,0,0,0,0,0,0,0,0,0,0,0,0,0,0,0,0,0,0,0,0,0,0,0,0,0,0,0,0,0,0,0,0,0,0,0,0,0,0,0,0,0,0,0,0,0,0,0,0,0,0,0,0,0,0,0,0,0,0,0,0,0,0,0,0,0,0,0,0,0,0,0,0,0,0,0,0,0,0,0],"sum_hessian":[2.709E3,2.442E3,2.67E2,1.106E3,1.336E3,5.5E1,2.12E2,1.103E3,3E0,2.5E2,1.086E3,3E0,5.2E1,4.2E1,1.7E2,6E0,1.097E3,2.37E2,1.3E1,6.31E2,4.55E2,2.7E1,2.5E1,2.4E1,1.8E1,1.39E2,3.1E1,4E0,2E0,9.5E2,1.47E2,4.9E1,1.88E2,3E0,1E1,2.55E2,3.76E2,4.43E2,1.2E1,2E0,2.5E1,1.1E1,1.4E1,1.5E1,9E0,8E0,1E1,1.8E1,1.21E2,2E0,2.9E1,3E0,1E0,1E0,1E0,4.44E2,5.06E2,5.7E1,9E1,2.8E1,2.1E1,1.4E1,1.74E2,1E0,2E0,1.02E2,1.53E2,6.8E1,3.08E2,2.4E1,4.19E2,3E0,9E0,1E0,1E0,4E0,7E0,1E1,4E0,8E0,7E0,2E0,7E0,5E0,3E0,8E0,2E0,1.7E1,1E0,1.05E2,1.6E1,1E0,1E0,2.8E1,1E0],"tree_param":{"num_deleted":"0","num_feature":"23","num_nodes":"95","size_leaf_vector":"1"}},{"base_weights":[-3.3557553E-2,1.4964895E0,-7.4321026E-1,-8.398508E0,3.2565625E0,-4.0951757E0,5.4059684E-1,-1.7708323E1,1.0849447E1,6.796355E0,-1.2000794E0,-5.207615E0,2.3586823E1,2.8347669E0,-1.5862424E0,-3.4934235E1,-6.2154465E0,4.723216E0,1.4673398E1,1.4584004E1,3.1712537E0,-1.8896266E0,4.3170948E1,-1.5774936E1,-3.2941487E-1,3.7071987E1,-2.428307E1,3.412333E0,-1.7473366E1,-5.5062804E0,5.519267E-3,-2.1281206E1,-2.92131E1,8.7541065E0,-1.760428E1,-7.115326E-2,1.8294356E0,2.0514462E1,3.5686066E0,8.800219E0,3.3377155E1,-3.7819298E1,4.365199E0,-8.38807E0,1.5071433E0,7.6540017E0,1.9289274E1,6.6986976E0,-3.1901144E1,-6.900343E-1,1.208699E1,4.8244728E1,2.8430114E0,5.0445557E-1,-1.2292872E1,5.3420525E0,-2.3617818E0,-3.1378178E1,-8.2088895E-2,6.8027325E0,-7.293371E0,-1.2937267E0,6.214642E0,-1.1699985E1,1.4668349E0,7.322492E0,-1.7955366E-1,-3.3050217E1,-1.1256765E0,1.5959245E-1,-3.7254983E-1,2.7347252E0,9.802248E0,4.34458E0,-1.7504923E1,1.3926689E1,1.9873317E0,-3.4361057E1,2.0528097E0,5.374045E0,7.644432E-1,-6.522082E-1,-9.539653E0,2.0361037E0,-1.4665194E0,3.6112015E0,-1.6690063E-1,5.1062236E0,-2.1173198E0,-2.6635754E1,-8.268451E0,-1.3463393E-1,-1.2262734E1,2.6797824E0,2.0035263E1,1.7116036E0,-1.2909485E0,-6.3596654E-1,8.6297154E-1,1.8065411E0,-3.6298668E0,1.0456979E-1,-2.4669313E0,-2.9282653E0,-1.0668717E1,-5.1654835E0,7.692815E0,1.0597006E1,-1.0558865E0,-4.1750445E0,-1.0432495E0,2.8379152E0,-5.174827E-1,2.7616036E0,6.583997E-1],"categories":[],"categories_nodes":[],"categories_segments":[],"categories_sizes":[],"default_left":[0,0,0,0,0,0,0,0,0,0,0,0,0,0,0,0,0,0,0,0,0,0,0,0,0,0,0,0,0,0,0,0,0,0,0,0,0,0,0,0,0,0,0,0,0,0,0,0,0,0,0,0,0,0,0,0,0,0,0,0,0,0,0,0,0,0,0,0,0,0,0,0,0,0,0,0,0,0,0,0,0,0,0,0,0,0,0,0,0,0,0,0,0,0,0,0,0,0,0,0,0,0,0,0,0,0,0,0,0,0,0,0,0,0,0],"id":13,"left_children":[1,3,5,7,9,11,13,15,17,19,21,23,25,27,29,31,33,35,37,39,41,43,45,47,49,51,53,55,57,59,61,63,-1,65,67,69,-1,71,-1,73,75,77,79,81,83,85,-1,87,89,91,-1,93,95,97,-1,99,101,103,105,107,109,111,113,-1,-1,-1,-1,-1,-1,-1,-1,-1,-1,-1,-1,-1,-1,-1,-1,-1,-1,-1,-1,-1,-1,-1,-1,-1,-1,-1,-1,-1,-1,-1,-1,-1,-1,-1,-1,-1,-1,-1,-1,-1,-1,-1,-1,-1,-1,-1,-1,-1,-1,-1,-1],"loss_changes":[2.9436355E3,1.4987624E4,7.971884E3,2.348746E4,1.1524334E4,1.5920425E4,6.5428E3,1.720469E4,9.380298E2,1.1443773E4,9.994652E3,2.5460258E4,1.3810891E4,7.6250186E3,4.3429077E3,2.7766352E4,9.36034E3,1.1908609E2,1.7786816E2,1.3728002E4,1.3819482E4,7.0762314E3,3.2596328E3,5.675036E4,4.9935195E3,5.981744E3,2.0895818E3,7.010056E3,4.3502285E3,4.471077E3,4.00936E3,1.41020205E4,0E0,3.528395E3,3.9334402E4,4.190972E0,0E0,6.7238477E2,0E0,3.899771E4,1.0162262E4,2.8194613E4,6.6504453E3,1.5933177E4,7.1581445E3,1.14662796E2,0E0,9.491766E3,2.0017125E4,3.2488682E3,0E0,8.1493574E3,1.2682468E2,2.4773756E1,0E0,5.6570146E3,2.5128896E3,5.573926E2,4.408949E3,7.7787236E3,4.399866E3,1.922146E3,1.0137378E3,0E0,0E0,0E0,0E0,0E0,0E0,0E0,0E0,0E0,0E0,0E0,0E0,0E0,0E0,0E0,0E0,0E0,0E0,0E0,0E0,0E0,0E0,0E0,0E0,0E0,0E0,0E0,0E0,0E0,0E0,0E0,0E0,0E0,0E0,0E0,0E0,0E0,0E0,0E0,0E0,0E0,0E0,0E0,0E0,0E0,0E0,0E0,0E0,0E0,0E0,0E0,0E0],"parents":[2147483647,0,0,1,1,2,2,3,3,4,4,5,5,6,6,7,7,8,8,9,9,10,10,11,11,12,12,13,13,14,14,15,15,16,16,17,17,18,18,19,19,20,20,21,21,22,22,23,23,24,24,25,25,26,26,27,27,28,28,29,29,30,30,31,31,33,33,34,34,35,35,37,37,39,39,40,40,41,41,42,42,43,43,44,44,45,45,47,47,48,48,49,49,51,51,52,52,53,53,55,55,56,56,57,57,58,58,59,59,60,60,61,61,62,62],"right_children":[2,4,6,8,10,12,14,16,18,20,22,24,26,28,30,32,34,36,38,40,42,44,46,48,50,52,54,56,58,60,62,64,-1,66,68,70,-1,72,-1,74,76,78,80,82,84,86,-1,88,90,92,-1,94,96,98,-1,100,102,104,106,108,110,112,114,-1,-1,-1,-1,-1,-1,-1,-1,-1,-1,-1,-1,-1,-1,-1,-1,-1,-1,-1,-1,-1,-1,-1,-1,-1,-1,-1,-1,-1,-1,-1,-1,-1,-1,-1,-1,-1,-1,-1,-1,-1,-1,-1,-1,-1,-1,-1,-1,-1,-1,-1,-1],"split_conditions":[0E0,1E0,1E0,0E0,3E0,5E0,0E0,8.28E2,0E0,4.962E3,1.3E1,4.986E3,8E0,1.7E1,1.7E1,8.223E3,0E0,6.51E3,8.297E3,4.945E3,4.965E3,4.944E3,7.652E3,8.025E3,5.782E3,8.3E2,8.15E3,8.38E2,3.7E1,4E0,8E0,4.872E3,-2.92131E1,8.31E3,8.33E2,3.906E3,1.8294356E0,6.425E3,3.5686066E0,4.938E3,0E0,0E0,4.984E3,8.11E3,8.26E2,5.674E3,1.9289274E1,1E0,4.86E3,5E0,1.208699E1,4.944E3,8.369E3,8.13E3,-1.2292872E1,1.2E1,6.92E2,2.3E1,1.1E1,8.297E3,9.9756E4,2E0,8.03E2,-1.1699985E1,1.4668349E0,7.322492E0,-1.7955366E-1,-3.3050217E1,-1.1256765E0,1.5959245E-1,-3.7254983E-1,2.7347252E0,9.802248E0,4.34458E0,-1.7504923E1,1.3926689E1,1.9873317E0,-3.4361057E1,2.0528097E0,5.374045E0,7.644432E-1,-6.522082E-1,-9.539653E0,2.0361037E0,-1.4665194E0,3.6112015E0,-1.6690063E-1,5.1062236E0,-2.1173198E0,-2.6635754E1,-8.268451E0,-1.3463393E-1,-1.2262734E1,2.6797824E0,2.0035263E1,1.7116036E0,-1.2909485E0,-6.3596654E-1,8.6297154E-1,1.8065411E0,-3.6298668E0,1.0456979E-1,-2.4669313E0,-2.9282653E0,-1.0668717E1,-5.1654835E0,7.692815E0,1.0597006E1,-1.0558865E0,-4.1750445E0,-1.0432495E0,2.8379152E0,-5.174827E-1,2.7616036E0,6.583997E-1],"split_indices":[0,11,0,7,5,4,7,9,4,2,5,2,4,4,7,1,8,1,1,18,2,2,1,1,2,9,1,6,4,0,4,2,0,1,9,2,0,1,0,2,12,7,2,1,6,1,0,4,2,5,0,2,1,1,0,8,0,0,10,1,0,0,6,0,0,0,0,0,0,0,0,0,0,0,0,0,0,0,0,0,0,0,0,0,0,0,0,0,0,0,0,0,0,0,0,0,0,0,0,0,0,0,0,0,0,0,0,0,0,0,0,0,0,0,0],"split_type":[0,0,0,0,0,0,0,0,0,0,0,0,0,0,0,0,0,0,0,0,0,0,0,0,0,0,0,0,0,0,0,0,0,0,0,0,0,0,0,0,0,0,0,0,0,0,0,0,0,0,0,0,0,0,0,0,0,0,0,0,0,0,0,0,0,0,0,0,0,0,0,0,0,0,0,0,0,0,0,0,0,0,0,0,0,0,0,0,0,0,0,0,0,0,0,0,0,0,0,0,0,0,0,0,0,0,0,0,0,0,0,0,0,0,0],"sum_hessian":[2.709E3,8.58E2,1.851E3,1.29E2,7.29E2,5.12E2,1.339E3,8.7E1,4.2E1,4.06E2,3.23E2,4.93E2,1.9E1,6.44E2,6.95E2,3.4E1,5.3E1,1.7E1,2.5E1,1.28E2,2.78E2,3.19E2,4E0,1.55E2,3.38E2,1.5E1,4E0,6.27E2,1.7E1,2E2,4.95E2,2.9E1,5E0,2.3E1,3E1,4E0,1.3E1,6E0,1.9E1,9.9E1,2.9E1,7E0,2.71E2,1.09E2,2.1E2,2E0,2E0,6.5E1,9E1,3.36E2,2E0,1.1E1,4E0,2E0,2E0,4.7E2,1.57E2,9E0,8E0,2.5E1,1.75E2,4.1E2,8.5E1,1.7E1,1.2E1,8E0,1.5E1,3E0,2.7E1,3E0,1E0,4E0,2E0,9.2E1,7E0,1.9E1,1E1,2E0,5E0,3.1E1,2.4E2,8.7E1,2.2E1,1.15E2,9.5E1,1E0,1E0,3.7E1,2.8E1,5E0,8.5E1,3.35E2,1E0,4E0,7E0,3E0,1E0,1E0,1E0,4.53E2,1.7E1,1.08E2,4.9E1,2E0,7E0,5E0,3E0,6E0,1.9E1,6.3E1,1.12E2,1.5E1,3.95E2,4.8E1,3.7E1],"tree_param":{"num_deleted":"0","num_feature":"23","num_nodes":"115","size_leaf_vector":"1"}},{"base_weights":[-5.5006597E-2,-3.3879653E-1,2.5321345E0,1.5026938E0,-8.62132E-1,1.0499632E1,4.2550537E-1,4.7650847E0,-1.8383425E0,-5.5515966E0,-4.9684867E-2,7.868365E0,9.114488E0,4.8231673E0,1.946752E-2,8.840928E0,6.8424624E-1,1.5044004E0,-6.165339E0,-2.2938995E1,-1.7803833E0,-6.85412E-1,6.9625177E0,1.2877385E1,7.1392517E0,9.059868E0,1.3034602E0,4.1484728E-1,-2.5816636E0,2.5316372E0,1.37243805E1,4.4706E0,-7.784922E0,-7.7100787E0,2.4216545E0,-4.037618E0,-1.0656692E1,-1.567177E1,-8.520967E1,-4.8202004E0,6.8200903E0,-1.6152036E0,2.856006E0,1.7705317E1,1.2111237E0,1.2039902E0,1.379171E1,5.194137E0,1.1264601E1,3.1860347E0,8.758255E-1,-4.483721E-1,2.5395446E0,5.3024846E-1,-6.2243676E0,-4.0650344E0,1.2640505E0,-1.0071656E0,1.3071584E0,4.4946175E0,-3.8921204E0,-5.013536E0,1.5297223E0,-5.519132E0,4.1488066E-1,4.876877E-1,-3.4820771E0,-1.224359E0,9.7236073E-1,-5.7961464E-1,-2.2658057E0,-1.07338E0,-4.948422E0,-2.0139158E0,-1.5526849E1,-4.6644585E1,4.0397496E0,1.5711573E0,-2.094565E0,2.6716845E0,-5.495674E0,-1.7156059E0,5.5829506E-2,4.5498137E0,-3.6208168E-1,2.5672746E0,1.836925E1,-1.9162925E0,1.4411391E0,4.3534565E0,5.571545E-1,1.7108886E0,-1.2052975E0,4.0783005E0,1.5615998E-1,1.1496648E0,8.664594E-2,6.0343787E-2,7.5305855E-1,-2.8602324E0,5.9266664E-2,-5.2943707E-1,-1.6732513E0,1.0674317E-1,6.250014E-1],"categories":[],"categories_nodes":[],"categories_segments":[],"categories_sizes":[],"default_left":[0,0,0,0,0,0,0,0,0,0,0,0,0,0,0,0,0,0,0,0,0,0,0,0,0,0,0,0,0,0,0,0,0,0,0,0,0,0,0,0,0,0,0,0,0,0,0,0,0,0,0,0,0,0,0,0,0,0,0,0,0,0,0,0,0,0,0,0,0,0,0,0,0,0,0,0,0,0,0,0,0,0,0,0,0,0,0,0,0,0,0,0,0,0,0,0,0,0,0,0,0,0,0,0,0],"id":14,"left_children":[1,3,5,7,9,11,13,15,17,19,21,-1,23,25,27,29,31,33,35,37,39,41,43,45,47,49,51,53,55,57,59,61,63,65,67,69,71,73,75,77,79,81,83,85,87,-1,89,91,93,-1,-1,-1,95,97,99,101,103,-1,-1,-1,-1,-1,-1,-1,-1,-1,-1,-1,-1,-1,-1,-1,-1,-1,-1,-1,-1,-1,-1,-1,-1,-1,-1,-1,-1,-1,-1,-1,-1,-1,-1,-1,-1,-1,-1,-1,-1,-1,-1,-1,-1,-1,-1,-1,-1],"loss_changes":[1.9905522E3,2.3556567E3,4.4937944E3,5.9055337E3,7.2500454E3,9.8095654E2,3.8024255E2,4.551354E3,3.8856367E3,1.8384775E4,7.2398584E3,0E0,3.0199365E2,2.5660587E2,2.0264418E2,4.186377E3,4.4600864E3,1.3033778E3,1.0750645E3,2.1291363E4,6.098251E3,4.9075635E3,8.319676E3,8.242871E1,2.3838843E2,4.564044E1,4.18402E1,1.3431609E2,1.5345854E2,6.704051E2,2.7798496E3,1.3632227E3,4.208954E3,5.2818555E2,7.540144E2,5.849064E2,1.4700493E3,1.4522974E4,3.6764453E4,3.7759978E3,3.3612498E3,8.723166E3,1.5522956E4,1.8189523E4,2.4603743E3,0E0,1.0190845E2,1.4946674E2,2.682627E2,0E0,0E0,0E0,2.2168747E1,1.0961641E2,6.56482E1,5.625885E1,5.2116013E0,0E0,0E0,0E0,0E0,0E0,0E0,0E0,0E0,0E0,0E0,0E0,0E0,0E0,0E0,0E0,0E0,0E0,0E0,0E0,0E0,0E0,0E0,0E0,0E0,0E0,0E0,0E0,0E0,0E0,0E0,0E0,0E0,0E0,0E0,0E0,0E0,0E0,0E0,0E0,0E0,0E0,0E0,0E0,0E0,0E0,0E0,0E0,0E0],"parents":[2147483647,0,0,1,1,2,2,3,3,4,4,5,5,6,6,7,7,8,8,9,9,10,10,12,12,13,13,14,14,15,15,16,16,17,17,18,18,19,19,20,20,21,21,22,22,23,23,24,24,25,25,26,26,27,27,28,28,29,29,30,30,31,31,32,32,33,33,34,34,35,35,36,36,37,37,38,38,39,39,40,40,41,41,42,42,43,43,44,44,46,46,47,47,48,48,52,52,53,53,54,54,55,55,56,56],"right_children":[2,4,6,8,10,12,14,16,18,20,22,-1,24,26,28,30,32,34,36,38,40,42,44,46,48,50,52,54,56,58,60,62,64,66,68,70,72,74,76,78,80,82,84,86,88,-1,90,92,94,-1,-1,-1,96,98,100,102,104,-1,-1,-1,-1,-1,-1,-1,-1,-1,-1,-1,-1,-1,-1,-1,-1,-1,-1,-1,-1,-1,-1,-1,-1,-1,-1,-1,-1,-1,-1,-1,-1,-1,-1,-1,-1,-1,-1,-1,-1,-1,-1,-1,-1,-1,-1,-1,-1],"split_conditions":[0E0,4.4E3,4.965E3,4.677E3,7.86E2,0E0,8.13E2,5E0,3E0,0E0,6E0,7.868365E0,8.25E2,5E0,1.795E3,0E0,3.511E3,7.8387E4,2E0,4.702E3,2.2101E4,1E0,2E0,1E0,8.267E3,0E0,8E0,2.49E2,1.9937E4,6E0,1.7E1,0E0,6E0,3E0,0E0,6.33E2,4.63E2,4E0,0E0,1E0,1.172E3,4.986E3,0E0,1E0,0E0,1.2039902E0,0E0,0E0,2E0,3.1860347E0,8.758255E-1,-4.483721E-1,2.26E2,1E1,1.5032E4,3E0,3E0,-1.0071656E0,1.3071584E0,4.4946175E0,-3.8921204E0,-5.013536E0,1.5297223E0,-5.519132E0,4.1488066E-1,4.876877E-1,-3.4820771E0,-1.224359E0,9.7236073E-1,-5.7961464E-1,-2.2658057E0,-1.07338E0,-4.948422E0,-2.0139158E0,-1.5526849E1,-4.6644585E1,4.0397496E0,1.5711573E0,-2.094565E0,2.6716845E0,-5.495674E0,-1.7156059E0,5.5829506E-2,4.5498137E0,-3.6208168E-1,2.5672746E0,1.836925E1,-1.9162925E0,1.4411391E0,4.3534565E0,5.571545E-1,1.7108886E0,-1.2052975E0,4.0783005E0,1.5615998E-1,1.1496648E0,8.664594E-2,6.0343787E-2,7.5305855E-1,-2.8602324E0,5.9266664E-2,-5.2943707E-1,-1.6732513E0,1.0674317E-1,6.250014E-1],"split_indices":[12,2,2,0,6,16,9,8,4,8,4,0,9,4,7,10,18,0,10,18,7,10,0,7,1,0,4,8,7,4,4,10,7,10,10,6,9,10,0,14,8,2,8,0,10,0,0,0,10,0,0,0,8,0,1,10,8,0,0,0,0,0,0,0,0,0,0,0,0,0,0,0,0,0,0,0,0,0,0,0,0,0,0,0,0,0,0,0,0,0,0,0,0,0,0,0,0,0,0,0,0,0,0,0,0],"split_type":[0,0,0,0,0,0,0,0,0,0,0,0,0,0,0,0,0,0,0,0,0,0,0,0,0,0,0,0,0,0,0,0,0,0,0,0,0,0,0,0,0,0,0,0,0,0,0,0,0,0,0,0,0,0,0,0,0,0,0,0,0,0,0,0,0,0,0,0,0,0,0,0,0,0,0,0,0,0,0,0,0,0,0,0,0,0,0,0,0,0,0,0,0,0,0,0,0,0,0,0,0,0,0,0,0],"sum_hessian":[2.709E3,2.442E3,2.67E2,5.4E2,1.902E3,5.5E1,2.12E2,2.73E2,2.67E2,2.8E2,1.622E3,3E0,5.2E1,1.7E1,1.95E2,1.36E2,1.37E2,1.51E2,1.16E2,4.9E1,2.31E2,1.488E3,1.34E2,1.6E1,3.6E1,7E0,1E1,1.7E2,2.5E1,6E1,7.6E1,9.5E1,4.2E1,1.3E1,1.38E2,8E1,3.6E1,4.5E1,4E0,1.71E2,6E1,1.179E3,3.09E2,4.6E1,8.8E1,2E0,1.4E1,2.6E1,1E1,5E0,2E0,3E0,7E0,1.68E2,2E0,1.8E1,7E0,1.4E1,4.6E1,7.3E1,3E0,2E0,9.3E1,1.9E1,2.3E1,4E0,9E0,1.5E1,1.23E2,5.1E1,2.9E1,1.7E1,1.9E1,3.7E1,8E0,2E0,2E0,3E1,1.41E2,5.6E1,4E0,3.59E2,8.2E2,7.6E1,2.33E2,3.9E1,7E0,2.8E1,6E1,1.3E1,1E0,2.5E1,1E0,8E0,2E0,4E0,3E0,1.45E2,2.3E1,1E0,1E0,8E0,1E1,4E0,3E0],"tree_param":{"num_deleted":"0","num_feature":"23","num_nodes":"105","size_leaf_vector":"1"}},{"base_weights":[-5.3334765E-2,-3.3980343E-2,-7.87267E0,-1.5161777E-2,-7.649199E0,-1.1723266E-1,5.7662816E0,-1.3644446E-2,-5.640954E0,9.790701E0,-1.0103141E1,3.5987039E0,-1.3795641E-1,-2.9515951E1,-2.6251686E-1,1.19829855E1,7.176304E-2,1.542077E0,-1.4556522E1,-2.875509E0,1.4080831E0,-2.0053463E-1,2.8678492E-1,-1.3406057E1,-2.5325565E0,-4.2456216E-1,4.442989E0,-3.8482478E-1,3.7403805E0,-1.5410917E0,1.9694225E0,-4.681529E0,-1.0824761E0],"categories":[],"categories_nodes":[],"categories_segments":[],"categories_sizes":[],"default_left":[0,0,0,0,0,0,0,0,0,0,0,0,0,0,0,0,0,0,0,0,0,0,0,0,0,0,0,0,0,0,0,0,0],"id":15,"left_children":[1,3,-1,5,-1,7,9,11,13,15,17,19,21,23,25,27,29,-1,31,-1,-1,-1,-1,-1,-1,-1,-1,-1,-1,-1,-1,-1,-1],"loss_changes":[1.3727286E3,1.2977223E3,0E0,1.5987128E3,0E0,1.5230992E3,3.100582E3,1.1743342E3,6.28435E3,8.087932E2,7.5367096E2,1.3008295E3,1.4676597E3,2.5001782E3,7.3328906E2,2.1542334E2,3.0428452E2,0E0,3.5533203E1,0E0,0E0,0E0,0E0,0E0,0E0,0E0,0E0,0E0,0E0,0E0,0E0,0E0,0E0],"parents":[2147483647,0,0,1,1,3,3,5,5,6,6,7,7,8,8,9,9,10,10,11,11,12,12,13,13,14,14,15,15,16,16,18,18],"right_children":[2,4,-1,6,-1,8,10,12,14,16,18,20,22,24,26,28,30,-1,32,-1,-1,-1,-1,-1,-1,-1,-1,-1,-1,-1,-1,-1,-1],"split_conditions":[8.3874E4,1.511E3,-7.87267E0,3.3029E4,-7.649199E0,4.42E2,6.581E3,0E0,5.59E2,1.64E2,4.404E3,4.873E3,1.15E2,8.83E2,9E0,2E0,1.248E3,1.542077E0,5E0,-2.875509E0,1.4080831E0,-2.0053463E-1,2.8678492E-1,-1.3406057E1,-2.5325565E0,-4.2456216E-1,4.442989E0,-3.8482478E-1,3.7403805E0,-1.5410917E0,1.9694225E0,-4.681529E0,-1.0824761E0],"split_indices":[18,8,0,7,0,8,2,4,8,10,0,1,0,0,4,4,0,0,5,0,0,0,0,0,0,0,0,0,0,0,0,0,0],"split_type":[0,0,0,0,0,0,0,0,0,0,0,0,0,0,0,0,0,0,0,0,0,0,0,0,0,0,0,0,0,0,0,0,0],"sum_hessian":[2.709E3,2.708E3,1E0,2.707E3,1E0,2.661E3,4.6E1,2.613E3,4.8E1,3.7E1,9E0,8.6E1,2.527E3,8E0,4E1,3E1,7E0,2E0,7E0,6E0,8E1,1.702E3,8.25E2,4E0,4E0,3.8E1,2E0,1E0,2.9E1,4E0,3E0,6E0,1E0],"tree_param":{"num_deleted":"0","num_feature":"23","num_nodes":"33","size_leaf_vector":"1"}},{"base_weights":[-4.8133347E-2,9.7089803E-1,-5.2075744E-1,-5.86822E0,2.187493E0,-2.796348E0,3.5080883E-1,-1.2263047E1,7.355338E0,4.2321033E0,-2.7297456E0,-3.5569787E0,1.6131044E1,1.7801212E0,-9.742734E-1,1.1559369E1,-1.654639E1,1.8646897E0,1.0873658E1,7.9038424E0,9.603345E-1,-3.6046631E0,3.473772E1,-1.06894245E1,-2.642988E-1,2.6821526E1,-2.1304707E1,2.9521282E0,-1.851015E0,3.5895438E0,-1.7371E0,9.173447E-1,9.159464E0,-3.58348E1,-1.059975E1,2.5676818E0,-7.518494E-1,1.6386332E1,8.780816E0,1.2200239E1,4.762037E0,-1.945377E0,2.4640722E0,-7.9566817E0,3.4782887E0,8.03597E0,1.4958071E1,8.243552E0,-2.108108E1,1.7338383E1,-9.074936E-1,3.5268486E1,1.1845169E0,-1.1490377E0,-1.0307642E1,2.340853E-1,6.2621346E0,-1.2385811E1,-4.9301964E-1,4.2656574E0,-9.501854E0,-6.6904345E0,-9.24226E-1,6.813538E-1,-1.690075E0,5.9608454E-1,-7.660545E0,2.6097932E-1,9.183314E-1,1.5814911E0,1.079397E1,2.8858335E0,1.2519947E0,2.8877978E0,7.946741E0,-9.491749E-1,2.6916294E0,-7.079568E-1,2.3911097E0,-2.82013E0,8.35592E-1,-3.8128927E-1,-6.482857E0,3.717023E0,4.579854E-2,3.4137864E0,2.0240022E-1,4.754938E0,-2.8380007E1,-1.6984797E0,-1.1008717E1,7.7920566E0,1.3122982E0,-1.22435055E1,-4.9028914E-2,2.7744145E0,1.5760009E1,1.1703529E0,-1.4523182E0,-8.955826E-1,3.7851563E-1,-1.46345E1,5.189568E-1,1.5875184E1,1.6774098E0,-2.4849515E0,-7.402277E0,-3.172279E-1,3.714711E0,2.5442612E0,3.9632015E-2,-1.4028316E0,-9.62921E0,-5.458644E-1,8.4018075E-1],"categories":[],"categories_nodes":[],"categories_segments":[],"categories_sizes":[],"default_left":[0,0,0,0,0,0,0,0,0,0,0,0,0,0,0,0,0,0,0,0,0,0,0,0,0,0,0,0,0,0,0,0,0,0,0,0,0,0,0,0,0,0,0,0,0,0,0,0,0,0,0,0,0,0,0,0,0,0,0,0,0,0,0,0,0,0,0,0,0,0,0,0,0,0,0,0,0,0,0,0,0,0,0,0,0,0,0,0,0,0,0,0,0,0,0,0,0,0,0,0,0,0,0,0,0,0,0,0,0,0,0,0,0,0,0],"id":16,"left_children":[1,3,5,7,9,11,13,15,17,19,21,23,25,27,29,31,33,35,37,39,41,43,45,47,49,51,53,55,57,59,61,63,-1,-1,65,67,-1,69,71,73,75,77,79,81,83,85,-1,87,89,91,93,95,97,99,-1,101,103,105,107,109,-1,111,113,-1,-1,-1,-1,-1,-1,-1,-1,-1,-1,-1,-1,-1,-1,-1,-1,-1,-1,-1,-1,-1,-1,-1,-1,-1,-1,-1,-1,-1,-1,-1,-1,-1,-1,-1,-1,-1,-1,-1,-1,-1,-1,-1,-1,-1,-1,-1,-1,-1,-1,-1,-1],"loss_changes":[1.3056925E3,7.1600923E3,3.674105E3,1.1083306E4,7.350854E3,7.4429116E3,2.5396357E3,9.170751E3,8.1039185E2,6.191159E3,7.17312E3,1.1598695E4,8.575549E3,2.7504023E3,2.4292905E3,2.7986245E3,4.4628383E4,6.1743202E1,1.5608105E2,3.2220225E3,1.2020168E3,6.531779E3,1.6183125E3,3.0866E4,3.8538767E3,3.4230996E3,1.2760906E3,4.388942E3,2.254274E3,2.5192432E3,2.3975989E3,1.01483604E2,0E0,0E0,1.3585826E4,1.0740387E1,0E0,1.116986E3,4.0998657E1,3.4968965E3,4.7667485E3,4.0513647E2,7.1602563E2,1.1930089E4,2.3987283E3,6.6156265E1,0E0,4.530556E4,2.4109969E4,1.2297402E3,9.732064E3,4.905046E3,1.0073304E2,1.7046741E1,0E0,1.9806475E4,6.5889795E3,7.030896E2,1.0377341E3,1.7238353E3,0E0,4.1488555E3,1.7192452E3,0E0,0E0,0E0,0E0,0E0,0E0,0E0,0E0,0E0,0E0,0E0,0E0,0E0,0E0,0E0,0E0,0E0,0E0,0E0,0E0,0E0,0E0,0E0,0E0,0E0,0E0,0E0,0E0,0E0,0E0,0E0,0E0,0E0,0E0,0E0,0E0,0E0,0E0,0E0,0E0,0E0,0E0,0E0,0E0,0E0,0E0,0E0,0E0,0E0,0E0,0E0,0E0],"parents":[2147483647,0,0,1,1,2,2,3,3,4,4,5,5,6,6,7,7,8,8,9,9,10,10,11,11,12,12,13,13,14,14,15,15,16,16,17,17,18,18,19,19,20,20,21,21,22,22,23,23,24,24,25,25,26,26,27,27,28,28,29,29,30,30,31,31,34,34,35,35,37,37,38,38,39,39,40,40,41,41,42,42,43,43,44,44,45,45,47,47,48,48,49,49,50,50,51,51,52,52,53,53,55,55,56,56,57,57,58,58,59,59,61,61,62,62],"right_children":[2,4,6,8,10,12,14,16,18,20,22,24,26,28,30,32,34,36,38,40,42,44,46,48,50,52,54,56,58,60,62,64,-1,-1,66,68,-1,70,72,74,76,78,80,82,84,86,-1,88,90,92,94,96,98,100,-1,102,104,106,108,110,-1,112,114,-1,-1,-1,-1,-1,-1,-1,-1,-1,-1,-1,-1,-1,-1,-1,-1,-1,-1,-1,-1,-1,-1,-1,-1,-1,-1,-1,-1,-1,-1,-1,-1,-1,-1,-1,-1,-1,-1,-1,-1,-1,-1,-1,-1,-1,-1,-1,-1,-1,-1,-1,-1],"split_conditions":[0E0,1E0,1E0,0E0,4E0,5E0,0E0,4.506E3,0E0,4.998E3,1.3E1,4.986E3,8E0,8.38E2,6E0,4.308E3,4.83E3,5E0,8.28E3,2E0,0E0,0E0,7.652E3,1E0,8.32E2,8.3E2,8.15E3,7.88E2,8.353E3,8.48E2,6E0,1E0,9.159464E0,-3.58348E1,0E0,8.302E3,-7.518494E-1,6.425E3,8.411E3,2E0,8.091E3,2E0,7.98E2,8.11E2,4.979E3,5.674E3,1.4958071E1,8.297E3,8.206E3,0E0,8.32E2,8.239E3,8.369E3,8.13E3,-1.0307642E1,2E0,7.9E2,2E0,5.104E3,4.987E3,-9.501854E0,4.356E3,7E0,6.813538E-1,-1.690075E0,5.9608454E-1,-7.660545E0,2.6097932E-1,9.183314E-1,1.5814911E0,1.079397E1,2.8858335E0,1.2519947E0,2.8877978E0,7.946741E0,-9.491749E-1,2.6916294E0,-7.079568E-1,2.3911097E0,-2.82013E0,8.35592E-1,-3.8128927E-1,-6.482857E0,3.717023E0,4.579854E-2,3.4137864E0,2.0240022E-1,4.754938E0,-2.8380007E1,-1.6984797E0,-1.1008717E1,7.7920566E0,1.3122982E0,-1.22435055E1,-4.9028914E-2,2.7744145E0,1.5760009E1,1.1703529E0,-1.4523182E0,-8.955826E-1,3.7851563E-1,-1.46345E1,5.189568E-1,1.5875184E1,1.6774098E0,-2.4849515E0,-7.402277E0,-3.172279E-1,3.714711E0,2.5442612E0,3.9632015E-2,-1.4028316E0,-9.62921E0,-5.458644E-1,8.4018075E-1],"split_indices":[0,11,0,7,11,4,7,2,4,2,5,2,4,6,0,2,2,10,1,4,10,12,1,5,9,9,1,6,1,9,7,5,0,0,8,1,0,1,1,8,1,8,9,6,18,1,0,1,1,8,6,1,1,1,0,0,6,8,2,18,0,18,4,0,0,0,0,0,0,0,0,0,0,0,0,0,0,0,0,0,0,0,0,0,0,0,0,0,0,0,0,0,0,0,0,0,0,0,0,0,0,0,0,0,0,0,0,0,0,0,0,0,0,0,0],"split_type":[0,0,0,0,0,0,0,0,0,0,0,0,0,0,0,0,0,0,0,0,0,0,0,0,0,0,0,0,0,0,0,0,0,0,0,0,0,0,0,0,0,0,0,0,0,0,0,0,0,0,0,0,0,0,0,0,0,0,0,0,0,0,0,0,0,0,0,0,0,0,0,0,0,0,0,0,0,0,0,0,0,0,0,0,0,0,0,0,0,0,0,0,0,0,0,0,0,0,0,0,0,0,0,0,0,0,0,0,0,0,0,0,0,0,0],"sum_hessian":[2.709E3,8.58E2,1.851E3,1.29E2,7.29E2,5.12E2,1.339E3,8.7E1,4.2E1,5.15E2,2.14E2,4.93E2,1.9E1,6.44E2,6.95E2,1.3E1,7.4E1,1.7E1,2.5E1,2.42E2,2.73E2,2.1E2,4E0,1.55E2,3.38E2,1.5E1,4E0,4.87E2,1.57E2,9.9E1,5.96E2,9E0,4E0,3E0,7.1E1,1.5E1,2E0,5E0,2E1,1.01E2,1.41E2,9.3E1,1.8E2,1.3E2,8E1,2E0,2E0,5.5E1,1E2,1.1E1,3.27E2,1.1E1,4E0,2E0,2E0,2.68E2,2.19E2,1.7E1,1.4E2,9.8E1,1E0,8.3E1,5.13E2,8E0,1E0,3.9E1,3.2E1,4E0,1.1E1,4E0,1E0,1.6E1,4E0,8.7E1,1.4E1,4.9E1,9.2E1,9E1,3E0,4E0,1.76E2,8.8E1,4.2E1,2.1E1,5.9E1,1E0,1E0,5.2E1,3E0,5.1E1,4.9E1,6E0,5E0,5E0,3.22E2,5E0,6E0,3E0,1E0,1E0,1E0,7E0,2.61E2,2E0,2.17E2,1.4E1,3E0,1.35E2,5E0,4.8E1,5E1,7.8E1,5E0,4.14E2,9.9E1],"tree_param":{"num_deleted":"0","num_feature":"23","num_nodes":"115","size_leaf_vector":"1"}},{"base_weights":[-4.9508147E-2,-8.701695E-1,6.2906396E-1,-1.2608918E-2,-8.929679E0,1.4682146E1,2.9933697E-1,-4.413395E-1,2.462878E1,-1.5434772E1,1.0666419E1,1.628148E1,1.0511817E1,4.9793437E-1,-5.777343E0,-2.4727646E-1,-1.2698426E1,3.639947E1,-7.494736E-1,1.6023318E0,-2.8160501E1,1.6434803E1,-4.619232E0,1.8136524E0,3.6379604E1,2.6117923E0,-1.1478518E-1,-1.136619E1,-4.221848E0,-7.703226E-1,1.0501038E1,-3.3307972E1,2.1502064E1,4.9638443E1,5.2894287E0,5.2575555E0,-1.1564374E1,1.0632716E1,-2.5649054E1,-4.735213E1,9.654827E0,1.4252024E1,9.028353E0,-1.8769482E0,-2.0581238E0,2.2520752E1,-1.6064837E1,1.8165384E1,-2.9298859E0,1.3401802E1,5.814093E-1,-4.993494E-2,-1.0620232E1,-9.144036E0,-9.0680397E-1,-3.9202888E-2,-2.0916595E0,5.9268217E0,-6.5282965E-1,1.1223416E0,-1.12161E1,2.0331686E1,7.4849397E-1,1.6049011E1,2.8158567E0,1.8627769E0,2.4151784E-1,-7.075342E0,-7.989693E-1,4.7339706E0,-1.2285578E1,-1.7987177E1,-2.8732038E0,-1.57811365E1,1.5558684E0,4.007222E0,-3.993162E0,5.3836765E0,1.8704315E0,-7.2943044E-1,-8.4732056E-2,-3.3295205E0,1.4435976E1,3.9237475E0,-2.1341957E1,2.3808289E0,-2.7591739E0,-2.2246776E0,6.760625E0,-1.9154068E0,9.2672473E-1,-6.3855875E-1,2.381666E-1,-4.4893494E0,-8.9736515E-1,-2.0072668E0,8.034878E-1],"categories":[],"categories_nodes":[],"categories_segments":[],"categories_sizes":[],"default_left":[0,0,0,0,0,0,0,0,0,0,0,0,0,0,0,0,0,0,0,0,0,0,0,0,0,0,0,0,0,0,0,0,0,0,0,0,0,0,0,0,0,0,0,0,0,0,0,0,0,0,0,0,0,0,0,0,0,0,0,0,0,0,0,0,0,0,0,0,0,0,0,0,0,0,0,0,0,0,0,0,0,0,0,0,0,0,0,0,0,0,0,0,0,0,0,0,0],"id":17,"left_children":[1,3,5,7,9,11,13,15,17,19,21,-1,23,25,27,29,31,33,35,37,39,41,43,45,47,49,51,-1,53,55,57,59,61,63,65,-1,67,69,71,73,75,-1,77,-1,79,81,83,-1,85,87,89,91,-1,93,95,-1,-1,-1,-1,-1,-1,-1,-1,-1,-1,-1,-1,-1,-1,-1,-1,-1,-1,-1,-1,-1,-1,-1,-1,-1,-1,-1,-1,-1,-1,-1,-1,-1,-1,-1,-1,-1,-1,-1,-1,-1,-1],"loss_changes":[1.5096865E3,8.48032E3,6.8719863E3,1.1737482E4,1.5206618E4,5.0429424E3,1.7539619E3,2.5943428E3,5.702953E3,1.9341176E4,2.7211213E3,0E0,7.1340938E3,1.8213536E3,2.137601E3,6.0572153E3,1.2698752E4,5.0916855E3,1.5861381E3,9.870248E3,3.746981E4,4.6340137E3,2.4862213E1,9.617083E3,7.7788174E3,6.915089E3,2.494773E3,0E0,7.259853E2,4.0732053E3,5.909357E3,1.8022363E3,5.9871436E3,8.9560156E2,1.5625397E1,0E0,4.7215222E2,8.611688E3,4.939683E3,9.653867E3,1.708354E3,0E0,3.6142273E2,0E0,2.627674E0,1.0861521E4,2.3401936E4,0E0,3.453943E2,9.674014E3,4.6838647E3,1.9135134E3,0E0,5.998585E2,5.9854224E2,0E0,0E0,0E0,0E0,0E0,0E0,0E0,0E0,0E0,0E0,0E0,0E0,0E0,0E0,0E0,0E0,0E0,0E0,0E0,0E0,0E0,0E0,0E0,0E0,0E0,0E0,0E0,0E0,0E0,0E0,0E0,0E0,0E0,0E0,0E0,0E0,0E0,0E0,0E0,0E0,0E0,0E0],"parents":[2147483647,0,0,1,1,2,2,3,3,4,4,5,5,6,6,7,7,8,8,9,9,10,10,12,12,13,13,14,14,15,15,16,16,17,17,18,18,19,19,20,20,21,21,22,22,23,23,24,24,25,25,26,26,28,28,29,29,30,30,31,31,32,32,33,33,34,34,36,36,37,37,38,38,39,39,40,40,42,42,44,44,45,45,46,46,48,48,49,49,50,50,51,51,53,53,54,54],"right_children":[2,4,6,8,10,12,14,16,18,20,22,-1,24,26,28,30,32,34,36,38,40,42,44,46,48,50,52,-1,54,56,58,60,62,64,66,-1,68,70,72,74,76,-1,78,-1,80,82,84,-1,86,88,90,92,-1,94,96,-1,-1,-1,-1,-1,-1,-1,-1,-1,-1,-1,-1,-1,-1,-1,-1,-1,-1,-1,-1,-1,-1,-1,-1,-1,-1,-1,-1,-1,-1,-1,-1,-1,-1,-1,-1,-1,-1,-1,-1,-1,-1],"split_conditions":[4.95E3,4.92E3,4.953E3,4.914E3,0E0,8.25E2,9.3E1,4.908E3,1E0,0E0,2E0,1.628148E1,4E0,8.29E2,9.6E1,4.889E3,1E0,2E0,0E0,0E0,2E0,0E0,6.8E1,2E0,0E0,2E0,9E0,-1.136619E1,8.43E3,4.83E3,0E0,0E0,1E0,4.92E3,5E0,5.2575555E0,1E0,6E0,8.26E2,4.956E3,7.6213E4,1.4252024E1,0E0,-1.8769482E0,5.208E3,0E0,0E0,1.8165384E1,6E0,8.26E2,4.965E3,1E0,-1.0620232E1,7E0,1.37E2,-3.9202888E-2,-2.0916595E0,5.9268217E0,-6.5282965E-1,1.1223416E0,-1.12161E1,2.0331686E1,7.4849397E-1,1.6049011E1,2.8158567E0,1.8627769E0,2.4151784E-1,-7.075342E0,-7.989693E-1,4.7339706E0,-1.2285578E1,-1.7987177E1,-2.8732038E0,-1.57811365E1,1.5558684E0,4.007222E0,-3.993162E0,5.3836765E0,1.8704315E0,-7.2943044E-1,-8.4732056E-2,-3.3295205E0,1.4435976E1,3.9237475E0,-2.1341957E1,2.3808289E0,-2.7591739E0,-2.2246776E0,6.760625E0,-1.9154068E0,9.2672473E-1,-6.3855875E-1,2.381666E-1,-4.4893494E0,-8.9736515E-1,-2.0072668E0,8.034878E-1],"split_indices":[18,18,18,18,7,6,10,18,14,10,0,0,4,9,10,18,10,0,0,8,0,12,0,4,7,4,4,0,1,18,8,4,0,2,4,0,0,4,6,2,0,0,16,0,2,0,0,0,4,6,2,4,0,5,10,0,0,0,0,0,0,0,0,0,0,0,0,0,0,0,0,0,0,0,0,0,0,0,0,0,0,0,0,0,0,0,0,0,0,0,0,0,0,0,0,0,0],"split_type":[0,0,0,0,0,0,0,0,0,0,0,0,0,0,0,0,0,0,0,0,0,0,0,0,0,0,0,0,0,0,0,0,0,0,0,0,0,0,0,0,0,0,0,0,0,0,0,0,0,0,0,0,0,0,0,0,0,0,0,0,0,0,0,0,0,0,0,0,0,0,0,0,0,0,0,0,0,0,0,0,0,0,0,0,0,0,0,0,0,0,0,0,0,0,0,0,0],"sum_hessian":[2.709E3,1.226E3,1.483E3,1.109E3,1.17E2,3.3E1,1.45E3,1.091E3,1.8E1,8.8E1,2.9E1,2E0,3.1E1,1.405E3,4.5E1,1.075E3,1.6E1,1.2E1,6E0,3.8E1,5E1,2.1E1,8E0,2.4E1,7E0,3.15E2,1.09E3,1E0,4.4E1,1.026E3,4.9E1,1E1,6E0,8E0,4E0,2E0,4E0,2.9E1,9E0,3.3E1,1.7E1,3E0,1.8E1,4E0,4E0,1.1E1,1.3E1,4E0,3E0,4.9E1,2.66E2,1.089E3,1E0,1.7E1,2.7E1,9.31E2,9.5E1,2.8E1,2.1E1,1E0,9E0,1E0,5E0,7E0,1E0,3E0,1E0,1E0,3E0,2.7E1,2E0,2E0,7E0,3E1,3E0,1.5E1,2E0,3E0,1.5E1,3E0,1E0,5E0,6E0,9E0,4E0,1E0,2E0,1.5E1,3.4E1,7E1,1.96E2,3.14E2,7.75E2,8E0,9E0,1E1,1.7E1],"tree_param":{"num_deleted":"0","num_feature":"23","num_nodes":"97","size_leaf_vector":"1"}},{"base_weights":[-3.0595265E-2,-1.7707491E0,2.4445279E-1,-1.1803542E0,-1.2615393E1,4.3710732E0,-2.0505814E-1,-8.9036113E-1,-6.338341E0,-2.3479492E1,2.0646608E0,3.4264853E0,1.1650667E1,-4.102545E0,2.5030637E-1,1.0724192E0,-2.9518158E0,-3.3070686E0,-8.706712E0,-1.9366112E0,1.3164196E0,5.980159E0,-1.079618E0,4.4766135E0,1.3145602E1,-1.6089119E1,-1.2001696E0,1.8721518E-1,1.1974296E1,2.5888362E0,-2.6809232E0,-3.8840518E0,6.9402246E0,8.024088E-2,-1.1980752E0,7.7776146E-1,1.0232432E1,-1.1396614E1,4.519835E-1,9.608894E0,-3.8586323E0,4.822713E0,9.608381E0,-1.0949204E1,-5.2962627E1,-4.4585385E0,3.3775494E0,1.447346E0,-7.1910363E-1,-1.4689004E-1,1.2791357E0,-1.6701682E0,2.7551958E-1,-1.2775079E0,4.987525E0,3.0566424E-1,5.573741E0,2.6158792E-1,-2.2547951E-1,1.4740272E0,-5.23761E-1,3.7349007E0,-5.673668E-1,-3.443488E0,3.9298376E-1,1.2457277E0,3.8967454E0,-3.4664384E-1,-1.3897408E0,-8.143181E-1,3.292619E0,-6.3098626E0,2.5679104E0,-3.0100758E1,3.6194427E0,9.154312E-1,-3.1790462E0,1.8439976E0,1.5586722E-1,2.0950713E0,-1.0274692E-2,-7.642607E-1,2.8097603E-1],"categories":[],"categories_nodes":[],"categories_segments":[],"categories_sizes":[],"default_left":[0,0,0,0,0,0,0,0,0,0,0,0,0,0,0,0,0,0,0,0,0,0,0,0,0,0,0,0,0,0,0,0,0,0,0,0,0,0,0,0,0,0,0,0,0,0,0,0,0,0,0,0,0,0,0,0,0,0,0,0,0,0,0,0,0,0,0,0,0,0,0,0,0,0,0,0,0,0,0,0,0,0,0],"id":18,"left_children":[1,3,5,7,9,11,13,15,-1,17,19,21,23,25,27,29,31,-1,-1,33,-1,35,37,39,41,43,45,47,-1,49,51,53,55,57,-1,59,61,-1,63,65,67,-1,69,71,73,75,77,79,81,-1,-1,-1,-1,-1,-1,-1,-1,-1,-1,-1,-1,-1,-1,-1,-1,-1,-1,-1,-1,-1,-1,-1,-1,-1,-1,-1,-1,-1,-1,-1,-1,-1,-1],"loss_changes":[1.2975092E3,2.354079E3,4.34336E3,2.017376E3,3.0787026E3,1.5416089E3,3.7493564E3,1.4112373E3,0E0,4.395288E2,9.216713E1,2.365415E3,2.199956E2,7.669178E3,4.727162E3,1.0257427E3,1.5946476E3,0E0,0E0,1.6914886E1,0E0,2.8900254E3,4.2569224E3,2.9375012E2,6.319165E1,7.56975E3,2.6850046E3,2.1595723E3,0E0,6.6209155E2,5.4532715E2,1.268364E3,1.01484015E3,2.6311119E0,0E0,6.347914E2,1.9589785E3,0E0,7.622441E2,1.9840607E1,9.226723E-1,0E0,2.3193652E2,7.85217E3,1.6613332E4,4.872661E3,5.903634E2,6.488371E3,3.3324348E3,0E0,0E0,0E0,0E0,0E0,0E0,0E0,0E0,0E0,0E0,0E0,0E0,0E0,0E0,0E0,0E0,0E0,0E0,0E0,0E0,0E0,0E0,0E0,0E0,0E0,0E0,0E0,0E0,0E0,0E0,0E0,0E0,0E0,0E0],"parents":[2147483647,0,0,1,1,2,2,3,3,4,4,5,5,6,6,7,7,9,9,10,10,11,11,12,12,13,13,14,14,15,15,16,16,19,19,21,21,22,22,23,23,24,24,25,25,26,26,27,27,29,29,30,30,31,31,32,32,33,33,35,35,36,36,38,38,39,39,40,40,42,42,43,43,44,44,45,45,46,46,47,47,48,48],"right_children":[2,4,6,8,10,12,14,16,-1,18,20,22,24,26,28,30,32,-1,-1,34,-1,36,38,40,42,44,46,48,-1,50,52,54,56,58,-1,60,62,-1,64,66,68,-1,70,72,74,76,78,80,82,-1,-1,-1,-1,-1,-1,-1,-1,-1,-1,-1,-1,-1,-1,-1,-1,-1,-1,-1,-1,-1,-1,-1,-1,-1,-1,-1,-1,-1,-1,-1,-1,-1,-1],"split_conditions":[6.76E2,1.054E3,7.312E3,9E0,6.38E2,2.3084E4,7.865E3,3E0,-6.338341E0,4.645E3,6E0,2E0,1.04346E5,0E0,1.3E1,5.752E3,1.91E2,-3.3070686E0,-8.706712E0,8E0,1.3164196E0,0E0,3E0,3E0,1.4079E5,4.702E3,1.7E1,0E0,1.1974296E1,4.708E3,2.2E1,1.284E3,3.31E2,4.608E3,-1.1980752E0,0E0,7.93E2,-1.1396614E1,4.16E3,7.2E3,9.9756E4,4.822713E0,1.54688E5,4.662E3,0E0,1E0,4.68E3,8.197E3,0E0,-1.4689004E-1,1.2791357E0,-1.6701682E0,2.7551958E-1,-1.2775079E0,4.987525E0,3.0566424E-1,5.573741E0,2.6158792E-1,-2.2547951E-1,1.4740272E0,-5.23761E-1,3.7349007E0,-5.673668E-1,-3.443488E0,3.9298376E-1,1.2457277E0,3.8967454E0,-3.4664384E-1,-1.3897408E0,-8.143181E-1,3.292619E0,-6.3098626E0,2.5679104E0,-3.0100758E1,3.6194427E0,9.154312E-1,-3.1790462E0,1.8439976E0,1.5586722E-1,2.0950713E0,-1.0274692E-2,-7.642607E-1,2.8097603E-1],"split_indices":[9,7,1,19,9,2,1,11,0,2,10,7,0,8,4,1,7,0,0,0,0,10,7,4,0,18,7,8,0,1,8,13,0,2,0,0,0,0,2,1,0,0,0,2,0,10,18,1,7,0,0,0,0,0,0,0,0,0,0,0,0,0,0,0,0,0,0,0,0,0,0,0,0,0,0,0,0,0,0,0,0,0,0],"split_type":[0,0,0,0,0,0,0,0,0,0,0,0,0,0,0,0,0,0,0,0,0,0,0,0,0,0,0,0,0,0,0,0,0,0,0,0,0,0,0,0,0,0,0,0,0,0,0,0,0,0,0,0,0,0,0,0,0,0,0,0,0,0,0,0,0,0,0,0,0,0,0,0,0,0,0,0,0,0,0,0,0,0,0],"sum_hessian":[2.709E3,3.69E2,2.34E3,3.51E2,1.8E1,2.29E2,2.111E3,3.47E2,4E0,1E1,8E0,2.04E2,2.5E1,2.2E2,1.891E3,1.78E2,1.69E2,4E0,6E0,3E0,5E0,1.3E2,7.4E1,5E0,2E1,4.2E1,1.78E2,1.889E3,2E0,1.27E2,5.1E1,1.55E2,1.4E1,2E0,1E0,5.9E1,7.1E1,2E0,7.2E1,3E0,2E0,9E0,1.1E1,3.8E1,4E0,1.04E2,7.4E1,7.9E2,1.099E3,4.5E1,8.2E1,2.8E1,2.3E1,1.53E2,2E0,1E1,4E0,1E0,1E0,2.2E1,3.7E1,6E1,1.1E1,4E0,6.8E1,2E0,1E0,1E0,1E0,1E0,1E1,2.5E1,1.3E1,2E0,2E0,4.7E1,5.7E1,3.7E1,3.7E1,1.66E2,6.24E2,5.22E2,5.77E2],"tree_param":{"num_deleted":"0","num_feature":"23","num_nodes":"83","size_leaf_vector":"1"}},{"base_weights":[-3.079121E-2,-7.289035E-1,5.4644233E-1,-1.3228132E-1,-6.3350196E0,7.978572E0,1.3403824E-1,-4.2953882E-1,1.6959166E1,-1.1035886E1,7.822051E0,1.5895793E1,-2.202465E0,-1.0320249E1,3.692952E-1,-8.0741096E-1,3.3687885E0,2.674168E1,1.6549778E-1,-1.885709E1,2.17068E0,1.2213708E1,-3.7822282E0,1.281834E1,1.6104458E1,7.301513E0,-1.5361203E1,-2.9609694E1,1.2229138E1,1.0875604E1,1.1124505E-1,-6.208549E-1,-1.910244E1,1.8087341E1,3.1355727E-1,3.5499985E1,3.5007477E-1,2.4519615E0,-1.3387787E0,3.3621836E0,-3.3333153E1,9.653127E0,-1.8275826E0,1.0982097E1,6.435454E0,-1.4193176E0,-1.4134254E0,7.525634E0,3.8206783E1,1.59169035E1,2.3609548E0,-4.1557995E1,6.7208786E0,-9.0926994E1,3.516433E0,1.774217E1,1.0025622E0,4.7628235E1,4.163922E0,3.0070496E-1,-4.5129604E0,1.6117606E-1,-7.235325E-1,-3.1837755E1,7.0757675E-1,8.487468E0,-3.618327E0,-2.0983155E0,1.4414167E0,4.0667887E0,1.3263802E1,4.0729647E0,-5.899402E0,9.262942E-1,-1.08970076E-1,1.1513463E1,-2.5489838E0,-1.1545677E1,4.4794545E0,3.6287382E0,-2.5824304E0,-6.2311635E0,9.760788E-1,4.1091294E0,1.2653482E0,-4.8925784E-1,-1.14168555E-1,7.646449E0,-2.9662755E0,1.6092009E1,3.9665532E0,2.4621034E0,3.766344E-1,-6.7800193E0,-1.7790565E1,4.0562534E0,-1.5477866E0,-3.544039E1,6.766682E0,2.4211323E1,-3.251226E0,3.031443E0,8.001603E0,-7.4308777E-1,1.5923212E0,2.5064898E1,-1.2507768E0,8.080564E0,-1.291745E0,1.7354282E-2,1.9795837E0,-3.6570892E0,-7.3321146E-1],"categories":[],"categories_nodes":[],"categories_segments":[],"categories_sizes":[],"default_left":[0,0,0,0,0,0,0,0,0,0,0,0,0,0,0,0,0,0,0,0,0,0,0,0,0,0,0,0,0,0,0,0,0,0,0,0,0,0,0,0,0,0,0,0,0,0,0,0,0,0,0,0,0,0,0,0,0,0,0,0,0,0,0,0,0,0,0,0,0,0,0,0,0,0,0,0,0,0,0,0,0,0,0,0,0,0,0,0,0,0,0,0,0,0,0,0,0,0,0,0,0,0,0,0,0,0,0,0,0,0,0,0,0],"id":19,"left_children":[1,3,5,7,9,11,13,15,17,19,21,23,25,27,29,31,33,35,37,39,41,43,45,47,-1,49,51,53,55,57,59,61,63,65,67,69,71,73,-1,75,77,79,81,-1,83,-1,85,87,89,-1,91,93,95,97,99,101,103,105,107,109,111,-1,-1,-1,-1,-1,-1,-1,-1,-1,-1,-1,-1,-1,-1,-1,-1,-1,-1,-1,-1,-1,-1,-1,-1,-1,-1,-1,-1,-1,-1,-1,-1,-1,-1,-1,-1,-1,-1,-1,-1,-1,-1,-1,-1,-1,-1,-1,-1,-1,-1,-1,-1],"loss_changes":[1.0924574E3,4.10315E3,4.5474507E3,5.646707E3,7.939282E3,6.3222407E3,3.4642488E3,1.570048E3,3.1169756E3,9.233853E3,1.5750555E3,4.428379E3,4.489273E3,1.38460205E4,3.7320498E3,3.3807097E3,4.4462183E3,2.7613213E3,9.5597855E1,1.8124342E4,1.0348126E3,2.86533E3,1.3541336E1,5.3561597E3,0E0,4.621879E3,8.956502E3,3.485022E4,9.1059937E2,7.941854E3,1.1797135E3,2.0442642E3,1.8926426E4,5.5711265E3,2.7577634E3,1.1213779E3,1.3258765E3,1.1859013E1,0E0,9.876786E3,9.029789E3,6.39395E2,2.2813882E3,0E0,2.4819672E2,0E0,2.7767563E-1,1.1512293E4,1.9899707E3,0E0,1.1895362E2,1.0144844E3,7.9682043E2,2.1190156E4,1.4169965E4,4.1248853E2,1.03026726E2,9.651535E3,5.7091167E3,1.9772527E3,8.1204846E2,0E0,0E0,0E0,0E0,0E0,0E0,0E0,0E0,0E0,0E0,0E0,0E0,0E0,0E0,0E0,0E0,0E0,0E0,0E0,0E0,0E0,0E0,0E0,0E0,0E0,0E0,0E0,0E0,0E0,0E0,0E0,0E0,0E0,0E0,0E0,0E0,0E0,0E0,0E0,0E0,0E0,0E0,0E0,0E0,0E0,0E0,0E0,0E0,0E0,0E0,0E0,0E0],"parents":[2147483647,0,0,1,1,2,2,3,3,4,4,5,5,6,6,7,7,8,8,9,9,10,10,11,11,12,12,13,13,14,14,15,15,16,16,17,17,18,18,19,19,20,20,21,21,22,22,23,23,25,25,26,26,27,27,28,28,29,29,30,30,31,31,32,32,33,33,34,34,35,35,36,36,37,37,39,39,40,40,41,41,42,42,44,44,46,46,47,47,48,48,50,50,51,51,52,52,53,53,54,54,55,55,56,56,57,57,58,58,59,59,60,60],"right_children":[2,4,6,8,10,12,14,16,18,20,22,24,26,28,30,32,34,36,38,40,42,44,46,48,-1,50,52,54,56,58,60,62,64,66,68,70,72,74,-1,76,78,80,82,-1,84,-1,86,88,90,-1,92,94,96,98,100,102,104,106,108,110,112,-1,-1,-1,-1,-1,-1,-1,-1,-1,-1,-1,-1,-1,-1,-1,-1,-1,-1,-1,-1,-1,-1,-1,-1,-1,-1,-1,-1,-1,-1,-1,-1,-1,-1,-1,-1,-1,-1,-1,-1,-1,-1,-1,-1,-1,-1,-1,-1,-1,-1,-1,-1],"split_conditions":[4.95E3,4.92E3,4.962E3,4.914E3,0E0,0E0,4.967E3,8.15E2,2E0,8.3E1,2E0,8.261E3,0E0,0E0,4.97E3,8.14E2,8.16E2,1E0,2E0,0E0,2.5478E4,0E0,8.19E3,5E0,1.6104458E1,0E0,8.26E2,0E0,1E0,8.28E2,7.6E1,7.32E2,8.14E3,8.3E1,1E0,0E0,0E0,5E0,-1.3387787E0,1E0,6E0,2E0,1E0,1.0982097E1,0E0,-1.4193176E0,5.208E3,2E0,7E0,1.59169035E1,1E0,1E0,3E0,5E0,1E0,0E0,3E0,0E0,0E0,3.4E2,1.12E3,1.6117606E-1,-7.235325E-1,-3.1837755E1,7.0757675E-1,8.487468E0,-3.618327E0,-2.0983155E0,1.4414167E0,4.0667887E0,1.3263802E1,4.0729647E0,-5.899402E0,9.262942E-1,-1.08970076E-1,1.1513463E1,-2.5489838E0,-1.1545677E1,4.4794545E0,3.6287382E0,-2.5824304E0,-6.2311635E0,9.760788E-1,4.1091294E0,1.2653482E0,-4.8925784E-1,-1.14168555E-1,7.646449E0,-2.9662755E0,1.6092009E1,3.9665532E0,2.4621034E0,3.766344E-1,-6.7800193E0,-1.7790565E1,4.0562534E0,-1.5477866E0,-3.544039E1,6.766682E0,2.4211323E1,-3.251226E0,3.031443E0,8.001603E0,-7.4308777E-1,1.5923212E0,2.5064898E1,-1.2507768E0,8.080564E0,-1.291745E0,1.7354282E-2,1.9795837E0,-3.6570892E0,-7.3321146E-1],"split_indices":[18,18,18,18,7,8,18,9,0,0,0,1,0,7,18,9,9,14,10,10,0,12,1,4,0,7,6,0,10,6,10,9,1,0,10,0,0,4,0,4,4,10,4,0,16,0,2,4,4,0,7,0,4,4,4,0,4,7,10,8,0,0,0,0,0,0,0,0,0,0,0,0,0,0,0,0,0,0,0,0,0,0,0,0,0,0,0,0,0,0,0,0,0,0,0,0,0,0,0,0,0,0,0,0,0,0,0,0,0,0,0,0,0],"split_type":[0,0,0,0,0,0,0,0,0,0,0,0,0,0,0,0,0,0,0,0,0,0,0,0,0,0,0,0,0,0,0,0,0,0,0,0,0,0,0,0,0,0,0,0,0,0,0,0,0,0,0,0,0,0,0,0,0,0,0,0,0,0,0,0,0,0,0,0,0,0,0,0,0,0,0,0,0,0,0,0,0,0,0,0,0,0,0,0,0,0,0,0,0,0,0,0,0,0,0,0,0,0,0,0,0,0,0,0,0,0,0,0,0],"sum_hessian":[2.709E3,1.226E3,1.483E3,1.109E3,1.17E2,7.7E1,1.406E3,1.091E3,1.8E1,8.8E1,2.9E1,4.3E1,3.4E1,3E1,1.376E3,9.93E2,9.8E1,1.1E1,7E0,5.5E1,3.3E1,2.1E1,8E0,4.1E1,2E0,2E1,1.4E1,1.6E1,1.4E1,3.2E1,1.344E3,9.84E2,9E0,1.6E1,8.2E1,8E0,3E0,5E0,2E0,2.2E1,3.3E1,1.1E1,2.2E1,3E0,1.8E1,5E0,3E0,3.5E1,6E0,1E0,1.9E1,6E0,8E0,5E0,1.1E1,9E0,5E0,4E0,2.8E1,1.292E3,5.2E1,5.98E2,3.86E2,1E0,8E0,1.2E1,4E0,3.1E1,5.1E1,3E0,5E0,2E0,1E0,4E0,1E0,5E0,1.7E1,3E1,3E0,1E1,1E0,4E0,1.8E1,3E0,1.5E1,2E0,1E0,1.7E1,1.8E1,3E0,3E0,2E0,1.7E1,4E0,2E0,5E0,3E0,4E0,1E0,1E0,1E1,6E0,3E0,3E0,2E0,2E0,2E0,7E0,2.1E1,1.245E3,4.7E1,1E1,4.2E1],"tree_param":{"num_deleted":"0","num_feature":"23","num_nodes":"113","size_leaf_vector":"1"}},{"base_weights":[4.07071E-3,1.9741777E-2,-6.367328E0,-1.4438953E0,2.5116315E-1,-9.7847325E-1,-9.9904585E0,9.112214E-2,6.659628E0,-7.5716174E-1,-4.8558183E0,-1.7839624E1,7.1301776E-1,2.5632052E0,-1.4735186E-1,6.9226522E0,-1.21046E0,3.6031657E-1,-3.2774663E0,-2.6611574E0,-6.5092816E0,1.8982296E0,-1.3153015E0,3.728851E0,-6.789945E-1,-3.412741E0,2.4380232E-1,1.0394955E1,5.631143E0,-2.8164575E-2,2.7220836E0,-8.866993E0,-8.25214E-1,-1.1774446E-2,7.651791E-1,1.3438228E0,-1.5452267E0,-6.9624333E0,3.303926E-1,7.9509634E-1,-2.0272229E0,6.3110024E-2,9.370115E0,1.8504151E0,3.617369E0,2.1067598E0,9.9255556E-1],"categories":[],"categories_nodes":[],"categories_segments":[],"categories_sizes":[],"default_left":[0,0,0,0,0,0,0,0,0,0,0,0,0,0,0,0,0,0,0,0,0,0,0,0,0,0,0,0,0,0,0,0,0,0,0,0,0,0,0,0,0,0,0,0,0,0,0],"id":20,"left_children":[1,3,-1,5,7,9,11,13,15,17,-1,19,21,23,25,27,-1,29,31,-1,-1,33,-1,35,37,39,41,43,45,-1,-1,-1,-1,-1,-1,-1,-1,-1,-1,-1,-1,-1,-1,-1,-1,-1,-1],"loss_changes":[9.019634E2,9.179468E2,0E0,1.4619958E3,2.3993374E3,1.1724407E3,1.6089738E3,1.3468588E3,1.8826807E2,9.8128314E2,0E0,1.8815942E2,6.26955E1,7.621625E2,2.6626638E3,1.9259692E2,0E0,9.5858264E2,1.3998599E3,0E0,0E0,1.0211683E1,0E0,1.00944165E3,2.1914268E3,4.5401104E3,1.9227705E3,2.4033447E1,1.15727905E2,0E0,0E0,0E0,0E0,0E0,0E0,0E0,0E0,0E0,0E0,0E0,0E0,0E0,0E0,0E0,0E0,0E0,0E0],"parents":[2147483647,0,0,1,1,3,3,4,4,5,5,6,6,7,7,8,8,9,9,11,11,12,12,13,13,14,14,15,15,17,17,18,18,21,21,23,23,24,24,25,25,26,26,27,27,28,28],"right_children":[2,4,-1,6,8,10,12,14,16,18,-1,20,22,24,26,28,-1,30,32,-1,-1,34,-1,36,38,40,42,44,46,-1,-1,-1,-1,-1,-1,-1,-1,-1,-1,-1,-1,-1,-1,-1,-1,-1,-1],"split_conditions":[8.3874E4,6.76E2,-6.367328E0,1.054E3,9.9756E4,9E0,6.38E2,7.29E2,2.01225E5,6.25E2,-4.8558183E0,4.645E3,1.12E3,1.2E1,4.729E3,7.05E2,-1.21046E0,2.8E1,2.946E3,-2.6611574E0,-6.5092816E0,6E0,-1.3153015E0,7.93E2,1.9E1,1E0,1.3E1,7.8E2,2E0,-2.8164575E-2,2.7220836E0,-8.866993E0,-8.25214E-1,-1.1774446E-2,7.651791E-1,1.3438228E0,-1.5452267E0,-6.9624333E0,3.303926E-1,7.9509634E-1,-2.0272229E0,6.3110024E-2,9.370115E0,1.8504151E0,3.617369E0,2.1067598E0,9.9255556E-1],"split_indices":[18,9,0,7,0,19,9,6,0,6,0,2,0,8,18,9,0,17,2,0,0,10,0,0,8,10,4,6,10,0,0,0,0,0,0,0,0,0,0,0,0,0,0,0,0,0,0],"split_type":[0,0,0,0,0,0,0,0,0,0,0,0,0,0,0,0,0,0,0,0,0,0,0,0,0,0,0,0,0,0,0,0,0,0,0,0,0,0,0,0,0,0,0,0,0,0,0],"sum_hessian":[2.709E3,2.708E3,1E0,3.69E2,2.339E3,3.51E2,1.8E1,2.283E3,5.6E1,3.47E2,4E0,1E1,8E0,2E2,2.083E3,5.5E1,1E0,2.41E2,1.06E2,4E0,6E0,7E0,1E0,1.47E2,5.3E1,2.22E2,1.861E3,1.3E1,4.2E1,2.3E2,1.1E1,1E0,1.05E2,2E0,5E0,1.36E2,1.1E1,3E0,5E1,7.9E1,1.43E2,1.86E3,1E0,5E0,8E0,2.5E1,1.7E1],"tree_param":{"num_deleted":"0","num_feature":"23","num_nodes":"47","size_leaf_vector":"1"}},{"base_weights":[-4.2463494E-3,9.750279E-3,-5.688167E0,4.4430185E-2,-7.185746E0,5.6742805E-1,-3.621455E-1,1.9693044E0,-1.3153816E1,2.1235128E-1,1.1232831E1,-1.2101585E0,7.303443E-1,-7.9774475E0,7.75546E0,-1.9886566E1,1.4088868E0,2.9648771E0,-5.497455E-1,3.0492409E1,4.2042584E0,-5.186066E-1,-8.291741E0,-2.0246248E1,9.846554E-1,4.457601E-1,-4.122452E0,-7.0841312E0,-1.875824E-1,4.2804006E-1,5.8568444E0,-4.182067E0,-1.1300238E-2,1.6131381E0,1.2146383E1,3.7584732E0,-4.7359022E-1,-3.4742215E-1,1.6793717E0,-4.0437417E0,2.393963E0,-7.425705E-1,-6.7294083E0,3.7510784E0,1.9218326E-1,4.577774E-1,-2.5718537E-1],"categories":[],"categories_nodes":[],"categories_segments":[],"categories_sizes":[],"default_left":[0,0,0,0,0,0,0,0,0,0,0,0,0,0,0,0,0,0,0,0,0,0,0,0,0,0,0,0,0,0,0,0,0,0,0,0,0,0,0,0,0,0,0,0,0,0,0],"id":21,"left_children":[1,3,-1,5,7,9,11,13,15,17,19,21,23,25,-1,27,-1,29,31,33,35,37,39,41,43,45,-1,-1,-1,-1,-1,-1,-1,-1,-1,-1,-1,-1,-1,-1,-1,-1,-1,-1,-1,-1,-1],"loss_changes":[7.1921405E2,6.7632074E2,0E0,5.736908E2,7.361977E2,4.4663184E3,1.4072281E3,1.6315328E3,1.0548352E3,2.3992908E3,5.0157607E3,4.1828765E3,3.562097E3,2.4888474E2,0E0,4.159795E2,0E0,6.2880547E3,6.14332E3,2.2926982E3,1.4157421E3,3.0573037E3,6.5225195E3,2.5513062E2,2.5957E3,5.5306597E0,0E0,0E0,0E0,0E0,0E0,0E0,0E0,0E0,0E0,0E0,0E0,0E0,0E0,0E0,0E0,0E0,0E0,0E0,0E0,0E0,0E0],"parents":[2147483647,0,0,1,1,3,3,4,4,5,5,6,6,7,7,8,8,9,9,10,10,11,11,12,12,13,13,15,15,17,17,18,18,19,19,20,20,21,21,22,22,23,23,24,24,25,25],"right_children":[2,4,-1,6,8,10,12,14,16,18,20,22,24,26,-1,28,-1,30,32,34,36,38,40,42,44,46,-1,-1,-1,-1,-1,-1,-1,-1,-1,-1,-1,-1,-1,-1,-1,-1,-1,-1,-1,-1,-1],"split_conditions":[1.511E3,7.1577E4,-5.688167E0,2E0,1.2451E4,2E0,4.976E3,8.83E2,3E0,4.824E3,0E0,8.267E3,3.183E3,