{"learner":{"attributes":{"scikit_learn":"{\"_estimator_type\": \"regressor\"}"},"feature_names":["thread__park","SetIntField","SetByteArrayRegion","NewStringUTF","gc","vmops","thread__sleep","GetStringLength","GetObjectClass","GetMethodID","method__compile","safepoint","GetObjectArrayElement","CallVoidMethod","compiled__method__load","NewString","IsInstanceOf","GetEnv","CallObjectMethod","ReleaseIntArrayElements","GetByteArrayElements","Throw","compiled__method__unload"],"feature_types":["float","float","float","float","float","float","float","float","float","float","float","float","float","float","float","float","float","float","float","float","float","float","float"],"gradient_booster":{"model":{"gbtree_model_param":{"num_parallel_tree":"1","num_trees":"100"},"iteration_indptr":[0,1,2,3,4,5,6,7,8,9,10,11,12,13,14,15,16,17,18,19,20,21,22,23,24,25,26,27,28,29,30,31,32,33,34,35,36,37,38,39,40,41,42,43,44,45,46,47,48,49,50,51,52,53,54,55,56,57,58,59,60,61,62,63,64,65,66,67,68,69,70,71,72,73,74,75,76,77,78,79,80,81,82,83,84,85,86,87,88,89,90,91,92,93,94,95,96,97,98,99,100],"tree_info":[0,0,0,0,0,0,0,0,0,0,0,0,0,0,0,0,0,0,0,0,0,0,0,0,0,0,0,0,0,0,0,0,0,0,0,0,0,0,0,0,0,0,0,0,0,0,0,0,0,0,0,0,0,0,0,0,0,0,0,0,0,0,0,0,0,0,0,0,0,0,0,0,0,0,0,0,0,0,0,0,0,0,0,0,0,0,0,0,0,0,0,0,0,0,0,0,0,0,0,0],"trees":[{"base_weights":[1.881948E-7,-7.6293864E0,7.32175E0,-2.973613E0,-2.2712934E1,-6.487331E0,1.1408201E1,-7.3041935E0,9.936712E0,-3.2612103E1,-1.4465097E1,-4.605848E0,-4.7571033E1,1.4376958E1,-4.547043E0,-2.2285986E0,-1.7115652E1,3.1242838E0,1.662893E1,-3.3508648E1,4.351799E0,-1.8843393E0,-2.4447863E1,-4.1954346E0,-1.05294075E1,-6.5676622E0,-1.7049767E1,1.1550053E1,3.3902447E1,-1.1542674E1,1.2404772E0,-5.296892E0,5.645161E0,-1.33371725E1,-4.549287E1,1.3451164E0,7.2798023E0,2.2723574E1,2.0918095E0,-3.825565E1,-2.7959879E1,-3.7055843E0,1.0162937E1,-2.328024E1,2.1837626E1,-2.8038E1,1.0250653E0,-9.9174696E-1,-8.45651E0,-5.149075E-1,-2.2054195E0,1.086553E1,1.0014334E1,3.644878E1,1.26005745E1,-7.591995E0,-9.789045E0,-1.472582E0,5.0361285E0,-1.3723339E0,-1.04529505E1,2.7349532E0,1.2138996E0,-1.3898358E0,-6.403961E0,-1.4601994E1,2.1016074E-2,-6.5980296E0,6.412827E-1,4.2548227E0,7.856221E0,1.185999E0,-1.4397632E0,-8.473764E0,-1.2805119E1,-8.591252E0,-2.7665796E0,3.393232E0,8.357393E-1,5.031531E0,-7.4684505E0,7.618812E0,1.4915247E0,-9.445376E0,-3.7736046E0,-2.2964776E0,2.8807647E0,2.5949736E0,-1.629634E0,-2.899513E0,-1.6019471E0,3.9208105E0,1.2044525E0,9.68124E0,1.3076453E1,6.0189404E0,1.7860825E0,-1.79267E0,-2.5629241E0,8.653912E-2,-9.595699E-1,9.450226E-1,2.6522923E0],"categories":[],"categories_nodes":[],"categories_segments":[],"categories_sizes":[],"default_left":[0,0,0,0,0,0,0,0,0,0,0,0,0,0,0,0,0,0,0,0,0,0,0,0,0,0,0,0,0,0,0,0,0,0,0,0,0,0,0,0,0,0,0,0,0,0,0,0,0,0,0,0,0,0,0,0,0,0,0,0,0,0,0,0,0,0,0,0,0,0,0,0,0,0,0,0,0,0,0,0,0,0,0,0,0,0,0,0,0,0,0,0,0,0,0,0,0,0,0,0,0,0,0],"id":0,"left_children":[1,3,5,7,9,11,13,15,17,19,21,23,25,27,29,31,33,35,37,39,41,43,45,47,-1,49,-1,51,53,55,57,59,61,63,65,67,-1,69,71,73,75,-1,77,79,81,83,85,87,89,-1,-1,91,-1,93,95,97,-1,99,101,-1,-1,-1,-1,-1,-1,-1,-1,-1,-1,-1,-1,-1,-1,-1,-1,-1,-1,-1,-1,-1,-1,-1,-1,-1,-1,-1,-1,-1,-1,-1,-1,-1,-1,-1,-1,-1,-1,-1,-1,-1,-1,-1,-1],"loss_changes":[2.3075958E5,1.4199881E5,1.1902871E5,8.656411E4,3.8473734E4,3.703867E4,7.7131875E4,5.7678895E4,1.7682652E4,7.3040312E3,3.2858707E4,5.6343994E3,7.6015703E3,7.533831E4,1.0379082E4,1.8511541E4,4.1746227E4,7.2646025E3,1.7317793E4,4.488125E3,7.079387E2,5.9892062E4,1.3380633E4,6.230191E3,0E0,6.3930817E0,0E0,1.7569906E4,8.924531E3,9.416216E3,1.4594097E3,1.1602034E4,1.1563823E3,2.4301914E4,6.6692812E3,3.3762253E3,0E0,3.7111797E3,7.758115E2,3.7143281E3,1.01833594E3,0E0,1.0829224E1,4.4269336E3,3.2346172E3,6.424047E3,1.4881036E3,1.1263861E4,6.8664746E2,0E0,0E0,1.7536469E4,0E0,3.1869219E3,8.726196E2,1.01148926E2,0E0,2.5320424E2,3.9554248E2,0E0,0E0,0E0,0E0,0E0,0E0,0E0,0E0,0E0,0E0,0E0,0E0,0E0,0E0,0E0,0E0,0E0,0E0,0E0,0E0,0E0,0E0,0E0,0E0,0E0,0E0,0E0,0E0,0E0,0E0,0E0,0E0,0E0,0E0,0E0,0E0,0E0,0E0,0E0,0E0,0E0,0E0,0E0,0E0],"parents":[2147483647,0,0,1,1,2,2,3,3,4,4,5,5,6,6,7,7,8,8,9,9,10,10,11,11,12,12,13,13,14,14,15,15,16,16,17,17,18,18,19,19,20,20,21,21,22,22,23,23,25,25,27,27,28,28,29,29,30,30,31,31,32,32,33,33,34,34,35,35,37,37,38,38,39,39,40,40,42,42,43,43,44,44,45,45,46,46,47,47,48,48,51,51,53,53,54,54,55,55,57,57,58,58],"right_children":[2,4,6,8,10,12,14,16,18,20,22,24,26,28,30,32,34,36,38,40,42,44,46,48,-1,50,-1,52,54,56,58,60,62,64,66,68,-1,70,72,74,76,-1,78,80,82,84,86,88,90,-1,-1,92,-1,94,96,98,-1,100,102,-1,-1,-1,-1,-1,-1,-1,-1,-1,-1,-1,-1,-1,-1,-1,-1,-1,-1,-1,-1,-1,-1,-1,-1,-1,-1,-1,-1,-1,-1,-1,-1,-1,-1,-1,-1,-1,-1,-1,-1,-1,-1,-1,-1],"split_conditions":[8.12E2,1.6318E4,0E0,6.3E2,7.51E2,8.54E2,0E0,1.76E2,1.17E2,2.2549E4,0E0,4E0,2E0,2.5414E4,6.27E2,0E0,1.387E3,2.19E2,1.365E3,0E0,4.9586E4,2.2166E4,7.506E3,0E0,-1.05294075E1,0E0,-1.7049767E1,7E0,9.9298E4,6.5E1,6.03E2,1.1E1,6.6E1,2.228E3,4.05E2,2.91E2,7.2798023E0,1.56E2,5E0,1.9819E4,7.21E2,-3.7055843E0,7.24E2,1.8266E4,7.7277E4,0E0,4.407E4,0E0,0E0,-5.149075E-1,-2.2054195E0,1E0,1.0014334E1,4E0,1.27969E5,2E0,-9.789045E0,5.6E2,2.721E3,-1.3723339E0,-1.04529505E1,2.7349532E0,1.2138996E0,-1.3898358E0,-6.403961E0,-1.4601994E1,2.1016074E-2,-6.5980296E0,6.412827E-1,4.2548227E0,7.856221E0,1.185999E0,-1.4397632E0,-8.473764E0,-1.2805119E1,-8.591252E0,-2.7665796E0,3.393232E0,8.357393E-1,5.031531E0,-7.4684505E0,7.618812E0,1.4915247E0,-9.445376E0,-3.7736046E0,-2.2964776E0,2.8807647E0,2.5949736E0,-1.629634E0,-2.899513E0,-1.6019471E0,3.9208105E0,1.2044525E0,9.68124E0,1.3076453E1,6.0189404E0,1.7860825E0,-1.79267E0,-2.5629241E0,8.653912E-2,-9.595699E-1,9.450226E-1,2.6522923E0],"split_indices":[3,0,0,0,6,6,7,1,1,2,7,4,4,0,7,19,7,8,2,16,0,0,2,7,0,4,0,1,0,0,0,4,2,2,2,3,0,1,4,0,6,0,6,0,0,16,0,2,16,0,0,4,0,4,0,7,0,1,2,0,0,0,0,0,0,0,0,0,0,0,0,0,0,0,0,0,0,0,0,0,0,0,0,0,0,0,0,0,0,0,0,0,0,0,0,0,0,0,0,0,0,0,0],"split_type":[0,0,0,0,0,0,0,0,0,0,0,0,0,0,0,0,0,0,0,0,0,0,0,0,0,0,0,0,0,0,0,0,0,0,0,0,0,0,0,0,0,0,0,0,0,0,0,0,0,0,0,0,0,0,0,0,0,0,0,0,0,0,0,0,0,0,0,0,0,0,0,0,0,0,0,0,0,0,0,0,0,0,0,0,0,0,0,0,0,0,0,0,0,0,0,0,0,0,0,0,0,0,0],"sum_hessian":[4.129E3,2.022E3,2.107E3,1.546E3,4.76E2,4.81E2,1.626E3,1.158E3,3.88E2,2.15E2,2.61E2,4.61E2,2E1,1.371E3,2.55E2,7.64E2,3.94E2,1.93E2,1.95E2,2.1E2,5E0,1.16E2,1.45E2,4.56E2,5E0,4E0,1.6E1,1.199E3,1.72E2,1.15E2,1.4E2,5.5E2,2.14E2,3.49E2,4.5E1,1.79E2,1.4E1,1.37E2,5.8E1,1.1E2,1E2,1E0,4E0,6.1E1,5.5E1,1.27E2,1.8E1,2.61E2,1.95E2,1E0,3E0,1.164E3,3.5E1,1.53E2,1.9E1,9.8E1,1.7E1,8.2E1,5.8E1,5.38E2,1.2E1,6.6E1,1.48E2,1.68E2,1.81E2,4.2E1,3E0,5E0,1.74E2,4.1E1,9.6E1,4.6E1,1.2E1,3.6E1,7.4E1,9.6E1,4E0,3E0,1E0,2E0,5.9E1,4.5E1,1E1,1.03E2,2.4E1,9E0,9E0,8.2E1,1.79E2,1.39E2,5.6E1,8.8E2,2.84E2,1E2,5.3E1,8E0,1.1E1,3.9E1,5.9E1,4.1E1,4.1E1,4E1,1.8E1],"tree_param":{"num_deleted":"0","num_feature":"23","num_nodes":"103","size_leaf_vector":"1"}},{"base_weights":[-1.32443765E-2,-7.272294E0,3.9714808E0,-3.7202032E0,-1.9611765E1,7.2938375E0,-5.633304E0,-1.7061067E0,-1.7286621E1,-2.0703413E1,6.2731776E0,5.4885545E0,2.3001213E1,-3.5209143E0,-2.0730185E1,-4.194244E0,5.5781927E0,-1.9580582E1,2.4123764E-1,-2.3326584E1,-1.2605034E1,-3.1497467E0,8.370984E0,9.185716E0,2.7308312E-1,2.4395243E1,3.8100874E0,-6.669123E0,1.7977176E0,-2.173713E1,-6.5484824E0,-2.5539072E0,-3.008335E1,3.940715E-1,1.9396805E1,-1.7520418E1,-3.420715E1,2.6466238E0,-5.0106387E0,-2.7691319E1,-1.8493332E1,-1.7959944E0,-1.9926168E1,1.9232713E-1,8.961718E0,8.783276E0,1.3724929E1,1.7293483E0,-3.6767414E1,2.1412241E1,3.020834E1,1.0073348E0,6.136579E0,-6.36438E0,-2.4553288E1,-8.2451485E-2,3.7640984E0,-6.5719433E0,-1.3045976E0,-4.0675163E-1,-2.6771474E0,-1.6301591E0,1.1914723E0,-9.658476E0,2.851931E0,1.760471E0,-1.0174984E0,6.4153724E0,4.7010037E-1,-4.0122485E0,-7.703761E0,4.990916E-1,-1.2994046E1,9.358253E-1,9.251595E-3,-2.1741429E-1,-1.7168642E0,-8.449417E0,-3.294218E0,-6.133574E0,-3.0721312E0,2.8018563E0,-3.8477588E0,-6.510008E0,3.9971228E0,1.8501824E0,3.4921453E0,2.86875E0,1.3318749E-1,4.540562E0,2.2078283E0,-1.6529559E-1,4.146603E0,-1.7661649E0,-1.3476506E1,4.0768437E0,6.651534E0,4.3641753E0,9.227431E0,9.4689286E-1,-5.792151E-1,3.1227357E0,4.4736937E-1,-2.0884635E0,-1.1153601E0,-3.4083453E-1,-8.70285E0,-5.663679E0,1.2387479E-1,2.073488E0,7.1525836E-1,-5.217808E-1,3.3874255E-1],"categories":[],"categories_nodes":[],"categories_segments":[],"categories_sizes":[],"default_left":[0,0,0,0,0,0,0,0,0,0,0,0,0,0,0,0,0,0,0,0,0,0,0,0,0,0,0,0,0,0,0,0,0,0,0,0,0,0,0,0,0,0,0,0,0,0,0,0,0,0,0,0,0,0,0,0,0,0,0,0,0,0,0,0,0,0,0,0,0,0,0,0,0,0,0,0,0,0,0,0,0,0,0,0,0,0,0,0,0,0,0,0,0,0,0,0,0,0,0,0,0,0,0,0,0,0,0,0,0,0,0,0,0],"id":1,"left_children":[1,3,5,7,9,11,13,15,17,19,21,23,25,27,29,31,33,35,37,39,41,-1,43,45,47,49,51,53,55,57,59,61,63,65,67,69,71,73,75,77,79,81,83,-1,85,87,89,91,93,95,97,99,101,103,105,107,109,-1,-1,111,-1,-1,-1,-1,-1,-1,-1,-1,-1,-1,-1,-1,-1,-1,-1,-1,-1,-1,-1,-1,-1,-1,-1,-1,-1,-1,-1,-1,-1,-1,-1,-1,-1,-1,-1,-1,-1,-1,-1,-1,-1,-1,-1,-1,-1,-1,-1,-1,-1,-1,-1,-1,-1],"loss_changes":[1.19490445E5,6.4095516E4,8.514644E4,3.1065305E4,9.369992E3,5.6075867E4,2.1803895E4,1.800274E4,5.915328E3,6.3764062E3,5.8047974E2,3.4300953E4,5.364664E3,1.0108721E4,1.0571914E3,3.1348643E4,1.8116607E4,3.3179883E3,2.4065149E2,4.4665156E3,6.215832E3,0E0,5.361676E1,1.7811016E3,3.9925824E4,2.6478594E3,9.1627106E1,1.9093145E3,8.3216425E2,1.3442188E2,9.849121E1,1.3120374E4,3.9843125E3,3.8537925E3,2.411957E3,3.5806562E3,4.971828E3,1.5981255E1,1.4168228E1,6.558594E2,1.6431641E3,4.1729546E3,3.061213E3,0E0,1.8037903E1,6.227539E3,6.3371484E2,1.964123E4,6.786086E3,4.6517188E2,8.636328E1,5.660433E1,1.4325711E2,5.6518945E2,5.931533E2,1.0878904E3,4.612827E2,0E0,0E0,8.103697E0,0E0,0E0,0E0,0E0,0E0,0E0,0E0,0E0,0E0,0E0,0E0,0E0,0E0,0E0,0E0,0E0,0E0,0E0,0E0,0E0,0E0,0E0,0E0,0E0,0E0,0E0,0E0,0E0,0E0,0E0,0E0,0E0,0E0,0E0,0E0,0E0,0E0,0E0,0E0,0E0,0E0,0E0,0E0,0E0,0E0,0E0,0E0,0E0,0E0,0E0,0E0,0E0,0E0],"parents":[2147483647,0,0,1,1,2,2,3,3,4,4,5,5,6,6,7,7,8,8,9,9,10,10,11,11,12,12,13,13,14,14,15,15,16,16,17,17,18,18,19,19,20,20,22,22,23,23,24,24,25,25,26,26,27,27,28,28,29,29,30,30,31,31,32,32,33,33,34,34,35,35,36,36,37,37,38,38,39,39,40,40,41,41,42,42,44,44,45,45,46,46,47,47,48,48,49,49,50,50,51,51,52,52,53,53,54,54,55,55,56,56,59,59],"right_children":[2,4,6,8,10,12,14,16,18,20,22,24,26,28,30,32,34,36,38,40,42,-1,44,46,48,50,52,54,56,58,60,62,64,66,68,70,72,74,76,78,80,82,84,-1,86,88,90,92,94,96,98,100,102,104,106,108,110,-1,-1,112,-1,-1,-1,-1,-1,-1,-1,-1,-1,-1,-1,-1,-1,-1,-1,-1,-1,-1,-1,-1,-1,-1,-1,-1,-1,-1,-1,-1,-1,-1,-1,-1,-1,-1,-1,-1,-1,-1,-1,-1,-1,-1,-1,-1,-1,-1,-1,-1,-1,-1,-1,-1,-1],"split_conditions":[7.77E2,1.6318E4,0E0,2.764E3,2.2549E4,2.4834E4,8.93E2,6.3E2,1.7E1,7.19E2,4.78E2,1E0,1.27969E5,7.65E2,2.228E3,3.28E2,2.88E2,6.96E2,1.838E3,0E0,5E0,-3.1497467E0,4.407E4,3.54E3,8.42E2,4E0,8.47E2,4E0,6.03E2,7.3525E4,1E0,0E0,7.54E2,9E0,1.475E3,0E0,3.317E3,3.289E4,6.89E2,3.6E2,5.72E2,0E0,9E0,1.9232713E-1,4E0,8.33E2,1.8266E4,4E0,2E0,2.5715E4,2.5414E4,8.13E2,8.56E2,0E0,0E0,7.88E2,1.672E3,-6.5719433E0,-1.3045976E0,3.689E4,-2.6771474E0,-1.6301591E0,1.1914723E0,-9.658476E0,2.851931E0,1.760471E0,-1.0174984E0,6.4153724E0,4.7010037E-1,-4.0122485E0,-7.703761E0,4.990916E-1,-1.2994046E1,9.358253E-1,9.251595E-3,-2.1741429E-1,-1.7168642E0,-8.449417E0,-3.294218E0,-6.133574E0,-3.0721312E0,2.8018563E0,-3.8477588E0,-6.510008E0,3.9971228E0,1.8501824E0,3.4921453E0,2.86875E0,1.3318749E-1,4.540562E0,2.2078283E0,-1.6529559E-1,4.146603E0,-1.7661649E0,-1.3476506E1,4.0768437E0,6.651534E0,4.3641753E0,9.227431E0,9.4689286E-1,-5.792151E-1,3.1227357E0,4.4736937E-1,-2.0884635E0,-1.1153601E0,-3.4083453E-1,-8.70285E0,-5.663679E0,1.2387479E-1,2.073488E0,7.1525836E-1,-5.217808E-1,3.3874255E-1],"split_indices":[3,0,7,1,2,0,6,0,0,3,3,4,0,7,2,8,8,6,0,16,11,0,0,0,3,4,3,4,0,0,10,18,3,8,2,0,1,1,3,2,3,2,4,0,10,6,0,1,4,0,0,3,6,9,0,3,2,0,0,0,0,0,0,0,0,0,0,0,0,0,0,0,0,0,0,0,0,0,0,0,0,0,0,0,0,0,0,0,0,0,0,0,0,0,0,0,0,0,0,0,0,0,0,0,0,0,0,0,0,0,0,0,0],"split_type":[0,0,0,0,0,0,0,0,0,0,0,0,0,0,0,0,0,0,0,0,0,0,0,0,0,0,0,0,0,0,0,0,0,0,0,0,0,0,0,0,0,0,0,0,0,0,0,0,0,0,0,0,0,0,0,0,0,0,0,0,0,0,0,0,0,0,0,0,0,0,0,0,0,0,0,0,0,0,0,0,0,0,0,0,0,0,0,0,0,0,0,0,0,0,0,0,0,0,0,0,0,0,0,0,0,0,0,0,0,0,0,0,0],"sum_hessian":[4.129E3,1.463E3,2.666E3,1.137E3,3.26E2,1.981E3,6.85E2,9.91E2,1.46E2,3.13E2,1.3E1,1.778E3,2.03E2,6.02E2,8.3E1,7.39E2,2.52E2,1.29E2,1.7E1,2.35E2,7.8E1,1E0,1.2E1,1.04E3,7.38E2,1.89E2,1.4E1,3.78E2,2.24E2,7.7E1,6E0,6.96E2,4.3E1,1.84E2,6.8E1,1.15E2,1.4E1,1.2E1,5E0,1.21E2,1.14E2,3.2E1,4.6E1,1E0,1.1E1,9.58E2,8.2E1,7.11E2,2.7E1,1.28E2,6.1E1,7E0,7E0,3.73E2,5E0,1.15E2,1.09E2,7.6E1,1E0,2E0,4E0,4.83E2,2.13E2,4.1E1,2E0,7.5E1,1.09E2,6.1E1,7E0,7.8E1,3.7E1,3E0,1.1E1,1E1,2E0,1E0,4E0,1.17E2,4E0,9.1E1,2.3E1,1.6E1,1.6E1,4.4E1,2E0,7E0,4E0,8.76E2,8.2E1,6.6E1,1.6E1,5.99E2,1.12E2,6E0,2.1E1,1.3E1,1.15E2,3E0,5.8E1,4E0,3E0,3E0,4E0,3.03E2,7E1,1E0,4E0,2E0,1.13E2,3.2E1,7.7E1,1E0,1E0],"tree_param":{"num_deleted":"0","num_feature":"23","num_nodes":"113","size_leaf_vector":"1"}},{"base_weights":[-2.0391835E-2,-3.9454904E0,3.6634266E0,-1.6692636E0,-1.1519445E1,-3.8423762E0,5.8891983E0,-4.0004544E0,4.781216E0,-1.6188423E1,-6.6565986E0,-2.9996297E0,-7.7042327E0,7.4536552E0,-2.2070975E0,-1.388122E0,-8.979793E0,1.1609559E0,8.521779E0,-1.6674913E1,2.03942E0,2.7283022E-1,-1.1608242E1,-2.6798646E0,-2.7334785E1,6.0882883E0,1.6928679E1,-5.848808E0,8.510927E-1,-3.0732608E0,2.7918394E0,-7.088593E0,-2.4435928E1,2.2187655E-1,3.9874775E0,1.6176094E1,4.827967E0,-1.8785343E1,-1.3957714E1,-2.6772847E0,5.354084E0,-1.304463E1,1.1792309E1,-1.3084043E1,4.363082E0,-5.2478404E0,-1.3955181E0,-9.556952E0,-7.089266E-1,5.642514E0,6.0059495E0,1.2883012E1,6.3185368E0,-3.4211655E0,-1.6728039E1,-7.744773E-1,4.291644E0,-7.6413107E-1,-7.1406627E0,-2.8832069E-2,1.4198787E0,-1.0144833E0,-3.6765141E0,-8.7080196E-2,-7.690787E0,-5.1108437E0,2.2970968E-1,5.6491203E0,4.097551E0,-4.9219844E-1,2.678669E0,-6.693498E0,-4.1937075E0,-3.5318146E0,-4.7288547E0,1.9671692E0,5.895581E-1,2.7041E0,-4.125243E0,4.3631043E0,4.2272913E-1,-4.4571757E0,-1.3045999E0,1.9303666E-1,2.0784109E0,-1.676401E0,-4.2683253E-1,3.925119E-1,-1.1818777E0,1.8230177E0,-3.6852362E0,4.2457275E0,1.0357363E0,-1.1405349E0,-2.3530316E-1,-5.692025E0,-3.1280854E0,2.6789948E-1,-5.703033E-1,3.6588874E0,1.1007893E0],"categories":[],"categories_nodes":[],"categories_segments":[],"categories_sizes":[],"default_left":[0,0,0,0,0,0,0,0,0,0,0,0,0,0,0,0,0,0,0,0,0,0,0,0,0,0,0,0,0,0,0,0,0,0,0,0,0,0,0,0,0,0,0,0,0,0,0,0,0,0,0,0,0,0,0,0,0,0,0,0,0,0,0,0,0,0,0,0,0,0,0,0,0,0,0,0,0,0,0,0,0,0,0,0,0,0,0,0,0,0,0,0,0,0,0,0,0,0,0,0,0],"id":2,"left_children":[1,3,5,7,9,11,13,15,17,19,21,23,-1,25,27,29,31,33,35,37,39,41,43,45,47,49,51,53,55,57,59,61,63,65,-1,67,69,71,73,-1,75,77,79,81,83,85,87,-1,-1,89,-1,91,-1,93,95,97,99,-1,-1,-1,-1,-1,-1,-1,-1,-1,-1,-1,-1,-1,-1,-1,-1,-1,-1,-1,-1,-1,-1,-1,-1,-1,-1,-1,-1,-1,-1,-1,-1,-1,-1,-1,-1,-1,-1,-1,-1,-1,-1,-1,-1],"loss_changes":[5.9731566E4,3.4460855E4,3.5623547E4,2.3161533E4,1.0381727E4,8.904232E3,2.0839863E4,1.469923E4,5.528709E3,2.1179102E3,7.8263174E3,3.59185E3,0E0,1.7723953E4,2.9785686E3,5.242135E3,1.1197504E4,2.3779016E3,5.6048955E3,1.0509883E3,3.0216827E2,1.4881204E4,3.191961E3,1.5296243E3,6.0221094E2,7.3766797E3,2.6214258E3,3.164898E3,8.1988086E2,5.7199194E3,1.2000878E3,6.6234375E3,1.2095234E3,1.8431772E3,0E0,1.7716406E2,3.6489004E3,1.8236328E3,2.2462695E2,0E0,1.1577759E1,8.249165E2,1.4650459E3,1.825127E3,1.100302E2,1.9372607E2,2.1513708E3,0E0,0E0,9.181859E3,0E0,1.0285537E3,0E0,9.838379E1,1.1342871E2,1.8954433E2,1.8646118E2,0E0,0E0,0E0,0E0,0E0,0E0,0E0,0E0,0E0,0E0,0E0,0E0,0E0,0E0,0E0,0E0,0E0,0E0,0E0,0E0,0E0,0E0,0E0,0E0,0E0,0E0,0E0,0E0,0E0,0E0,0E0,0E0,0E0,0E0,0E0,0E0,0E0,0E0,0E0,0E0,0E0,0E0,0E0,0E0],"parents":[2147483647,0,0,1,1,2,2,3,3,4,4,5,5,6,6,7,7,8,8,9,9,10,10,11,11,13,13,14,14,15,15,16,16,17,17,18,18,19,19,20,20,21,21,22,22,23,23,24,24,25,25,26,26,27,27,28,28,29,29,30,30,31,31,32,32,33,33,35,35,36,36,37,37,38,38,40,40,41,41,42,42,43,43,44,44,45,45,46,46,49,49,51,51,53,53,54,54,55,55,56,56],"right_children":[2,4,6,8,10,12,14,16,18,20,22,24,-1,26,28,30,32,34,36,38,40,42,44,46,48,50,52,54,56,58,60,62,64,66,-1,68,70,72,74,-1,76,78,80,82,84,86,88,-1,-1,90,-1,92,-1,94,96,98,100,-1,-1,-1,-1,-1,-1,-1,-1,-1,-1,-1,-1,-1,-1,-1,-1,-1,-1,-1,-1,-1,-1,-1,-1,-1,-1,-1,-1,-1,-1,-1,-1,-1,-1,-1,-1,-1,-1,-1,-1,-1,-1,-1,-1],"split_conditions":[8.11E2,1.7521E4,0E0,6.03E2,7.68E2,4E0,0E0,1.76E2,1.17E2,2.2549E4,0E0,8.68E2,-7.7042327E0,2.5414E4,6.27E2,0E0,1.387E3,2.47E2,2.34E2,0E0,4.9586E4,2.2166E4,2.2549E4,0E0,0E0,7E0,3E0,6.5E1,1.0099E4,1.1E1,8.3E1,2.764E3,1.7E1,2.91E2,3.9874775E0,1E0,2.47E2,6.64E2,1E0,-2.6772847E0,7.24E2,1.8266E4,6.3969E4,0E0,5.4E4,0E0,0E0,-9.556952E0,-7.089266E-1,2E0,6.0059495E0,1.27969E5,6.3185368E0,9.8E1,2.8495E4,2.21E2,8.12E2,-7.6413107E-1,-7.1406627E0,-2.8832069E-2,1.4198787E0,-1.0144833E0,-3.6765141E0,-8.7080196E-2,-7.690787E0,-5.1108437E0,2.2970968E-1,5.6491203E0,4.097551E0,-4.9219844E-1,2.678669E0,-6.693498E0,-4.1937075E0,-3.5318146E0,-4.7288547E0,1.9671692E0,5.895581E-1,2.7041E0,-4.125243E0,4.3631043E0,4.2272913E-1,-4.4571757E0,-1.3045999E0,1.9303666E-1,2.0784109E0,-1.676401E0,-4.2683253E-1,3.925119E-1,-1.1818777E0,1.8230177E0,-3.6852362E0,4.2457275E0,1.0357363E0,-1.1405349E0,-2.3530316E-1,-5.692025E0,-3.1280854E0,2.6789948E-1,-5.703033E-1,3.6588874E0,1.1007893E0],"split_indices":[3,0,0,0,6,4,7,1,1,2,7,6,0,0,7,19,7,8,2,16,0,0,2,10,2,1,4,0,7,4,7,1,0,3,0,8,8,3,14,0,6,0,0,16,0,9,7,0,0,4,0,0,0,1,0,1,3,0,0,0,0,0,0,0,0,0,0,0,0,0,0,0,0,0,0,0,0,0,0,0,0,0,0,0,0,0,0,0,0,0,0,0,0,0,0,0,0,0,0,0,0],"split_type":[0,0,0,0,0,0,0,0,0,0,0,0,0,0,0,0,0,0,0,0,0,0,0,0,0,0,0,0,0,0,0,0,0,0,0,0,0,0,0,0,0,0,0,0,0,0,0,0,0,0,0,0,0,0,0,0,0,0,0,0,0,0,0,0,0,0,0,0,0,0,0,0,0,0,0,0,0,0,0,0,0,0,0,0,0,0,0,0,0,0,0,0,0,0,0,0,0,0,0,0,0],"sum_hessian":[4.129E3,1.999E3,2.13E3,1.538E3,4.61E2,4.87E2,1.643E3,1.13E3,4.08E2,2.34E2,2.27E2,4.7E2,1.7E1,1.377E3,2.66E2,7.42E2,3.88E2,2.08E2,2E2,2.28E2,6E0,9.5E1,1.32E2,4.65E2,5E0,1.205E3,1.72E2,1.21E2,1.45E2,5.29E2,2.13E2,3.47E2,4.1E1,1.94E2,1.4E1,6.4E1,1.36E2,1.25E2,1.03E2,1E0,5E0,4.4E1,5.1E1,1.21E2,1.1E1,1.54E2,3.11E2,4E0,1E0,1.169E3,3.6E1,8.9E1,8.3E1,1E2,2.1E1,9.9E1,4.6E1,5.17E2,1.2E1,8.6E1,1.27E2,2.03E2,1.44E2,2E0,3.9E1,5E0,1.89E2,2.8E1,3.6E1,5.3E1,8.3E1,7E1,5.5E1,5E1,5.3E1,3E0,2E0,1E0,4.3E1,4E1,1.1E1,1E2,2.1E1,5E0,6E0,1.41E2,1.3E1,1.51E2,1.6E2,1.142E3,2.7E1,7.8E1,1.1E1,8.7E1,1.3E1,1.4E1,7E0,4E1,5.9E1,2E0,4.4E1],"tree_param":{"num_deleted":"0","num_feature":"23","num_nodes":"101","size_leaf_vector":"1"}},{"base_weights":[-2.3522442E-2,-3.7187555E0,2.0049157E0,-1.9478214E0,-9.87045E0,3.682613E0,-2.845231E0,-8.545383E-1,-9.312372E0,-1.2503615E1,-6.3082347E0,-1.8104731E0,4.9952188E0,-4.7852964E0,1.1510152E0,-2.1423004E0,3.059335E0,9.800708E-2,-1.0382476E1,-1.5221723E1,-1.0374429E1,-2.9716277E0,-1.0392103E1,-9.2702115E-1,-1.8686762E1,4.00639E0,1.127883E1,-3.3169813E0,-1.0276203E1,2.7770107E0,-1.5610583E-2,-1.3240588E0,-1.5185479E1,4.499588E-2,1.0791118E1,1.2140114E0,-1.1245158E0,-8.61909E0,-2.3562283E1,-1.6492487E1,-8.615577E0,-1.0688842E1,1.2578979E0,8.6373625E0,-4.9765725E0,-1.1254264E1,3.1807587E0,3.5403337E0,-3.3257372E0,-2.3190594E1,-7.652964E0,4.6152577E0,-6.681914E0,8.317029E0,1.4476191E1,-6.9588056E0,-2.8986042E0,-1.1564766E1,-1.0605066E0,2.2082202E0,4.506822E0,-1.0528974E1,4.8120666E-1,-9.144581E-1,4.426116E-1,-4.948251E0,2.4594064E0,1.0592886E0,-7.068423E-1,3.5962262E0,-1.1303858E0,-1.1457685E0,1.4924788E-1,-1.7122709E0,-4.379523E0,-8.409642E0,-1.2786437E0,-5.1450286E0,-3.1266208E0,-3.962164E0,-8.840986E-1,-2.78347E0,-3.718446E0,3.6265535E0,9.514386E-1,-2.0058334E0,1.3469319E0,-3.5884871E0,-2.2107236E0,1.5576813E0,-1.3965037E0,-1.3943278E0,1.5082992E0,-8.004103E0,-7.993981E-1,-2.4752655E0,-6.098156E-1,1.2331097E0,3.5260122E0,-1.3557128E0,-1.08174925E1,3.2101667E0,1.598057E0,2.7245107E-1,4.380092E0,-2.8767483E0,-1.2730637E0,-1.0137281E0,-4.3536863E-1,-3.198949E0,-5.672941E0,2.8054804E-1,-1.735364E0,1.0056962E0,-6.8958335E-2,-2.5059843E-1,-5.983253E0,-1.1558602E-1,1.1586057E0],"categories":[],"categories_nodes":[],"categories_segments":[],"categories_sizes":[],"default_left":[0,0,0,0,0,0,0,0,0,0,0,0,0,0,0,0,0,0,0,0,0,0,0,0,0,0,0,0,0,0,0,0,0,0,0,0,0,0,0,0,0,0,0,0,0,0,0,0,0,0,0,0,0,0,0,0,0,0,0,0,0,0,0,0,0,0,0,0,0,0,0,0,0,0,0,0,0,0,0,0,0,0,0,0,0,0,0,0,0,0,0,0,0,0,0,0,0,0,0,0,0,0,0,0,0,0,0,0,0,0,0,0,0,0,0,0,0,0,0],"id":3,"left_children":[1,3,5,7,9,11,13,15,17,19,21,23,25,27,29,31,33,35,37,39,41,43,45,47,49,51,53,55,57,59,61,63,65,67,69,-1,71,73,75,77,79,81,-1,83,85,87,-1,89,91,93,95,97,99,101,103,105,107,109,111,113,-1,115,117,-1,-1,-1,-1,-1,-1,-1,-1,-1,-1,-1,-1,-1,-1,-1,-1,-1,-1,-1,-1,-1,-1,-1,-1,-1,-1,-1,-1,-1,-1,-1,-1,-1,-1,-1,-1,-1,-1,-1,-1,-1,-1,-1,-1,-1,-1,-1,-1,-1,-1,-1,-1,-1,-1,-1,-1],"loss_changes":[3.0964086E4,1.5929947E4,2.1712062E4,9.154694E3,2.9883535E3,1.4299771E4,5.3240513E3,5.0063706E3,1.4813184E3,9.2432227E2,1.8904224E3,5.692973E3,9.896277E3,3.6907334E3,4.268522E2,7.9522305E3,5.7328438E3,8.178856E1,2.8647383E3,5.294961E2,5.394785E2,1.88174E3,1.2596699E3,3.9230835E3,7.667163E2,9.037578E3,1.9345801E3,5.374873E2,1.1396113E3,6.215603E2,6.945316E2,3.4024204E3,1.4816982E3,1.4982295E3,1.2469434E3,0E0,5.8721054E1,1.9709307E3,1.1745547E3,8.473047E1,3.514994E2,1.4008398E2,0E0,1.8802533E2,1.1304688E3,7.9495605E1,0E0,1.7570592E3,2.6516917E3,8.600996E2,6.7514954E0,4.6729062E3,4.602353E3,7.626221E2,1.6019336E2,2.2356555E2,2.2459424E2,3.612578E2,1.27968376E2,2.5460684E2,0E0,5.30946E2,3.735283E2,0E0,0E0,0E0,0E0,0E0,0E0,0E0,0E0,0E0,0E0,0E0,0E0,0E0,0E0,0E0,0E0,0E0,0E0,0E0,0E0,0E0,0E0,0E0,0E0,0E0,0E0,0E0,0E0,0E0,0E0,0E0,0E0,0E0,0E0,0E0,0E0,0E0,0E0,0E0,0E0,0E0,0E0,0E0,0E0,0E0,0E0,0E0,0E0,0E0,0E0,0E0,0E0,0E0,0E0,0E0,0E0],"parents":[2147483647,0,0,1,1,2,2,3,3,4,4,5,5,6,6,7,7,8,8,9,9,10,10,11,11,12,12,13,13,14,14,15,15,16,16,17,17,18,18,19,19,20,20,21,21,22,22,23,23,24,24,25,25,26,26,27,27,28,28,29,29,30,30,31,31,32,32,33,33,34,34,36,36,37,37,38,38,39,39,40,40,41,41,43,43,44,44,45,45,47,47,48,48,49,49,50,50,51,51,52,52,53,53,54,54,55,55,56,56,57,57,58,58,59,59,61,61,62,62],"right_children":[2,4,6,8,10,12,14,16,18,20,22,24,26,28,30,32,34,36,38,40,42,44,46,48,50,52,54,56,58,60,62,64,66,68,70,-1,72,74,76,78,80,82,-1,84,86,88,-1,90,92,94,96,98,100,102,104,106,108,110,112,114,-1,116,118,-1,-1,-1,-1,-1,-1,-1,-1,-1,-1,-1,-1,-1,-1,-1,-1,-1,-1,-1,-1,-1,-1,-1,-1,-1,-1,-1,-1,-1,-1,-1,-1,-1,-1,-1,-1,-1,-1,-1,-1,-1,-1,-1,-1,-1,-1,-1,-1,-1,-1,-1,-1,-1,-1,-1,-1],"split_conditions":[7.77E2,1.6318E4,0E0,2.764E3,7.21E2,0E0,7.65E2,6.45E2,5.665E3,1E0,5E0,8.53E2,2.2166E4,7.7E1,1.38E2,3.28E2,2.88E2,0E0,6.96E2,0E0,4.5161E4,2.5414E4,9E0,0E0,5E0,4E0,3E0,8.01E2,2.625E3,2.47E2,3.4E2,0E0,7.54E2,9E0,1.556E3,1.2140114E0,3.2E1,7E0,0E0,6.98E2,2.91E2,6E0,1.2578979E0,7.6E2,2.2549E4,4.9586E4,3.1807587E0,2E0,2.764E3,0E0,0E0,7E0,8.22E2,0E0,7.78E2,5.4E1,8.33E2,6E0,2E0,8.13E2,4.506822E0,0E0,2.721E3,-9.144581E-1,4.426116E-1,-4.948251E0,2.4594064E0,1.0592886E0,-7.068423E-1,3.5962262E0,-1.1303858E0,-1.1457685E0,1.4924788E-1,-1.7122709E0,-4.379523E0,-8.409642E0,-1.2786437E0,-5.1450286E0,-3.1266208E0,-3.962164E0,-8.840986E-1,-2.78347E0,-3.718446E0,3.6265535E0,9.514386E-1,-2.0058334E0,1.3469319E0,-3.5884871E0,-2.2107236E0,1.5576813E0,-1.3965037E0,-1.3943278E0,1.5082992E0,-8.004103E0,-7.993981E-1,-2.4752655E0,-6.098156E-1,1.2331097E0,3.5260122E0,-1.3557128E0,-1.08174925E1,3.2101667E0,1.598057E0,2.7245107E-1,4.380092E0,-2.8767483E0,-1.2730637E0,-1.0137281E0,-4.3536863E-1,-3.198949E0,-5.672941E0,2.8054804E-1,-1.735364E0,1.0056962E0,-6.8958335E-2,-2.5059843E-1,-5.983253E0,-1.1558602E-1,1.1586057E0],"split_indices":[3,0,7,1,6,0,7,0,2,8,11,3,0,0,1,8,8,0,6,16,2,0,4,2,4,4,4,6,2,8,2,17,3,8,2,0,14,4,0,3,3,8,0,3,2,0,0,4,1,2,16,1,3,8,6,7,3,10,10,6,0,16,2,0,0,0,0,0,0,0,0,0,0,0,0,0,0,0,0,0,0,0,0,0,0,0,0,0,0,0,0,0,0,0,0,0,0,0,0,0,0,0,0,0,0,0,0,0,0,0,0,0,0,0,0,0,0,0,0],"split_type":[0,0,0,0,0,0,0,0,0,0,0,0,0,0,0,0,0,0,0,0,0,0,0,0,0,0,0,0,0,0,0,0,0,0,0,0,0,0,0,0,0,0,0,0,0,0,0,0,0,0,0,0,0,0,0,0,0,0,0,0,0,0,0,0,0,0,0,0,0,0,0,0,0,0,0,0,0,0,0,0,0,0,0,0,0,0,0,0,0,0,0,0,0,0,0,0,0,0,0,0,0,0,0,0,0,0,0,0,0,0,0,0,0,0,0,0,0,0,0],"sum_hessian":[4.129E3,1.463E3,2.666E3,1.137E3,3.26E2,1.981E3,6.85E2,9.91E2,1.46E2,1.86E2,1.4E2,3.82E2,1.599E3,4.61E2,2.24E2,7.46E2,2.45E2,1.5E1,1.31E2,7.9E1,1.07E2,7.8E1,6.2E1,3.64E2,1.8E1,1.383E3,2.16E2,3.65E2,9.6E1,9.3E1,1.31E2,7.03E2,4.3E1,1.77E2,6.8E1,3E0,1.2E1,1.17E2,1.4E1,6.5E1,1.4E1,1.05E2,2E0,1.1E1,6.7E1,6E1,2E0,1.27E2,2.37E2,1.2E1,6E0,1.309E3,7.4E1,1.14E2,1.02E2,3.6E1,3.29E2,8.4E1,1.2E1,9E1,3E0,5E0,1.26E2,4.35E2,2.68E2,4.1E1,2E0,7.2E1,1.05E2,6.3E1,5E0,4E0,8E0,8E1,3.7E1,1.1E1,3E0,5.7E1,8E0,7E0,7E0,6.1E1,4.4E1,6E0,5E0,5.7E1,1E1,4.9E1,1.1E1,1.06E2,2.1E1,2.05E2,3.2E1,1E1,2E0,5E0,1E0,1.224E3,8.5E1,7E1,4E0,6.2E1,5.2E1,1E0,1.01E2,1.7E1,1.9E1,2.46E2,8.3E1,7.7E1,7E0,9E0,3E0,6.1E1,2.9E1,3E0,2E0,1.01E2,2.5E1],"tree_param":{"num_deleted":"0","num_feature":"23","num_nodes":"119","size_leaf_vector":"1"}},{"base_weights":[-3.0510867E-2,-2.4925745E0,1.4866177E0,-1.3653077E0,-6.3910294E0,1.9006968E0,-8.008524E0,-2.458659E0,2.0518699E0,-8.850723E0,-3.5984917E0,1.3920655E0,8.757477E0,-1.6754992E1,-6.6206613E0,-3.8907523E0,1.0588439E0,2.4811856E-1,5.602779E0,-1.0635859E1,-7.084765E0,-8.06703E0,-1.8330389E0,-1.2278177E0,2.2407446E0,9.798902E0,1.7206564E0,-1.965968E1,-1.3735054E0,-7.387168E0,-7.672681E-1,-3.2114468E0,-1.2100463E1,3.8810031E0,-1.562554E-1,1.581526E0,-6.718355E0,8.175534E0,-6.728347E-1,-1.1460174E1,-6.510673E-1,-9.878169E0,-6.2309175E0,3.69397E0,-9.246447E0,6.20676E0,-4.793492E0,1.1988047E0,-1.8728712E0,2.9216824E0,-4.1219473E-1,9.0175E0,1.3427855E1,-1.1299447E0,2.7932181E0,-6.3911586E0,-4.8267776E-1,9.207904E-1,-7.81948E0,1.272946E0,-2.4064133E0,6.885579E-1,-1.3778431E0,-2.570395E0,-7.1537414E0,-3.0403435E-2,1.7960392E0,6.7764235E-1,-4.411522E-1,-3.9213412E0,6.343365E-1,-2.4418097E0,-1.1015178E0,1.525955E0,3.0206091E0,3.3281395E-1,-8.3666784E-1,-3.8087974E0,-2.3524895E0,-1.8581716E0,3.0768308E-1,-1.8334832E0,-3.5177784E0,-1.2153809E0,-2.3580434E0,-1.2122555E-1,-2.8314679E0,8.421925E-1,3.185934E0,-2.7153652E0,-4.330783E-1,1.4915674E0,-5.547784E-1,-4.6073756E-1,-4.482192E0,7.511315E-1,2.9189923E0,-7.709765E-1,3.1563136E-1,2.2902136E0,3.3364756E0,1.3615476E0,4.493641E0,6.2669206E-1,-6.0437804E-1,1.2081509E0,-2.9210946E-1,-2.1241923E-1,4.5150602E-1,-2.1889658E0,-4.2298503E0,7.568641E-1,-7.465087E-1,3.4062493E-1,-9.5578635E-1],"categories":[],"categories_nodes":[],"categories_segments":[],"categories_sizes":[],"default_left":[0,0,0,0,0,0,0,0,0,0,0,0,0,0,0,0,0,0,0,0,0,0,0,0,0,0,0,0,0,0,0,0,0,0,0,0,0,0,0,0,0,0,0,0,0,0,0,0,0,0,0,0,0,0,0,0,0,0,0,0,0,0,0,0,0,0,0,0,0,0,0,0,0,0,0,0,0,0,0,0,0,0,0,0,0,0,0,0,0,0,0,0,0,0,0,0,0,0,0,0,0,0,0,0,0,0,0,0,0,0,0,0,0,0,0],"id":4,"left_children":[1,3,5,7,9,11,13,15,17,19,21,23,25,27,29,31,33,35,37,39,41,43,45,47,49,51,53,55,-1,57,59,61,63,65,67,69,71,73,75,77,79,81,83,-1,85,87,89,91,93,95,97,99,101,103,105,-1,-1,107,109,111,113,-1,-1,-1,-1,-1,-1,-1,-1,-1,-1,-1,-1,-1,-1,-1,-1,-1,-1,-1,-1,-1,-1,-1,-1,-1,-1,-1,-1,-1,-1,-1,-1,-1,-1,-1,-1,-1,-1,-1,-1,-1,-1,-1,-1,-1,-1,-1,-1,-1,-1,-1,-1,-1,-1],"loss_changes":[1.5430358E4,6.9127686E3,1.0064746E4,4.574386E3,2.392834E3,8.532362E3,1.1879326E3,4.673783E3,1.9008824E3,5.141592E2,1.3026746E3,5.0766416E3,1.221624E3,4.051621E2,4.160786E2,3.6363174E3,9.2306226E2,1.8498766E3,1.6200623E3,7.415254E2,1.698086E2,1.2435845E3,2.9097273E3,8.7724854E2,3.115588E3,2.957588E2,7.3477425E1,2.9218994E2,0E0,3.0530518E2,4.3193726E1,4.650611E3,1.8701997E3,6.7987305E2,6.032078E2,1.331712E3,1.0865173E2,3.6399414E2,1.16232025E2,2.7607812E2,8.070094E1,7.448926E1,2.4159424E2,0E0,7.249634E1,4.6524805E2,1.2563358E3,1.366267E3,1.9240095E3,3.879333E3,1.1180276E3,2.7604883E2,2.6290576E2,2.4141716E1,8.2940506E1,0E0,0E0,5.823776E0,1.565581E2,3.4486164E1,2.29444E1,0E0,0E0,0E0,0E0,0E0,0E0,0E0,0E0,0E0,0E0,0E0,0E0,0E0,0E0,0E0,0E0,0E0,0E0,0E0,0E0,0E0,0E0,0E0,0E0,0E0,0E0,0E0,0E0,0E0,0E0,0E0,0E0,0E0,0E0,0E0,0E0,0E0,0E0,0E0,0E0,0E0,0E0,0E0,0E0,0E0,0E0,0E0,0E0,0E0,0E0,0E0,0E0,0E0,0E0],"parents":[2147483647,0,0,1,1,2,2,3,3,4,4,5,5,6,6,7,7,8,8,9,9,10,10,11,11,12,12,13,13,14,14,15,15,16,16,17,17,18,18,19,19,20,20,21,21,22,22,23,23,24,24,25,25,26,26,27,27,29,29,30,30,31,31,32,32,33,33,34,34,35,35,36,36,37,37,38,38,39,39,40,40,41,41,42,42,44,44,45,45,46,46,47,47,48,48,49,49,50,50,51,51,52,52,53,53,54,54,57,57,58,58,59,59,60,60],"right_children":[2,4,6,8,10,12,14,16,18,20,22,24,26,28,30,32,34,36,38,40,42,44,46,48,50,52,54,56,-1,58,60,62,64,66,68,70,72,74,76,78,80,82,84,-1,86,88,90,92,94,96,98,100,102,104,106,-1,-1,108,110,112,114,-1,-1,-1,-1,-1,-1,-1,-1,-1,-1,-1,-1,-1,-1,-1,-1,-1,-1,-1,-1,-1,-1,-1,-1,-1,-1,-1,-1,-1,-1,-1,-1,-1,-1,-1,-1,-1,-1,-1,-1,-1,-1,-1,-1,-1,-1,-1,-1,-1,-1,-1,-1,-1,-1],"split_conditions":[7.89E2,1.6318E4,8.68E2,6.3E2,7.21E2,2.6054E4,2E0,0E0,2.19E2,0E0,2.2166E4,0E0,9.9298E4,5E0,3.2274E4,1.1E1,8.2E1,1.72E2,1.475E3,3.6E2,3.43E2,1.7521E4,0E0,8.16E2,0E0,2.784E4,8.26E2,0E0,-1.3735054E0,8.77E2,8.07E2,0E0,1.13E2,5.6E1,5E0,2.91E2,6.93E2,2.3E1,3E0,6.93E2,4.9586E4,4.6503E4,1E0,3.69397E0,7.22E2,4E0,1E0,0E0,4E0,7E0,8.71E2,4E0,1E0,7.9E2,8.56E2,-6.3911586E0,-4.8267776E-1,1.74E2,7E0,4E0,0E0,6.885579E-1,-1.3778431E0,-2.570395E0,-7.1537414E0,-3.0403435E-2,1.7960392E0,6.7764235E-1,-4.411522E-1,-3.9213412E0,6.343365E-1,-2.4418097E0,-1.1015178E0,1.525955E0,3.0206091E0,3.3281395E-1,-8.3666784E-1,-3.8087974E0,-2.3524895E0,-1.8581716E0,3.0768308E-1,-1.8334832E0,-3.5177784E0,-1.2153809E0,-2.3580434E0,-1.2122555E-1,-2.8314679E0,8.421925E-1,3.185934E0,-2.7153652E0,-4.330783E-1,1.4915674E0,-5.547784E-1,-4.6073756E-1,-4.482192E0,7.511315E-1,2.9189923E0,-7.709765E-1,3.1563136E-1,2.2902136E0,3.3364756E0,1.3615476E0,4.493641E0,6.2669206E-1,-6.0437804E-1,1.2081509E0,-2.9210946E-1,-2.1241923E-1,4.5150602E-1,-2.1889658E0,-4.2298503E0,7.568641E-1,-7.465087E-1,3.4062493E-1,-9.5578635E-1],"split_indices":[3,0,6,0,6,0,0,19,8,16,0,0,0,4,0,4,2,8,2,2,6,0,2,3,7,0,3,2,0,6,3,1,0,7,8,3,3,14,4,6,0,0,14,0,3,4,8,2,4,1,7,4,4,3,6,0,0,0,10,5,2,0,0,0,0,0,0,0,0,0,0,0,0,0,0,0,0,0,0,0,0,0,0,0,0,0,0,0,0,0,0,0,0,0,0,0,0,0,0,0,0,0,0,0,0,0,0,0,0,0,0,0,0,0,0],"split_type":[0,0,0,0,0,0,0,0,0,0,0,0,0,0,0,0,0,0,0,0,0,0,0,0,0,0,0,0,0,0,0,0,0,0,0,0,0,0,0,0,0,0,0,0,0,0,0,0,0,0,0,0,0,0,0,0,0,0,0,0,0,0,0,0,0,0,0,0,0,0,0,0,0,0,0,0,0,0,0,0,0,0,0,0,0,0,0,0,0,0,0,0,0,0,0,0,0,0,0,0,0,0,0,0,0,0,0,0,0,0,0,0,0,0,0],"sum_hessian":[4.129E3,1.574E3,2.555E3,1.222E3,3.52E2,2.449E3,1.06E2,9.26E2,2.96E2,1.86E2,1.66E2,2.281E3,1.68E2,1.3E1,9.3E1,6.58E2,2.68E2,1.97E2,9.9E1,9E1,9.6E1,4.6E1,1.2E2,5.58E2,1.723E3,1.46E2,2.2E1,1E1,3E0,8.2E1,1.1E1,6.09E2,4.9E1,8E1,1.88E2,1.66E2,3.1E1,7E1,2.9E1,8.3E1,7E0,2E1,7.6E1,2E0,4.4E1,3.2E1,8.8E1,1.17E2,4.41E2,1.371E3,3.52E2,1.23E2,2.3E1,6E0,1.6E1,9E0,1E0,4E0,7.8E1,5E0,6E0,1.22E2,4.87E2,3.9E1,1E1,2.8E1,5.2E1,6.6E1,1.22E2,5E0,1.61E2,2E1,1.1E1,2.8E1,4.2E1,1.6E1,1.3E1,6E1,2.3E1,1E0,6E0,8E0,1.2E1,3.4E1,4.2E1,1E0,4.3E1,1.9E1,1.3E1,3.8E1,5E1,5.2E1,6.5E1,4.31E2,1E1,1.293E3,7.8E1,1.42E2,2.1E2,7.7E1,4.6E1,4E0,1.9E1,1E0,5E0,1.2E1,4E0,1E0,3E0,7.4E1,4E0,4E0,1E0,1E0,5E0],"tree_param":{"num_deleted":"0","num_feature":"23","num_nodes":"115","size_leaf_vector":"1"}},{"base_weights":[-2.8528795E-2,-1.4756728E0,1.3296677E0,-6.4182776E-1,-4.2501574E0,-1.4522299E0,2.154629E0,-1.5180218E0,1.7826642E0,-6.544875E0,-3.1692283E0,-1.1038355E0,-1.0487871E1,1.529144E0,5.106733E0,-2.573286E0,5.825905E-1,2.864396E0,-1.5444428E0,-5.4543476E0,-1.0008853E1,-6.2652364E0,-1.9656565E0,-9.7360015E-1,-1.103481E1,-4.151268E0,-7.098291E0,2.3412075E0,-2.3217604E0,-3.3854392E0,6.037877E0,-7.1879554E-1,-4.9870296E0,1.2880336E0,-1.910192E0,5.962583E0,1.2635472E0,-8.044623E0,-1.3316083E-1,-5.727435E0,1.6444428E0,-3.8963883E0,-3.2785103E0,2.0008488E0,-6.4905725E0,4.815851E0,-4.136914E0,-1.1779689E0,4.4934306E0,-3.8084214E0,-4.1027614E-1,2.846821E-1,-8.9920025E0,2.8252022E0,-7.660298E-1,-1.787834E0,-1.7381927E1,-1.5711105E0,-3.0235543E0,6.3494306E0,-2.3547513E0,1.2778101E0,-6.468297E-1,-9.2408425E-1,-3.0634866E0,7.9202855E-1,1.5594909E-1,-1.1064631E0,1.4442326E0,6.140258E-1,1.948098E0,-3.0938572E-1,1.1050304E0,-2.7398257E0,1.5680374E0,9.4263107E-1,-8.721362E-1,-9.97968E-1,-1.8576484E0,1.0100813E0,-7.8683054E-1,-1.7820337E0,3.8211823E-2,-1.5792764E0,-2.1533823E0,8.94296E-1,2.4696345E0,-1.5296408E0,6.2620187E-1,-3.0690907E-2,-5.605602E-1,8.223353E-1,1.6337816E0,-2.9567213E0,-3.1231785E-1,7.875432E-1,2.4784112E0,-3.8592437E-1,2.0256226E0,-1.6747811E0,-3.0231294E-1,-7.973028E0,-4.628716E-1,1.2141204E0,-1.3899424E0,2.5946085E0,1.6056851E0,-1.1248633E0,6.4488375E-1],"categories":[],"categories_nodes":[],"categories_segments":[],"categories_sizes":[],"default_left":[0,0,0,0,0,0,0,0,0,0,0,0,0,0,0,0,0,0,0,0,0,0,0,0,0,0,0,0,0,0,0,0,0,0,0,0,0,0,0,0,0,0,0,0,0,0,0,0,0,0,0,0,0,0,0,0,0,0,0,0,0,0,0,0,0,0,0,0,0,0,0,0,0,0,0,0,0,0,0,0,0,0,0,0,0,0,0,0,0,0,0,0,0,0,0,0,0,0,0,0,0,0,0,0,0,0,0,0,0],"id":5,"left_children":[1,3,5,7,9,11,13,15,17,19,21,23,25,27,29,31,33,35,37,39,41,43,45,47,49,-1,51,53,55,57,59,61,63,65,67,69,71,73,75,77,79,81,-1,-1,83,85,87,89,91,-1,-1,-1,93,95,97,99,101,103,-1,105,107,-1,-1,-1,-1,-1,-1,-1,-1,-1,-1,-1,-1,-1,-1,-1,-1,-1,-1,-1,-1,-1,-1,-1,-1,-1,-1,-1,-1,-1,-1,-1,-1,-1,-1,-1,-1,-1,-1,-1,-1,-1,-1,-1,-1,-1,-1,-1,-1],"loss_changes":[8.119502E3,4.6242524E3,4.8936836E3,3.272043E3,1.1252158E3,1.5246309E3,3.027831E3,2.5085884E3,1.4764304E3,5.0070947E2,1.1651853E3,5.98431E2,1.0614966E2,4.252145E3,2.2898745E3,3.3670425E3,6.68938E2,1.5250222E3,9.2546106E2,2.3041797E2,1.4851611E2,2.997788E2,3.39181E3,5.259503E2,7.8920166E1,0E0,1.7616333E2,1.6895244E3,1.8746464E3,3.363253E2,6.9217285E2,3.0644248E3,3.2261147E3,3.0607037E2,1.0220534E3,2.0506787E2,1.1422122E3,3.0767346E2,7.7231226E2,1.0213379E2,4.5581947E1,5.0097343E1,0E0,0E0,3.554883E1,3.2648962E2,1.0523872E3,3.3407666E2,1.3446594E1,0E0,0E0,0E0,5.154718E1,1.0343267E3,6.0335657E2,6.7526434E2,1.1240916E3,4.316234E2,0E0,5.2688574E2,7.08866E1,0E0,0E0,0E0,0E0,0E0,0E0,0E0,0E0,0E0,0E0,0E0,0E0,0E0,0E0,0E0,0E0,0E0,0E0,0E0,0E0,0E0,0E0,0E0,0E0,0E0,0E0,0E0,0E0,0E0,0E0,0E0,0E0,0E0,0E0,0E0,0E0,0E0,0E0,0E0,0E0,0E0,0E0,0E0,0E0,0E0,0E0,0E0,0E0],"parents":[2147483647,0,0,1,1,2,2,3,3,4,4,5,5,6,6,7,7,8,8,9,9,10,10,11,11,12,12,13,13,14,14,15,15,16,16,17,17,18,18,19,19,20,20,21,21,22,22,23,23,24,24,26,26,27,27,28,28,29,29,30,30,31,31,32,32,33,33,34,34,35,35,36,36,37,37,38,38,39,39,40,40,41,41,44,44,45,45,46,46,47,47,48,48,52,52,53,53,54,54,55,55,56,56,57,57,59,59,60,60],"right_children":[2,4,6,8,10,12,14,16,18,20,22,24,26,28,30,32,34,36,38,40,42,44,46,48,50,-1,52,54,56,58,60,62,64,66,68,70,72,74,76,78,80,82,-1,-1,84,86,88,90,92,-1,-1,-1,94,96,98,100,102,104,-1,106,108,-1,-1,-1,-1,-1,-1,-1,-1,-1,-1,-1,-1,-1,-1,-1,-1,-1,-1,-1,-1,-1,-1,-1,-1,-1,-1,-1,-1,-1,-1,-1,-1,-1,-1,-1,-1,-1,-1,-1,-1,-1,-1,-1,-1,-1,-1,-1,-1],"split_conditions":[8.11E2,1.7521E4,0E0,6.03E2,6.84E2,4E0,3.54E3,0E0,5E0,5.1E2,2.2166E4,8.68E2,8.57E2,8.3E2,8.17E2,1E0,1.182E3,0E0,0E0,6.11E2,0E0,1E0,0E0,3.21E3,0E0,-4.151268E0,8.64E2,0E0,4E0,4E0,0E0,1E0,5E0,6E0,2.764E3,7E2,2.19E2,8.06E2,2.9E1,4.1547E4,4.99E2,6.36E2,-3.2785103E0,2.0008488E0,7.61E2,4E0,6.58E3,0E0,1.757E3,-3.8084214E0,-4.1027614E-1,2.846821E-1,0E0,7E0,8.9E2,0E0,2E0,0E0,-3.0235543E0,8.28E2,1.72E2,1.2778101E0,-6.468297E-1,-9.2408425E-1,-3.0634866E0,7.9202855E-1,1.5594909E-1,-1.1064631E0,1.4442326E0,6.140258E-1,1.948098E0,-3.0938572E-1,1.1050304E0,-2.7398257E0,1.5680374E0,9.4263107E-1,-8.721362E-1,-9.97968E-1,-1.8576484E0,1.0100813E0,-7.8683054E-1,-1.7820337E0,3.8211823E-2,-1.5792764E0,-2.1533823E0,8.94296E-1,2.4696345E0,-1.5296408E0,6.2620187E-1,-3.0690907E-2,-5.605602E-1,8.223353E-1,1.6337816E0,-2.9567213E0,-3.1231785E-1,7.875432E-1,2.4784112E0,-3.8592437E-1,2.0256226E0,-1.6747811E0,-3.0231294E-1,-7.973028E0,-4.628716E-1,1.2141204E0,-1.3899424E0,2.5946085E0,1.6056851E0,-1.1248633E0,6.4488375E-1],"split_indices":[3,0,0,0,6,4,0,9,11,3,0,6,3,6,3,8,2,7,2,6,11,4,7,1,2,0,3,7,4,4,2,4,5,8,1,3,8,3,7,0,3,6,0,0,3,4,2,2,2,0,0,0,16,1,0,10,0,7,0,3,8,0,0,0,0,0,0,0,0,0,0,0,0,0,0,0,0,0,0,0,0,0,0,0,0,0,0,0,0,0,0,0,0,0,0,0,0,0,0,0,0,0,0,0,0,0,0,0,0],"split_type":[0,0,0,0,0,0,0,0,0,0,0,0,0,0,0,0,0,0,0,0,0,0,0,0,0,0,0,0,0,0,0,0,0,0,0,0,0,0,0,0,0,0,0,0,0,0,0,0,0,0,0,0,0,0,0,0,0,0,0,0,0,0,0,0,0,0,0,0,0,0,0,0,0,0,0,0,0,0,0,0,0,0,0,0,0,0,0,0,0,0,0,0,0,0,0,0,0,0,0,0,0,0,0,0,0,0,0,0,0],"sum_hessian":[4.129E3,1.999E3,2.13E3,1.538E3,4.61E2,4.87E2,1.643E3,1.13E3,4.08E2,1.46E2,3.15E2,4.7E2,1.7E1,1.357E3,2.86E2,7.52E2,3.78E2,3.08E2,1E2,1.13E2,3.3E1,8.7E1,2.28E2,4.65E2,5E0,7E0,1E1,1.121E3,2.36E2,2.8E1,2.58E2,4.26E2,3.26E2,2.95E2,8.3E1,1.04E2,2.04E2,1.7E1,8.3E1,1.09E2,4E0,5E0,2.8E1,1E0,8.6E1,5.5E1,1.73E2,4.49E2,1.6E1,4E0,1E0,2E0,8E0,9.7E2,1.51E2,2.29E2,7E0,2.3E1,5E0,2.49E2,9E0,9.5E1,3.31E2,2.4E2,8.6E1,1.06E2,1.89E2,6.6E1,1.7E1,1.3E1,9.1E1,1.05E2,9.9E1,1.6E1,1E0,3.8E1,4.5E1,1.9E1,9E1,3E0,1E0,3E0,2E0,3.4E1,5.2E1,3.7E1,1.8E1,1.5E2,2.3E1,1.76E2,2.73E2,7E0,9E0,7E0,1E0,9.37E2,3.3E1,1.42E2,9E0,3.8E1,1.91E2,4E0,3E0,8E0,1.5E1,7.3E1,1.76E2,7E0,2E0],"tree_param":{"num_deleted":"0","num_feature":"23","num_nodes":"109","size_leaf_vector":"1"}},{"base_weights":[-2.5107287E-2,1.2988497E0,-8.334081E-1,2.1976295E0,-1.5120722E0,-6.294902E-1,-4.7430334E0,2.5942082E0,2.6251784E-1,-3.1510553E0,-3.3139485E-1,-1.6590974E0,3.148783E-1,-9.67139E0,-3.4402852E0,-1.189241E0,2.8584101E0,-2.1186278E0,2.886436E0,-6.198146E0,-1.3398731E0,-1.7774695E0,6.4964366E-1,-2.280375E0,6.6420555E-1,-8.976539E-1,2.694093E0,-1.0572232E1,2.2774544E-1,-2.944002E0,-8.903615E0,2.5770092E-1,-6.029561E0,2.4493966E0,8.686929E0,-2.8365993E0,6.268599E-1,5.990512E0,6.95928E-1,-4.0820937E0,-1.0120344E1,9.495785E-1,-2.622486E0,-2.0390296E0,6.6726327E-1,2.986259E-1,4.515602E0,-2.8835068E0,1.8888673E0,3.1223164E0,-5.9887683E-1,-4.331233E-1,-3.0972776E0,3.4896634E0,-2.4686978E0,-3.343134E0,-1.1850895E1,-4.104153E0,-1.3822837E0,-2.0537539E1,-1.6027168E0,3.1851044E-1,-1.2589544E0,-2.3594117E0,2.9497877E-1,7.601764E-1,-1.2960284E0,3.9049208E0,1.6317141E0,-2.5629878E0,-3.852869E-1,-1.2241402E0,8.8240343E-1,8.0966467E-1,2.3572605E0,6.284914E-2,1.4630237E0,-8.294843E-1,-1.5782979E0,-3.1491592E0,-4.4401935E-1,8.331938E-1,-9.26893E-1,-2.0871527E0,-6.672576E-1,4.5262698E-2,-7.647062E-1,1.6277966E-1,-8.555961E-1,3.18746E-1,2.1648352E0,-7.723912E-1,-2.0674715E0,-8.347861E-2,1.6874452E0,1.3047261E0,-8.432297E-1,-1.0384005E0,5.379478E-1,-7.937888E-2,-2.280015E0,-1.6749388E0,6.41391E-2,1.3337728E0,3.750324E-1,-1.0618818E0,5.503345E0,-1.2234738E0,-4.4809327E-1,-2.6989954E0,-4.7599196E0,3.3015507E-1,-1.297649E0,1.2127451E0,-4.839577E-1,-7.316643E0,-1.9252499E0,3.9003715E-1,-1.0137504E0],"categories":[],"categories_nodes":[],"categories_segments":[],"categories_sizes":[],"default_left":[0,0,0,0,0,0,0,0,0,0,0,0,0,0,0,0,0,0,0,0,0,0,0,0,0,0,0,0,0,0,0,0,0,0,0,0,0,0,0,0,0,0,0,0,0,0,0,0,0,0,0,0,0,0,0,0,0,0,0,0,0,0,0,0,0,0,0,0,0,0,0,0,0,0,0,0,0,0,0,0,0,0,0,0,0,0,0,0,0,0,0,0,0,0,0,0,0,0,0,0,0,0,0,0,0,0,0,0,0,0,0,0,0,0,0,0,0,0,0],"id":6,"left_children":[1,3,5,7,9,11,13,15,17,19,21,23,25,27,29,31,33,35,37,39,41,43,45,47,49,51,53,55,-1,57,59,61,63,65,67,69,71,73,75,77,79,81,83,85,-1,87,89,91,93,95,97,99,101,103,105,107,109,111,113,115,117,-1,-1,-1,-1,-1,-1,-1,-1,-1,-1,-1,-1,-1,-1,-1,-1,-1,-1,-1,-1,-1,-1,-1,-1,-1,-1,-1,-1,-1,-1,-1,-1,-1,-1,-1,-1,-1,-1,-1,-1,-1,-1,-1,-1,-1,-1,-1,-1,-1,-1,-1,-1,-1,-1,-1,-1,-1,-1],"loss_changes":[4.4208247E3,3.9596648E3,2.0419417E3,9.10251E2,7.342977E2,2.3720317E3,7.8211914E2,9.880005E2,1.2744454E3,8.691902E2,3.1609613E2,1.6859814E3,3.6748633E3,2.5232935E2,2.5034631E2,4.5679187E2,2.174333E3,2.1269461E2,6.553829E2,4.4836304E2,2.9907477E2,9.873645E1,1.791352E2,2.321395E3,7.687546E2,8.610514E2,1.774781E3,1.8222705E2,0E0,1.6645074E2,6.46589E2,1.8709619E2,2.007763E2,5.0417334E2,7.728999E2,7.4200525E2,2.625879E2,2.2461536E2,1.16931694E2,4.7565002E1,4.9585693E1,2.8173795E2,9.674713E1,9.531528E1,0E0,9.60932E1,9.4910034E1,9.788213E2,9.4883057E2,6.236206E2,1.1291316E3,8.41048E2,1.211127E3,7.932456E2,1.3576941E3,7.0646286E-1,8.647998E1,6.696924E1,5.9131554E1,6.625122E0,3.5333866E1,0E0,0E0,0E0,0E0,0E0,0E0,0E0,0E0,0E0,0E0,0E0,0E0,0E0,0E0,0E0,0E0,0E0,0E0,0E0,0E0,0E0,0E0,0E0,0E0,0E0,0E0,0E0,0E0,0E0,0E0,0E0,0E0,0E0,0E0,0E0,0E0,0E0,0E0,0E0,0E0,0E0,0E0,0E0,0E0,0E0,0E0,0E0,0E0,0E0,0E0,0E0,0E0,0E0,0E0,0E0,0E0,0E0,0E0],"parents":[2147483647,0,0,1,1,2,2,3,3,4,4,5,5,6,6,7,7,8,8,9,9,10,10,11,11,12,12,13,13,14,14,15,15,16,16,17,17,18,18,19,19,20,20,21,21,22,22,23,23,24,24,25,25,26,26,27,27,29,29,30,30,31,31,32,32,33,33,34,34,35,35,36,36,37,37,38,38,39,39,40,40,41,41,42,42,43,43,45,45,46,46,47,47,48,48,49,49,50,50,51,51,52,52,53,53,54,54,55,55,56,56,57,57,58,58,59,59,60,60],"right_children":[2,4,6,8,10,12,14,16,18,20,22,24,26,28,30,32,34,36,38,40,42,44,46,48,50,52,54,56,-1,58,60,62,64,66,68,70,72,74,76,78,80,82,84,86,-1,88,90,92,94,96,98,100,102,104,106,108,110,112,114,116,118,-1,-1,-1,-1,-1,-1,-1,-1,-1,-1,-1,-1,-1,-1,-1,-1,-1,-1,-1,-1,-1,-1,-1,-1,-1,-1,-1,-1,-1,-1,-1,-1,-1,-1,-1,-1,-1,-1,-1,-1,-1,-1,-1,-1,-1,-1,-1,-1,-1,-1,-1,-1,-1,-1,-1,-1,-1,-1],"split_conditions":[1E0,0E0,8.54E2,8.31E2,8.21E2,7.8E2,1E0,0E0,2.77E3,1E0,0E0,0E0,5.51E2,6E0,6E0,1.636E3,4E0,0E0,1.373E4,5.42E2,3.9E1,0E0,7.19E2,1.071E4,4.5E1,8.27E2,6E0,0E0,2.2774544E-1,2.8495E4,2E0,7.9E2,9.68E2,2.7019E4,2.8E2,1.13E2,0E0,8.34E2,1E0,6.0282E4,8.2E2,3.24E2,1.5E1,8.25E2,6.6726327E-1,4.9226E4,1.1045E4,4.97E3,2.4E1,5.17E2,9.15E2,1.34E2,0E0,0E0,8.17E2,0E0,0E0,7.35E2,7.07E2,2.5715E4,5E0,3.1851044E-1,-1.2589544E0,-2.3594117E0,2.9497877E-1,7.601764E-1,-1.2960284E0,3.9049208E0,1.6317141E0,-2.5629878E0,-3.852869E-1,-1.2241402E0,8.8240343E-1,8.0966467E-1,2.3572605E0,6.284914E-2,1.4630237E0,-8.294843E-1,-1.5782979E0,-3.1491592E0,-4.4401935E-1,8.331938E-1,-9.26893E-1,-2.0871527E0,-6.672576E-1,4.5262698E-2,-7.647062E-1,1.6277966E-1,-8.555961E-1,3.18746E-1,2.1648352E0,-7.723912E-1,-2.0674715E0,-8.347861E-2,1.6874452E0,1.3047261E0,-8.432297E-1,-1.0384005E0,5.379478E-1,-7.937888E-2,-2.280015E0,-1.6749388E0,6.41391E-2,1.3337728E0,3.750324E-1,-1.0618818E0,5.503345E0,-1.2234738E0,-4.4809327E-1,-2.6989954E0,-4.7599196E0,3.3015507E-1,-1.297649E0,1.2127451E0,-4.839577E-1,-7.316643E0,-1.9252499E0,3.9003715E-1,-1.0137504E0],"split_indices":[4,7,6,6,6,6,8,4,0,1,2,17,0,4,10,2,1,1,0,3,7,0,0,7,13,3,5,10,0,0,4,3,13,0,1,0,10,3,5,0,3,2,1,3,0,1,7,7,14,3,13,0,12,7,3,2,0,0,3,0,8,0,0,0,0,0,0,0,0,0,0,0,0,0,0,0,0,0,0,0,0,0,0,0,0,0,0,0,0,0,0,0,0,0,0,0,0,0,0,0,0,0,0,0,0,0,0,0,0,0,0,0,0,0,0,0,0,0,0],"split_type":[0,0,0,0,0,0,0,0,0,0,0,0,0,0,0,0,0,0,0,0,0,0,0,0,0,0,0,0,0,0,0,0,0,0,0,0,0,0,0,0,0,0,0,0,0,0,0,0,0,0,0,0,0,0,0,0,0,0,0,0,0,0,0,0,0,0,0,0,0,0,0,0,0,0,0,0,0,0,0,0,0,0,0,0,0,0,0,0,0,0,0,0,0,0,0,0,0,0,0,0,0,0,0,0,0,0,0,0,0,0,0,0,0,0,0,0,0,0,0],"sum_hessian":[4.129E3,1.565E3,2.564E3,1.186E3,3.79E2,2.438E3,1.26E2,9.84E2,2.02E2,1.58E2,2.21E2,1.166E3,1.272E3,2.5E1,1.01E2,6.4E1,9.2E2,1.06E2,9.6E1,5.8E1,1E2,8.9E1,1.32E2,9.2E2,2.46E2,8.43E2,4.29E2,2.3E1,2E0,9.4E1,7E0,5E1,1.4E1,8.61E2,5.9E1,8.4E1,2.2E1,3.9E1,5.7E1,3.9E1,1.9E1,3.6E1,6.4E1,8.4E1,5E0,1.22E2,1E1,8.04E2,1.16E2,8.3E1,1.63E2,6.97E2,1.46E2,3.72E2,5.7E1,4E0,1.9E1,5.3E1,4.1E1,2E0,5E0,4.3E1,7E0,1.1E1,3E0,8.51E2,1E1,2.4E1,3.5E1,1.7E1,6.7E1,7E0,1.5E1,1.5E1,2.4E1,5.2E1,5E0,2E1,1.9E1,1.8E1,1E0,2.5E1,1.1E1,4E0,6E1,1.6E1,6.8E1,1.14E2,8E0,5E0,5E0,7.48E2,5.6E1,7.4E1,4.2E1,6.9E1,1.4E1,7.4E1,8.9E1,6.82E2,1.5E1,8.3E1,6.3E1,2.6E2,1.12E2,5.5E1,2E0,2E0,2E0,1.3E1,6E0,2E0,5.1E1,1E0,4E1,1E0,1E0,2E0,3E0],"tree_param":{"num_deleted":"0","num_feature":"23","num_nodes":"119","size_leaf_vector":"1"}},{"base_weights":[-2.2856902E-2,5.741542E-1,-9.6531516E-1,8.440965E-1,-3.1299043E0,-4.8278642E-1,-2.8380556E0,1.0144626E0,-4.9965477E0,-1.6774275E0,-7.317168E0,-8.614162E-1,1.5810807E0,-5.2693744E0,-2.0325117E0,5.7802236E-1,2.2089243E0,-2.1664143E0,-5.336238E0,1.08366E1,-3.6736336E0,-1.9336317E1,-4.1091266E0,-3.7104517E-1,-3.3221564E0,2.931868E-1,3.6011064E0,-3.8362644E0,-4.816271E0,-2.485187E0,1.4716644E0,9.111758E-1,-5.843149E0,-4.1640973E0,2.5096679E0,-1.8409488E0,-1.781168E0,6.268206E0,1.2598447E1,-1.1295321E1,-2.0939982E0,-2.654541E0,-9.070203E0,1.7974508E0,-5.350357E0,-1.2490165E0,7.5458664E-1,-9.355545E0,-1.226201E0,-2.1653888E0,2.0306058E0,4.4024253E0,2.9538674E0,-5.523514E0,-1.9536045E0,-1.4858509E0,-3.5655472E0,-1.0952791E0,3.101201E0,5.352815E-1,-5.4166336E-2,-9.889778E-1,-2.5494852E0,-1.311384E0,2.1447487E-1,1.446888E0,5.710862E-1,-6.2499595E-1,-6.51593E-2,2.1138508E0,2.4006444E-1,9.21551E-1,3.9555736E0,6.373249E-1,-3.899724E0,-8.411512E-1,3.33057E0,-7.848477E-1,4.2418666E0,-1.7520896E0,3.0176508E-1,-4.8023015E-1,6.4218587E-1,-2.7120316E-1,4.0513697E-1,1.3988743E0,-3.2404974E0,-5.352584E-1,2.849774E-1,-1.1810445E0,4.8271218E-1,1.5100702E0,1.5549803E-1,1.066457E0,-1.3349466E0,-1.9118584E0,-8.7011015E-1,-1.7429992E0,2.0341921E-1,-8.295675E-1,-2.1670558E-1,-4.8893353E-1,-1.264418E0,4.435634E-1,-7.7010274E-1,5.5063224E-1,1.807527E0],"categories":[],"categories_nodes":[],"categories_segments":[],"categories_sizes":[],"default_left":[0,0,0,0,0,0,0,0,0,0,0,0,0,0,0,0,0,0,0,0,0,0,0,0,0,0,0,0,0,0,0,0,0,0,0,0,0,0,0,0,0,0,0,0,0,0,0,0,0,0,0,0,0,0,0,0,0,0,0,0,0,0,0,0,0,0,0,0,0,0,0,0,0,0,0,0,0,0,0,0,0,0,0,0,0,0,0,0,0,0,0,0,0,0,0,0,0,0,0,0,0,0,0,0,0,0,0],"id":7,"left_children":[1,3,5,7,9,11,13,15,17,19,21,23,25,27,29,31,33,35,-1,37,39,41,43,45,47,49,51,-1,53,55,57,59,61,63,65,67,-1,69,71,73,75,-1,-1,77,79,81,83,85,87,89,91,-1,93,95,97,99,101,103,105,-1,-1,-1,-1,-1,-1,-1,-1,-1,-1,-1,-1,-1,-1,-1,-1,-1,-1,-1,-1,-1,-1,-1,-1,-1,-1,-1,-1,-1,-1,-1,-1,-1,-1,-1,-1,-1,-1,-1,-1,-1,-1,-1,-1,-1,-1,-1,-1],"loss_changes":[2.3243318E3,2.5313438E3,1.4462788E3,2.351391E3,1.0338132E3,9.977E2,6.3168896E2,1.1935686E3,2.3868643E3,3.2623044E3,1.6170938E3,1.2995636E3,5.1405676E2,2.1433887E2,3.9704846E2,3.5992397E3,1.1853535E3,5.7796906E1,0E0,6.590869E1,1.3247701E3,7.611155E2,2.7354822E2,8.903877E2,2.252111E3,5.255293E2,5.0853436E2,0E0,1.4712817E2,2.3222351E2,1.247016E2,1.5235118E3,5.3318506E2,3.1428833E1,8.123701E2,2.0405655E1,0E0,2.4138824E1,2.6579346E1,4.6203125E2,9.116221E2,0E0,0E0,4.183039E2,9.930017E1,6.067338E2,3.9160248E2,9.8289185E2,1.6440625E2,3.4732666E2,3.2436563E2,0E0,3.450844E2,1.1965015E2,1.7646826E2,1.1131143E2,1.2508032E2,4.9251118E1,5.5558258E1,0E0,0E0,0E0,0E0,0E0,0E0,0E0,0E0,0E0,0E0,0E0,0E0,0E0,0E0,0E0,0E0,0E0,0E0,0E0,0E0,0E0,0E0,0E0,0E0,0E0,0E0,0E0,0E0,0E0,0E0,0E0,0E0,0E0,0E0,0E0,0E0,0E0,0E0,0E0,0E0,0E0,0E0,0E0,0E0,0E0,0E0,0E0,0E0],"parents":[2147483647,0,0,1,1,2,2,3,3,4,4,5,5,6,6,7,7,8,8,9,9,10,10,11,11,12,12,13,13,14,14,15,15,16,16,17,17,19,19,20,20,21,21,22,22,23,23,24,24,25,25,26,26,28,28,29,29,30,30,31,31,32,32,33,33,34,34,35,35,37,37,38,38,39,39,40,40,43,43,44,44,45,45,46,46,47,47,48,48,49,49,50,50,52,52,53,53,54,54,55,55,56,56,57,57,58,58],"right_children":[2,4,6,8,10,12,14,16,18,20,22,24,26,28,30,32,34,36,-1,38,40,42,44,46,48,50,52,-1,54,56,58,60,62,64,66,68,-1,70,72,74,76,-1,-1,78,80,82,84,86,88,90,92,-1,94,96,98,100,102,104,106,-1,-1,-1,-1,-1,-1,-1,-1,-1,-1,-1,-1,-1,-1,-1,-1,-1,-1,-1,-1,-1,-1,-1,-1,-1,-1,-1,-1,-1,-1,-1,-1,-1,-1,-1,-1,-1,-1,-1,-1,-1,-1,-1,-1,-1,-1,-1,-1],"split_conditions":[0E0,7E0,4.556E3,9.328E3,0E0,9.368E3,1E0,2.75E2,6.96E2,2E0,1E0,2.21E2,2.47E2,9.143E3,6.58E3,8.32E2,4.68E2,6.65E2,-5.336238E0,0E0,6.77E2,1E0,4.49E2,8.3E1,3.4E2,7.73E2,6.3E2,-3.8362644E0,0E0,1.5E1,4.9586E4,1E0,0E0,1E0,8.18E2,0E0,-1.781168E0,7.79E2,6.35E2,2.6E1,9E0,-2.654541E0,-9.070203E0,2E0,1.7E1,3.5E1,2E0,1.42E2,2.427E3,4E0,2.088E3,4.4024253E0,3.8436E4,7.86E2,2.43E2,6.05E2,2.5414E4,1E0,4E0,5.352815E-1,-5.4166336E-2,-9.889778E-1,-2.5494852E0,-1.311384E0,2.1447487E-1,1.446888E0,5.710862E-1,-6.2499595E-1,-6.51593E-2,2.1138508E0,2.4006444E-1,9.21551E-1,3.9555736E0,6.373249E-1,-3.899724E0,-8.411512E-1,3.33057E0,-7.848477E-1,4.2418666E0,-1.7520896E0,3.0176508E-1,-4.8023015E-1,6.4218587E-1,-2.7120316E-1,4.0513697E-1,1.3988743E0,-3.2404974E0,-5.352584E-1,2.849774E-1,-1.1810445E0,4.8271218E-1,1.5100702E0,1.5549803E-1,1.066457E0,-1.3349466E0,-1.9118584E0,-8.7011015E-1,-1.7429992E0,2.0341921E-1,-8.295675E-1,-2.1670558E-1,-4.8893353E-1,-1.264418E0,4.435634E-1,-7.7010274E-1,5.5063224E-1,1.807527E0],"split_indices":[7,4,0,1,1,7,8,0,6,0,0,1,8,0,2,6,6,6,0,10,3,1,3,7,2,6,0,0,16,8,0,11,0,10,0,8,0,3,3,0,4,0,0,10,4,0,4,7,2,4,2,0,7,6,3,6,0,10,10,0,0,0,0,0,0,0,0,0,0,0,0,0,0,0,0,0,0,0,0,0,0,0,0,0,0,0,0,0,0,0,0,0,0,0,0,0,0,0,0,0,0,0,0,0,0,0,0],"split_type":[0,0,0,0,0,0,0,0,0,0,0,0,0,0,0,0,0,0,0,0,0,0,0,0,0,0,0,0,0,0,0,0,0,0,0,0,0,0,0,0,0,0,0,0,0,0,0,0,0,0,0,0,0,0,0,0,0,0,0,0,0,0,0,0,0,0,0,0,0,0,0,0,0,0,0,0,0,0,0,0,0,0,0,0,0,0,0,0,0,0,0,0,0,0,0,0,0,0,0,0,0,0,0,0,0,0,0],"sum_hessian":[4.129E3,2.528E3,1.601E3,2.357E3,1.71E2,1.274E3,3.27E2,2.291E3,6.6E1,1.28E2,4.3E1,1.077E3,1.97E2,8E1,2.47E2,1.679E3,6.12E2,5.5E1,1.1E1,1.7E1,1.11E2,8E0,3.5E1,8.99E2,1.78E2,1.21E2,7.6E1,3E0,7.7E1,2.19E2,2.8E1,1.597E3,8.2E1,2.7E1,5.85E2,5.2E1,3E0,6E0,1.1E1,1.8E1,9.3E1,5E0,3E0,6E0,2.9E1,5.05E2,3.94E2,4.5E1,1.33E2,5E1,7.1E1,3E0,7.3E1,6.1E1,1.6E1,1.15E2,1.04E2,1.1E1,1.7E1,8.87E2,7.1E2,4.3E1,3.9E1,2.6E1,1E0,1.2E2,4.65E2,4.5E1,7E0,5E0,1E0,1E0,1E1,2E0,1.6E1,8.9E1,4E0,5E0,1E0,2.7E1,2E0,4.58E2,4.7E1,1.04E2,2.9E2,4E0,4.1E1,1.06E2,2.7E1,3.4E1,1.6E1,2.3E1,4.8E1,6.8E1,5E0,4.5E1,1.6E1,6E0,1E1,4.2E1,7.3E1,2.7E1,7.7E1,4E0,7E0,1.3E1,4E0],"tree_param":{"num_deleted":"0","num_feature":"23","num_nodes":"107","size_leaf_vector":"1"}},{"base_weights":[-2.0557692E-2,-5.447478E-1,5.578234E-1,-2.0786627E-1,-1.7157474E0,2.4781565E-1,2.570745E0,4.7323104E-2,-2.2147095E0,-3.1696067E0,-1.3525436E0,3.4742066E-1,-5.318404E0,2.4590192E0,4.7596693E0,1.2785119E0,-2.5897205E-1,-1.3106141E0,-1.0781033E1,1.501032E0,-3.3083067E0,-1.5258142E0,8.321053E0,6.5028465E-1,-7.87802E-1,3.1468797E0,-6.7417893E0,5.2838297E0,2.0553107E0,2.4197924E0,-1.111356E0,-8.9149487E-1,2.9761773E-1,-3.3046618E-1,-2.819218E0,-3.771139E0,-3.6144245E0,-3.4089553E0,9.229014E-1,-2.721035E0,-8.102856E-1,2.8088236E-1,2.818741E0,-2.4548655E0,7.4160403E-1,-4.5673676E0,-4.481244E-1,-2.7992308E-1,1.3200414E0,-9.9397335E0,-4.121841E0,3.2263744E0,7.4005203E0,2.8593671E0,4.5177332E-1,9.7702813E-1,-1.7150447E-2,-1.80536E0,-1.2414121E-1,2.8396106E-1,-5.785033E-1,-7.454323E-1,2.189353E-1,-2.508852E-1,1.5642138E0,-1.0538675E0,-4.0213436E-2,-3.21064E-1,-1.4861482E0,-7.714933E-1,-1.172207E0,-6.3454306E-1,-1.7370735E0,4.5010737E-1,-4.504821E-1,-2.8818705E0,-5.372183E-1,3.284633E-2,3.0296603E-1,-7.6392865E-1,-3.1665347E0,-2.6670033E-1,5.4937845E-1,-3.3245606E0,-9.6002567E-1,-1.9903162E0,1.6903577E-2,3.1198567E-1,2.2277682E0,2.3896651E0,7.455648E-1,1.7913535E0,7.4335724E-1,-6.6750014E-1,3.7027046E-1],"categories":[],"categories_nodes":[],"categories_segments":[],"categories_sizes":[],"default_left":[0,0,0,0,0,0,0,0,0,0,0,0,0,0,0,0,0,0,0,0,0,0,0,0,0,0,0,0,0,0,0,0,0,0,0,0,0,0,0,0,0,0,0,0,0,0,0,0,0,0,0,0,0,0,0,0,0,0,0,0,0,0,0,0,0,0,0,0,0,0,0,0,0,0,0,0,0,0,0,0,0,0,0,0,0,0,0,0,0,0,0,0,0,0,0],"id":8,"left_children":[1,3,5,7,9,11,13,15,17,19,21,23,25,27,-1,29,31,33,35,-1,37,39,41,43,45,47,49,51,53,55,57,59,61,63,65,-1,67,69,-1,71,73,-1,-1,75,77,79,81,-1,-1,83,85,87,89,91,93,-1,-1,-1,-1,-1,-1,-1,-1,-1,-1,-1,-1,-1,-1,-1,-1,-1,-1,-1,-1,-1,-1,-1,-1,-1,-1,-1,-1,-1,-1,-1,-1,-1,-1,-1,-1,-1,-1,-1,-1],"loss_changes":[1.2524442E3,8.5449927E2,1.2249408E3,8.625234E2,2.5128772E2,9.460307E2,3.5015356E2,5.641063E2,1.4573777E3,1.2537854E2,6.647185E2,5.760637E2,3.8269647E2,2.8678442E2,0E0,8.154872E2,4.2202808E2,2.5487567E2,1.8539941E2,0E0,7.153467E1,3.2534247E2,4.676053E1,3.7668744E2,4.5114655E2,2.9671864E1,1.7686963E2,1.1548303E2,2.9525513E2,4.1895984E2,3.2949677E2,1.0709576E3,7.689807E2,3.016387E2,1.2618823E2,0E0,1.1736969E1,2.9179565E1,0E0,2.5367676E2,3.8722562E2,0E0,0E0,1.632787E2,2.1780725E2,3.2404742E2,3.282296E2,0E0,0E0,4.921057E1,1.6834E2,1.5755202E2,2.1863281E1,1.6684375E2,1.6611502E2,0E0,0E0,0E0,0E0,0E0,0E0,0E0,0E0,0E0,0E0,0E0,0E0,0E0,0E0,0E0,0E0,0E0,0E0,0E0,0E0,0E0,0E0,0E0,0E0,0E0,0E0,0E0,0E0,0E0,0E0,0E0,0E0,0E0,0E0,0E0,0E0,0E0,0E0,0E0,0E0],"parents":[2147483647,0,0,1,1,2,2,3,3,4,4,5,5,6,6,7,7,8,8,9,9,10,10,11,11,12,12,13,13,15,15,16,16,17,17,18,18,20,20,21,21,22,22,23,23,24,24,25,25,26,26,27,27,28,28,29,29,30,30,31,31,32,32,33,33,34,34,36,36,37,37,39,39,40,40,43,43,44,44,45,45,46,46,49,49,50,50,51,51,52,52,53,53,54,54],"right_children":[2,4,6,8,10,12,14,16,18,20,22,24,26,28,-1,30,32,34,36,-1,38,40,42,44,46,48,50,52,54,56,58,60,62,64,66,-1,68,70,-1,72,74,-1,-1,76,78,80,82,-1,-1,84,86,88,90,92,94,-1,-1,-1,-1,-1,-1,-1,-1,-1,-1,-1,-1,-1,-1,-1,-1,-1,-1,-1,-1,-1,-1,-1,-1,-1,-1,-1,-1,-1,-1,-1,-1,-1,-1,-1,-1,-1,-1,-1,-1],"split_conditions":[8.16E2,1.7521E4,3.54E3,5.665E3,2.2166E4,4E0,7E0,1E0,6.96E2,1E0,8E0,8.3E2,8.22E2,1.125E4,4.7596693E0,0E0,1.1E1,1E0,1.575E3,1.501032E0,9E0,6.84E2,4.6503E4,0E0,8.3E2,4.08E2,5E0,4.987E3,8.37E2,8.12E2,1E0,6.69E2,6.15E2,7.5114E4,1.1E1,-3.771139E0,1.06E2,1.9819E4,9.229014E-1,4E0,0E0,2.8088236E-1,2.818741E0,8.2E2,0E0,8.29E2,9.9E1,-2.7992308E-1,1.3200414E0,2E0,8.57E2,8.43E2,2E0,1.9114E4,8.36E2,9.7702813E-1,-1.7150447E-2,-1.80536E0,-1.2414121E-1,2.8396106E-1,-5.785033E-1,-7.454323E-1,2.189353E-1,-2.508852E-1,1.5642138E0,-1.0538675E0,-4.0213436E-2,-3.21064E-1,-1.4861482E0,-7.714933E-1,-1.172207E0,-6.3454306E-1,-1.7370735E0,4.5010737E-1,-4.504821E-1,-2.8818705E0,-5.372183E-1,3.284633E-2,3.0296603E-1,-7.6392865E-1,-3.1665347E0,-2.6670033E-1,5.4937845E-1,-3.3245606E0,-9.6002567E-1,-1.9903162E0,1.6903577E-2,3.1198567E-1,2.2277682E0,2.3896651E0,7.455648E-1,1.7913535E0,7.4335724E-1,-6.6750014E-1,3.7027046E-1],"split_indices":[3,0,0,2,0,4,4,4,6,4,4,6,3,0,0,7,0,8,0,0,7,6,0,5,3,0,4,0,6,3,1,3,3,2,0,0,10,0,0,4,7,0,0,3,10,3,1,0,0,0,3,3,10,0,3,0,0,0,0,0,0,0,0,0,0,0,0,0,0,0,0,0,0,0,0,0,0,0,0,0,0,0,0,0,0,0,0,0,0,0,0,0,0,0,0],"split_type":[0,0,0,0,0,0,0,0,0,0,0,0,0,0,0,0,0,0,0,0,0,0,0,0,0,0,0,0,0,0,0,0,0,0,0,0,0,0,0,0,0,0,0,0,0,0,0,0,0,0,0,0,0,0,0,0,0,0,0,0,0,0,0,0,0,0,0,0,0,0,0,0,0,0,0,0,0,0,0,0,0,0,0,0,0,0,0,0,0,0,0,0,0,0,0],"sum_hessian":[4.129E3,2.166E3,1.963E3,1.683E3,4.83E2,1.702E3,2.61E2,1.494E3,1.89E2,9.5E1,3.88E2,1.673E3,2.9E1,2.6E2,1E0,2.97E2,1.197E3,1.72E2,1.7E1,1E0,9.4E1,3.82E2,6E0,1.321E3,3.52E2,4E0,2.5E1,3.1E1,2.29E2,2.01E2,9.6E1,5.6E2,6.37E2,1.05E2,6.7E1,1.3E1,4E0,9.3E1,1E0,1.42E2,2.4E2,1E0,5E0,3.7E1,1.284E3,2.8E1,3.24E2,1E0,3E0,1E1,1.5E1,1.7E1,1.4E1,1.52E2,7.7E1,1.5E2,5.1E1,1.1E1,8.5E1,2.02E2,3.58E2,8.5E1,5.52E2,9.7E1,8E0,5.3E1,1.4E1,2E0,2E0,3.7E1,5.6E1,1.2E2,2.2E1,5.5E1,1.85E2,2E0,3.5E1,3.83E2,9.01E2,2.2E1,6E0,2.72E2,5.2E1,8E0,2E0,9E0,6E0,1.2E1,5E0,1.2E1,2E0,1.5E1,1.37E2,1.7E1,6E1],"tree_param":{"num_deleted":"0","num_feature":"23","num_nodes":"95","size_leaf_vector":"1"}},{"base_weights":[-1.565399E-2,3.2069668E-1,-5.466248E-1,4.649461E-1,-1.7898172E0,-7.464048E-1,8.902992E-1,2.2840545E-1,2.3818662E0,-1.022113E0,-8.731237E0,-1.1347944E0,3.4921348E-1,2.8849218E-2,2.6260085E0,3.4434056E-1,-1.0301377E1,8.503544E0,1.66534E0,-1.2835293E-1,-2.862819E0,-2.7035494E0,-6.7834854E-1,-1.1676285E0,1.0593149E1,1.2896901E0,-8.472765E-1,-2.8414977E0,7.5970316E-1,4.237246E0,-5.0047994E-1,-4.4546366E0,4.2836535E-1,-8.7536645E-1,-2.050472E1,6.553595E0,1.1675264E1,1.3756233E0,2.4052289E0,-5.9710426E0,2.4201015E-1,-5.5936766E0,-1.3225876E0,-1.8324579E0,-5.8243895E-1,9.4006306E-1,3.826854E0,1.9313953E0,-2.2799916E0,-3.2389894E0,3.3453956E-1,-4.3207693E0,5.97131E-1,1.1549181E0,-4.2260447E0,3.3626192E0,3.4341667E0,2.173787E0,-1.8063334E0,-3.306549E0,-6.5539765E-1,1.5559515E-1,-9.591073E-1,1.5778582E0,-1.6101348E0,2.9974854E-1,-9.880617E0,2.1461968E0,2.9004824E-1,3.7677915E0,6.9044167E-1,-3.388341E-1,5.576267E-1,-5.31092E-1,-1.9371387E0,-1.8611355E-1,1.052096E0,-2.0081053E0,-1.0356932E-1,6.9237494E-1,-6.7474866E-1,-7.400653E-1,-8.014263E-2,-3.1517398E-1,1.2789285E-1,3.365302E-1,1.396826E0,-8.2445323E-1,2.3935382E-1,2.1928222E-1,-2.0059645E0,4.1018495E-1,-4.5208314E-1,3.3696002E-1,-1.5081922E0,6.4891607E-1,-5.7031065E-1,1.18339844E-1,1.139571E0,-3.6735612E-1,-1.50674E0,-3.614689E-2,1.435992E0,1.7581882E0,-9.579229E-3,-2.020266E0,1.1924414E-1],"categories":[],"categories_nodes":[],"categories_segments":[],"categories_sizes":[],"default_left":[0,0,0,0,0,0,0,0,0,0,0,0,0,0,0,0,0,0,0,0,0,0,0,0,0,0,0,0,0,0,0,0,0,0,0,0,0,0,0,0,0,0,0,0,0,0,0,0,0,0,0,0,0,0,0,0,0,0,0,0,0,0,0,0,0,0,0,0,0,0,0,0,0,0,0,0,0,0,0,0,0,0,0,0,0,0,0,0,0,0,0,0,0,0,0,0,0,0,0,0,0,0,0,0,0,0,0],"id":9,"left_children":[1,3,5,7,9,11,13,15,17,19,21,23,25,27,29,31,33,35,37,39,41,-1,-1,43,45,47,49,51,53,55,57,59,61,63,65,67,69,71,-1,73,75,77,79,81,83,-1,-1,85,87,89,91,93,95,97,99,-1,101,103,105,-1,-1,-1,-1,-1,-1,-1,-1,-1,-1,-1,-1,-1,-1,-1,-1,-1,-1,-1,-1,-1,-1,-1,-1,-1,-1,-1,-1,-1,-1,-1,-1,-1,-1,-1,-1,-1,-1,-1,-1,-1,-1,-1,-1,-1,-1,-1,-1],"loss_changes":[7.377619E2,7.707617E2,4.6054858E2,1.0731771E3,8.543669E2,5.991124E2,2.929887E2,2.578155E3,1.1262881E3,2.4146953E2,8.670288E0,4.1246423E2,4.163177E2,2.7906885E2,3.2955917E2,8.434554E2,2.1941174E3,9.047156E1,4.1960248E2,2.178367E2,1.944972E2,0E0,0E0,4.0237878E2,8.434021E0,4.7857507E2,4.618136E2,1.3992001E2,2.137476E2,2.0224957E2,8.42472E1,5.125869E2,6.733162E2,3.8646176E2,2.973292E3,5.6814392E1,4.567639E1,2.744124E2,0E0,8.2040405E-1,2.696651E2,9.5835815E1,1.12836716E2,4.8098352E2,2.615946E2,0E0,0E0,3.8303058E2,4.830458E1,7.43962E2,2.1125621E2,7.872769E1,3.9319454E1,1.9752826E2,1.2973724E1,0E0,1.928797E2,6.5244156E1,1.7643906E2,0E0,0E0,0E0,0E0,0E0,0E0,0E0,0E0,0E0,0E0,0E0,0E0,0E0,0E0,0E0,0E0,0E0,0E0,0E0,0E0,0E0,0E0,0E0,0E0,0E0,0E0,0E0,0E0,0E0,0E0,0E0,0E0,0E0,0E0,0E0,0E0,0E0,0E0,0E0,0E0,0E0,0E0,0E0,0E0,0E0,0E0,0E0,0E0],"parents":[2147483647,0,0,1,1,2,2,3,3,4,4,5,5,6,6,7,7,8,8,9,9,10,10,11,11,12,12,13,13,14,14,15,15,16,16,17,17,18,18,19,19,20,20,23,23,24,24,25,25,26,26,27,27,28,28,29,29,30,30,31,31,32,32,33,33,34,34,35,35,36,36,37,37,39,39,40,40,41,41,42,42,43,43,44,44,47,47,48,48,49,49,50,50,51,51,52,52,53,53,54,54,56,56,57,57,58,58],"right_children":[2,4,6,8,10,12,14,16,18,20,22,24,26,28,30,32,34,36,38,40,42,-1,-1,44,46,48,50,52,54,56,58,60,62,64,66,68,70,72,-1,74,76,78,80,82,84,-1,-1,86,88,90,92,94,96,98,100,-1,102,104,106,-1,-1,-1,-1,-1,-1,-1,-1,-1,-1,-1,-1,-1,-1,-1,-1,-1,-1,-1,-1,-1,-1,-1,-1,-1,-1,-1,-1,-1,-1,-1,-1,-1,-1,-1,-1,-1,-1,-1,-1,-1,-1,-1,-1,-1,-1,-1,-1],"split_conditions":[0E0,3.193E3,1.0099E4,4E0,6.65E2,0E0,3.28E2,2E0,2.65E2,2E0,4E0,9E1,1.3E1,6.93E2,3.54E3,5.36E2,3E0,1E0,5E0,1.29E3,9E0,-2.7035494E0,-6.7834854E-1,7.89E2,2.75E2,1.1E2,8.3E1,1.38E2,5E0,6.3E2,3E0,1.74E2,3E0,7.64E2,2E0,1E0,5.82E2,0E0,2.4052289E0,5.2141E4,0E0,7.27E2,4.49E2,3.22E2,4.02E2,9.4006306E-1,3.826854E0,5E1,8E0,5.6E1,6.39E2,6.64E2,6.85E2,4E0,1.364E3,3.3626192E0,1.17E2,1.58E3,4E0,-3.306549E0,-6.5539765E-1,1.5559515E-1,-9.591073E-1,1.5778582E0,-1.6101348E0,2.9974854E-1,-9.880617E0,2.1461968E0,2.9004824E-1,3.7677915E0,6.9044167E-1,-3.388341E-1,5.576267E-1,-5.31092E-1,-1.9371387E0,-1.8611355E-1,1.052096E0,-2.0081053E0,-1.0356932E-1,6.9237494E-1,-6.7474866E-1,-7.400653E-1,-8.014263E-2,-3.1517398E-1,1.2789285E-1,3.365302E-1,1.396826E0,-8.2445323E-1,2.3935382E-1,2.1928222E-1,-2.0059645E0,4.1018495E-1,-4.5208314E-1,3.3696002E-1,-1.5081922E0,6.4891607E-1,-5.7031065E-1,1.18339844E-1,1.139571E0,-3.6735612E-1,-1.50674E0,-3.614689E-2,1.435992E0,1.7581882E0,-9.579229E-3,-2.020266E0,1.1924414E-1],"split_indices":[7,2,7,1,6,9,8,1,1,8,4,16,8,6,0,6,14,8,5,1,0,0,0,6,0,7,7,1,4,0,5,0,8,3,4,0,0,4,0,2,17,13,3,2,7,0,0,1,4,1,3,0,3,5,0,0,1,1,4,0,0,0,0,0,0,0,0,0,0,0,0,0,0,0,0,0,0,0,0,0,0,0,0,0,0,0,0,0,0,0,0,0,0,0,0,0,0,0,0,0,0,0,0,0,0,0,0],"split_type":[0,0,0,0,0,0,0,0,0,0,0,0,0,0,0,0,0,0,0,0,0,0,0,0,0,0,0,0,0,0,0,0,0,0,0,0,0,0,0,0,0,0,0,0,0,0,0,0,0,0,0,0,0,0,0,0,0,0,0,0,0,0,0,0,0,0,0,0,0,0,0,0,0,0,0,0,0,0,0,0,0,0,0,0,0,0,0,0,0,0,0,0,0,0,0,0,0,0,0,0,0,0,0,0,0,0,0],"sum_hessian":[4.129E3,2.528E3,1.601E3,2.367E3,1.61E2,1.406E3,1.95E2,2.108E3,2.59E2,1.46E2,1.5E1,1.038E3,3.68E2,1.31E2,6.4E1,2.086E3,2.2E1,2.6E1,2.33E2,9.9E1,4.7E1,1.4E1,1E0,1.036E3,2E0,2.06E2,1.62E2,2.6E1,1.05E2,4.2E1,2.2E1,3.5E1,2.051E3,1.2E1,1E1,1.8E1,8E0,2.24E2,9E0,5E0,9.4E1,1.6E1,3.1E1,4.84E2,5.52E2,1E0,1E0,1.75E2,3.1E1,5.3E1,1.09E2,1.8E1,8E0,9.8E1,7E0,3E0,3.9E1,7E0,1.5E1,8E0,2.7E1,2.002E3,4.9E1,5E0,7E0,4E0,6E0,1.6E1,2E0,7E0,1E0,3.6E1,1.88E2,1E0,4E0,7.5E1,1.9E1,1.3E1,3E0,6E0,2.5E1,3.44E2,1.4E2,3.77E2,1.75E2,1.36E2,3.9E1,2.7E1,4E0,2.5E1,2.8E1,7E1,3.9E1,2E0,1.6E1,5E0,3E0,7.7E1,2.1E1,2E0,5E0,1.1E1,2.8E1,2E0,5E0,4E0,1.1E1],"tree_param":{"num_deleted":"0","num_feature":"23","num_nodes":"107","size_leaf_vector":"1"}},{"base_weights":[-1.2400352E-2,4.4058645E-1,-2.725523E-1,1.1084589E0,-3.6738354E-3,4.46234E-1,-5.0464374E-1,-1.9765217E0,1.2737141E0,-1.7845014E0,2.9428145E-1,7.000951E-1,-1.7458246E1,-1.1951914E0,-9.29071E-2,-4.304129E0,-2.7992082E-1,1.4046113E0,-1.2256588E0,-4.932873E0,1.2495323E0,5.687212E-1,-1.1838067E0,2.3990579E0,-1.762935E-2,4.713266E0,-7.3398867E0,-1.570472E0,1.0189118E0,-1.77321E-1,2.9164503E0,-5.0060964E0,-1.4731784E0,-1.1908748E0,2.5089252E0,4.7641177E0,1.233606E0,-2.8011103E0,-2.790001E-1,-1.6955576E0,-1.1970188E1,3.0606217E0,9.863097E-2,-4.6587062E-1,1.0202521E0,-3.8892062E0,-6.781681E-1,3.7061942E0,1.4265421E-1,4.964504E-1,-6.68405E0,1.7581772E0,3.627926E-1,-3.1026115E0,-1.0203913E0,7.035566E-1,3.7358124E0,2.1605603E-1,-9.1331756E-1,2.1556158E0,4.3113203E0,-3.8745692E-1,-1.7319899E0,-5.101386E-1,-1.1869927E-1,-6.4339876E-1,6.166457E-2,3.1883383E-1,1.2440263E0,1.5303352E0,-5.4913104E-1,-1.3234072E0,3.8249242E-1,3.0028948E-1,-4.1091093E-1,-1.0906773E0,-4.1403204E-2,-4.71521E0,-1.8216419E-1,-1.06169134E-1,1.9507092E0,-6.10724E-1,5.352711E-1,-6.9918424E-1,2.3901407E-1,-1.7659566E-1,3.8228378E-1,-2.3923578E0,-4.170747E-1,4.978395E-1,-4.5582277E-1,8.9464957E-1,3.1631215E0,-1.89792E-1,7.25262E-1,-1.7282414E-1,6.733968E-1,-1.522695E0,-3.842353E0,-1.3058586E0,8.421532E-2,1.03004366E-1,-6.33811E-1,2.5236335E-1,-1.1807727E0,-3.3875072E-1,1.3005683E0,-2.9272136E-1,1.7079975E-1,-1.9724169E0,-6.6034034E-2,7.470453E-1,-4.1878868E-2,4.4616643E-1,1.4320954E0],"categories":[],"categories_nodes":[],"categories_segments":[],"categories_sizes":[],"default_left":[0,0,0,0,0,0,0,0,0,0,0,0,0,0,0,0,0,0,0,0,0,0,0,0,0,0,0,0,0,0,0,0,0,0,0,0,0,0,0,0,0,0,0,0,0,0,0,0,0,0,0,0,0,0,0,0,0,0,0,0,0,0,0,0,0,0,0,0,0,0,0,0,0,0,0,0,0,0,0,0,0,0,0,0,0,0,0,0,0,0,0,0,0,0,0,0,0,0,0,0,0,0,0,0,0,0,0,0,0,0,0,0,0,0,0],"id":10,"left_children":[1,3,5,7,9,11,13,15,17,19,21,23,25,27,29,31,33,35,37,39,41,43,45,47,49,51,-1,53,55,57,59,61,63,65,67,69,71,-1,73,75,77,79,81,83,85,87,89,91,93,95,97,-1,-1,99,101,103,105,107,109,111,113,-1,-1,-1,-1,-1,-1,-1,-1,-1,-1,-1,-1,-1,-1,-1,-1,-1,-1,-1,-1,-1,-1,-1,-1,-1,-1,-1,-1,-1,-1,-1,-1,-1,-1,-1,-1,-1,-1,-1,-1,-1,-1,-1,-1,-1,-1,-1,-1,-1,-1,-1,-1,-1,-1],"loss_changes":[4.868216E2,4.471449E2,4.379718E2,3.094225E2,4.812551E2,2.925729E3,5.639873E2,1.2121482E2,1.888576E2,1.2479583E3,3.158603E2,7.719144E2,1.5137258E3,6.1730457E2,3.1653244E2,1.8459198E1,5.125751E1,3.0664758E2,2.200774E2,1.4377523E3,1.3935196E2,3.0692584E2,1.6425285E2,5.539636E2,1.5317922E3,4.9732666E0,0E0,5.3116956E2,8.9904854E1,3.5081104E2,2.678946E1,2.1041962E1,3.0679226E-1,2.0419203E1,7.4356117E0,6.711871E1,1.2682367E2,0E0,3.906469E1,1.3547443E2,8.4203784E2,3.078504E2,1.5473647E2,4.72736E2,1.8752841E2,1.8288516E2,2.0703874E2,5.57676E2,1.24988815E2,7.7942004E2,2.5017615E2,0E0,0E0,7.0763354E2,6.978716E2,6.589801E1,3.6972794E1,3.3317133E2,1.6546957E3,1.8775497E1,7.2628784E0,0E0,0E0,0E0,0E0,0E0,0E0,0E0,0E0,0E0,0E0,0E0,0E0,0E0,0E0,0E0,0E0,0E0,0E0,0E0,0E0,0E0,0E0,0E0,0E0,0E0,0E0,0E0,0E0,0E0,0E0,0E0,0E0,0E0,0E0,0E0,0E0,0E0,0E0,0E0,0E0,0E0,0E0,0E0,0E0,0E0,0E0,0E0,0E0,0E0,0E0,0E0,0E0,0E0,0E0],"parents":[2147483647,0,0,1,1,2,2,3,3,4,4,5,5,6,6,7,7,8,8,9,9,10,10,11,11,12,12,13,13,14,14,15,15,16,16,17,17,18,18,19,19,20,20,21,21,22,22,23,23,24,24,25,25,27,27,28,28,29,29,30,30,31,31,32,32,33,33,34,34,35,35,36,36,38,38,39,39,40,40,41,41,42,42,43,43,44,44,45,45,46,46,47,47,48,48,49,49,50,50,53,53,54,54,55,55,56,56,57,57,58,58,59,59,60,60],"right_children":[2,4,6,8,10,12,14,16,18,20,22,24,26,28,30,32,34,36,38,40,42,44,46,48,50,52,-1,54,56,58,60,62,64,66,68,70,72,-1,74,76,78,80,82,84,86,88,90,92,94,96,98,-1,-1,100,102,104,106,108,110,112,114,-1,-1,-1,-1,-1,-1,-1,-1,-1,-1,-1,-1,-1,-1,-1,-1,-1,-1,-1,-1,-1,-1,-1,-1,-1,-1,-1,-1,-1,-1,-1,-1,-1,-1,-1,-1,-1,-1,-1,-1,-1,-1,-1,-1,-1,-1,-1,-1,-1,-1,-1,-1,-1,-1],"split_conditions":[1E0,0E0,0E0,0E0,0E0,1E0,2E0,1E0,1E0,5E1,3E0,2E0,2E0,0E0,2.28E3,8.31E2,8E0,8.12E2,3E0,0E0,8.18E2,0E0,7E0,1.8266E4,0E0,0E0,-7.3398867E0,8.13E2,1E0,5.6E2,5E0,3.54E2,8.37E2,6E2,5.78E2,7E0,8.13E2,-2.8011103E0,2.6865E4,8.26E2,1E0,7.07E2,8.33E2,2.77E3,0E0,1E0,1.47E2,4.556E3,8.35E2,2.2166E4,0E0,1.7581772E0,3.627926E-1,1E0,8.23E2,1.8E1,3.98E2,6.91E2,7.3E2,4E0,2E0,-3.8745692E-1,-1.7319899E0,-5.101386E-1,-1.1869927E-1,-6.4339876E-1,6.166457E-2,3.1883383E-1,1.2440263E0,1.5303352E0,-5.4913104E-1,-1.3234072E0,3.8249242E-1,3.0028948E-1,-4.1091093E-1,-1.0906773E0,-4.1403204E-2,-4.71521E0,-1.8216419E-1,-1.06169134E-1,1.9507092E0,-6.10724E-1,5.352711E-1,-6.9918424E-1,2.3901407E-1,-1.7659566E-1,3.8228378E-1,-2.3923578E0,-4.170747E-1,4.978395E-1,-4.5582277E-1,8.9464957E-1,3.1631215E0,-1.89792E-1,7.25262E-1,-1.7282414E-1,6.733968E-1,-1.522695E0,-3.842353E0,-1.3058586E0,8.421532E-2,1.03004366E-1,-6.33811E-1,2.5236335E-1,-1.1807727E0,-3.3875072E-1,1.3005683E0,-2.9272136E-1,1.7079975E-1,-1.9724169E0,-6.6034034E-2,7.470453E-1,-4.1878868E-2,4.4616643E-1,1.4320954E0],"split_indices":[11,8,2,0,10,1,2,14,0,0,8,5,4,9,12,3,10,3,0,0,6,1,2,0,1,0,0,6,0,1,10,3,3,3,3,1,3,0,0,3,1,6,3,0,5,0,2,0,3,0,0,0,0,8,6,4,3,6,1,14,5,0,0,0,0,0,0,0,0,0,0,0,0,0,0,0,0,0,0,0,0,0,0,0,0,0,0,0,0,0,0,0,0,0,0,0,0,0,0,0,0,0,0,0,0,0,0,0,0,0,0,0,0,0,0],"split_type":[0,0,0,0,0,0,0,0,0,0,0,0,0,0,0,0,0,0,0,0,0,0,0,0,0,0,0,0,0,0,0,0,0,0,0,0,0,0,0,0,0,0,0,0,0,0,0,0,0,0,0,0,0,0,0,0,0,0,0,0,0,0,0,0,0,0,0,0,0,0,0,0,0,0,0,0,0,0,0,0,0,0,0,0,0,0,0,0,0,0,0,0,0,0,0,0,0,0,0,0,0,0,0,0,0,0,0,0,0,0,0,0,0,0,0],"sum_hessian":[4.129E3,1.506E3,2.623E3,6.01E2,9.05E2,6.4E2,1.983E3,3E1,5.71E2,1.29E2,7.76E2,6.32E2,8E0,7.4E2,1.243E3,1.2E1,1.8E1,5.43E2,2.8E1,6.3E1,6.6E1,6.55E2,1.21E2,1.87E2,4.45E2,2E0,6E0,6.33E2,1.07E2,1.21E3,3.3E1,9E0,3E0,1.4E1,4E0,2.5E1,5.18E2,2E0,2.6E1,4.4E1,1.9E1,2.5E1,4.1E1,1.99E2,4.56E2,1.8E1,1.03E2,1.18E2,6.9E1,4.14E2,3.1E1,1E0,1E0,1.66E2,4.67E2,9.7E1,1E1,7.89E2,4.21E2,2.3E1,1E1,2E0,7E0,2E0,1E0,8E0,6E0,3E0,1E0,2.4E1,1E0,3E0,5.15E2,1.2E1,1.4E1,1.9E1,2.5E1,1.4E1,5E0,1.3E1,1.2E1,1.8E1,2.3E1,8E1,1.19E2,6.2E1,3.94E2,6E0,1.2E1,2.7E1,7.6E1,1.08E2,1E1,5.2E1,1.7E1,2.57E2,1.57E2,2.6E1,5E0,1.21E2,4.5E1,2.08E2,2.59E2,9.5E1,2E0,1E0,9E0,1.8E2,6.09E2,4.5E1,3.76E2,2E1,3E0,2E0,8E0],"tree_param":{"num_deleted":"0","num_feature":"23","num_nodes":"115","size_leaf_vector":"1"}},{"base_weights":[-1.3209792E-2,3.7271757E-2,-1.3346103E0,4.4340932E-1,-1.316404E-1,-4.1076045E0,-8.587287E-1,5.54108E-1,-8.728811E0,-1.0176014E0,5.077507E-2,-1.7432863E0,-1.179763E1,-5.695287E-1,-5.233988E0,1.2211628E0,9.6946664E-2,6.276679E-1,-1.8174957E1,1.6355355E-1,-2.4142551E0,4.2642748E-1,-2.5669634E-1,-3.3228958E0,1.2136568E0,-4.4473934E0,4.6563435E-2,1.3862963E0,-1.0049645E0,-4.392591E-1,-5.8195634E0,1.8467128E0,-6.394657E-1,-4.5679033E-2,6.9564304E0,-1.7871227E0,3.4892392E0,-3.1453807E0,-7.48017E0,-1.2424684E0,5.536984E-1,-8.3467625E-2,-4.152434E0,-7.969213E-1,7.572663E-1,-3.5404125E-1,1.9231873E0,-3.975779E0,-3.8986843E-2,-7.7281386E-1,6.8238455E-1,-6.5784323E-1,4.6391625E0,-1.8576657E0,-2.713587E-1,-1.152818E0,1.6906731E0,4.5968312E-1,1.5511746E0,-5.9880346E-2,-1.6242089E0,-4.3668535E-1,1.7734975E-1,-1.2778085E0,3.1207492E0,-8.2435787E-1,3.0837366E-1,1.7095298E0,-4.7075102E-1,-5.237839E-1,1.7595304E0,2.2333552E-1,-3.4593406E-1,-3.2768995E-1,2.3152943E-1,-4.9915323E-1,-2.058646E0,-4.2247337E-1,4.0759447E-1,2.4865596E-1,-1.1366802E0,-1.3562536E-1,4.7936076E-1,4.6811444E-1,3.227206E0,-2.316095E0,-6.223815E-1,3.8927079E-3,-2.1436788E-2,4.3929964E-1,-1.2255485E0,1.5216757E0,1.7616692E-1,-6.205466E-1,2.7774096E-1,-1.1134518E0,1.9392947E-2,9.66774E-2,7.4865913E-1],"categories":[],"categories_nodes":[],"categories_segments":[],"categories_sizes":[],"default_left":[0,0,0,0,0,0,0,0,0,0,0,0,0,0,0,0,0,0,0,0,0,0,0,0,0,0,0,0,0,0,0,0,0,0,0,0,0,0,0,0,0,0,0,0,0,0,0,0,0,0,0,0,0,0,0,0,0,0,0,0,0,0,0,0,0,0,0,0,0,0,0,0,0,0,0,0,0,0,0,0,0,0,0,0,0,0,0,0,0,0,0,0,0,0,0,0,0,0,0],"id":11,"left_children":[1,3,5,7,9,11,13,15,17,19,21,23,25,27,29,31,33,35,37,39,41,43,45,47,49,-1,-1,51,53,55,-1,57,59,61,63,65,67,-1,-1,69,71,73,75,77,79,81,83,85,87,-1,-1,89,91,93,95,-1,97,-1,-1,-1,-1,-1,-1,-1,-1,-1,-1,-1,-1,-1,-1,-1,-1,-1,-1,-1,-1,-1,-1,-1,-1,-1,-1,-1,-1,-1,-1,-1,-1,-1,-1,-1,-1,-1,-1,-1,-1,-1,-1],"loss_changes":[2.7554694E2,2.7302405E2,1.9705444E2,1.191784E3,4.5434576E2,3.7943008E2,1.6277666E2,3.5240573E2,1.2487655E3,7.9223364E2,2.69461E2,8.810755E1,1.8320801E2,1.0699607E2,5.3480066E2,5.482215E2,6.7243646E2,6.151646E1,1.0242871E2,1.4386009E2,8.909452E2,4.2557138E2,2.7293427E2,2.5573105E1,3.400452E1,0E0,0E0,1.5598602E2,6.330165E1,5.7240875E1,0E0,3.5996777E2,2.488386E2,6.0605334E2,5.854132E2,1.6347094E1,5.364182E1,0E0,0E0,2.1421492E2,6.760231E1,8.2807655E1,8.3824805E2,2.970892E2,2.7228635E2,2.3591815E2,1.5949425E2,5.5173553E1,5.988723E-3,0E0,0E0,1.1508258E2,1.281514E1,2.949553E1,6.497009E1,0E0,4.702688E0,0E0,0E0,0E0,0E0,0E0,0E0,0E0,0E0,0E0,0E0,0E0,0E0,0E0,0E0,0E0,0E0,0E0,0E0,0E0,0E0,0E0,0E0,0E0,0E0,0E0,0E0,0E0,0E0,0E0,0E0,0E0,0E0,0E0,0E0,0E0,0E0,0E0,0E0,0E0,0E0,0E0,0E0],"parents":[2147483647,0,0,1,1,2,2,3,3,4,4,5,5,6,6,7,7,8,8,9,9,10,10,11,11,12,12,13,13,14,14,15,15,16,16,17,17,18,18,19,19,20,20,21,21,22,22,23,23,24,24,27,27,28,28,29,29,31,31,32,32,33,33,34,34,35,35,36,36,39,39,40,40,41,41,42,42,43,43,44,44,45,45,46,46,47,47,48,48,51,51,52,52,53,53,54,54,56,56],"right_children":[2,4,6,8,10,12,14,16,18,20,22,24,26,28,30,32,34,36,38,40,42,44,46,48,50,-1,-1,52,54,56,-1,58,60,62,64,66,68,-1,-1,70,72,74,76,78,80,82,84,86,88,-1,-1,90,92,94,96,-1,98,-1,-1,-1,-1,-1,-1,-1,-1,-1,-1,-1,-1,-1,-1,-1,-1,-1,-1,-1,-1,-1,-1,-1,-1,-1,-1,-1,-1,-1,-1,-1,-1,-1,-1,-1,-1,-1,-1,-1,-1,-1,-1],"split_conditions":[8.56E2,0E0,5E1,2E0,0E0,0E0,7E0,1E0,2E0,0E0,0E0,5E0,1E0,1.5071E4,8.08E2,0E0,0E0,6.83E2,7.02E2,8.15E2,7.9E2,0E0,5E0,0E0,0E0,-4.4473934E0,4.6563435E-2,9.87E2,2.784E4,8.93E2,-5.8195634E0,5E0,2E0,3.11E3,1E0,1E0,7.02E2,-3.1453807E0,-7.48017E0,4E0,8.28E2,5.42E2,0E0,1.3E3,2.3E1,2.88E3,1.31E2,3E0,8.68E2,-7.7281386E-1,6.8238455E-1,3.51E2,8.64E2,1.182E3,8.62E2,-1.152818E0,8.98E2,4.5968312E-1,1.5511746E0,-5.9880346E-2,-1.6242089E0,-4.3668535E-1,1.7734975E-1,-1.2778085E0,3.1207492E0,-8.2435787E-1,3.0837366E-1,1.7095298E0,-4.7075102E-1,-5.237839E-1,1.7595304E0,2.2333552E-1,-3.4593406E-1,-3.2768995E-1,2.3152943E-1,-4.9915323E-1,-2.058646E0,-4.2247337E-1,4.0759447E-1,2.4865596E-1,-1.1366802E0,-1.3562536E-1,4.7936076E-1,4.6811444E-1,3.227206E0,-2.316095E0,-6.223815E-1,3.8927079E-3,-2.1436788E-2,4.3929964E-1,-1.2255485E0,1.5216757E0,1.7616692E-1,-6.205466E-1,2.7774096E-1,-1.1134518E0,1.9392947E-2,9.66774E-2,7.4865913E-1],"split_indices":[6,2,0,1,10,0,10,0,4,8,7,4,1,0,3,7,7,3,3,3,3,0,16,2,8,0,0,0,0,6,0,4,8,0,14,4,3,0,0,0,6,3,0,12,14,2,16,4,6,0,0,0,3,2,6,0,6,0,0,0,0,0,0,0,0,0,0,0,0,0,0,0,0,0,0,0,0,0,0,0,0,0,0,0,0,0,0,0,0,0,0,0,0,0,0,0,0,0,0],"split_type":[0,0,0,0,0,0,0,0,0,0,0,0,0,0,0,0,0,0,0,0,0,0,0,0,0,0,0,0,0,0,0,0,0,0,0,0,0,0,0,0,0,0,0,0,0,0,0,0,0,0,0,0,0,0,0,0,0,0,0,0,0,0,0,0,0,0,0,0,0,0,0,0,0,0,0,0,0,0,0,0,0,0,0,0,0,0,0,0,0,0,0,0,0,0,0,0,0,0,0],"sum_hessian":[4.129E3,3.978E3,1.51E2,1.168E3,2.81E3,2.1E1,1.3E2,1.155E3,1.3E1,4.79E2,2.331E3,1.7E1,4E0,1.23E2,7E0,4.69E2,6.86E2,7E0,6E0,2.6E2,2.19E2,1.049E3,1.282E3,1.1E1,6E0,3E0,1E0,2.2E1,1.01E2,6E0,1E0,3.51E2,1.18E2,6.73E2,1.3E1,4E0,3E0,4E0,2E0,5.6E1,2.04E2,9.4E1,1.25E2,2.23E2,8.26E2,1.228E3,5.4E1,9E0,2E0,1E0,5E0,1.4E1,8E0,4.6E1,5.5E1,2E0,4E0,3.22E2,2.9E1,1.09E2,9E0,2.09E2,4.64E2,3E0,1E1,3E0,1E0,2E0,1E0,5.3E1,3E0,1.84E2,2E1,4.3E1,5.1E1,6.6E1,5.9E1,1.74E2,4.9E1,8.14E2,1.2E1,1.17E3,5.8E1,5.3E1,1E0,2E0,7E0,1E0,1E0,9E0,5E0,7E0,1E0,4.3E1,3E0,4E0,5.1E1,2E0,2E0],"tree_param":{"num_deleted":"0","num_feature":"23","num_nodes":"99","size_leaf_vector":"1"}},{"base_weights":[-1.4209599E-2,-1.978228E-2,7.6585364E0,1.06912784E-1,-3.5806867E-1,7.0321643E-1,2.7431252E0,-3.736418E-1,2.850989E-1,-6.7477274E-1,3.1405514E-1,2.6780266E-1,-1.4598866E0,2.6809263E-1,5.5551853E0,-5.477856E-1,-8.597569E0,-3.1927981E0,3.740534E-1,2.010151E-1,5.159437E0,-2.6956775E0,8.880051E-2,-3.685565E0,2.9527348E-1,8.75649E0,-4.8961505E-1,-8.8552666E-1,3.7330243E-1,-6.0220594E0,-3.5039806E-1,1.4553092E0,-6.495304E-2,-3.2176846E-1,2.1548723E-1,-2.8360665E-1,-1.5220944E0,-8.3185606E-2,1.0637115E0,-1.7487831E-1,-1.5535773E0,1.02301575E-1,-4.727201E-1,2.9009197E0,7.6552826E-1,-2.1066312E-1,-9.284373E-1,-6.000079E-1,1.9744118E-1,4.03159E-2,-5.6158334E-1,3.3740807E-1,2.0003748E0,-8.692698E-1,1.1840466E-1],"categories":[],"categories_nodes":[],"categories_segments":[],"categories_sizes":[],"default_left":[0,0,0,0,0,0,0,0,0,0,0,0,0,0,0,0,0,0,0,0,0,0,0,0,0,0,0,0,0,0,0,0,0,0,0,0,0,0,0,0,0,0,0,0,0,0,0,0,0,0,0,0,0,0,0],"id":12,"left_children":[1,3,5,7,9,-1,-1,11,13,15,17,19,21,23,25,27,29,-1,31,33,-1,35,37,39,41,43,-1,45,47,-1,49,51,53,-1,-1,-1,-1,-1,-1,-1,-1,-1,-1,-1,-1,-1,-1,-1,-1,-1,-1,-1,-1,-1,-1],"loss_changes":[1.767411E2,1.7696115E2,2.2459717E0,2.573335E2,2.3968433E2,0E0,0E0,5.6686145E2,1.9496762E2,7.64952E2,2.4129651E2,5.754792E2,5.7822314E2,2.3600392E2,1.7535071E2,2.3489188E2,1.1286968E3,0E0,1.709787E2,3.374122E2,0E0,6.9445544E2,1.7182887E2,6.646602E1,1.8638335E2,3.6572876E0,0E0,2.213836E2,1.3854561E2,0E0,6.1525393E0,1.71731E2,3.357495E2,0E0,0E0,0E0,0E0,0E0,0E0,0E0,0E0,0E0,0E0,0E0,0E0,0E0,0E0,0E0,0E0,0E0,0E0,0E0,0E0,0E0,0E0],"parents":[2147483647,0,0,1,1,2,2,3,3,4,4,7,7,8,8,9,9,10,10,11,11,12,12,13,13,14,14,15,15,16,16,18,18,19,19,21,21,22,22,23,23,24,24,25,25,27,27,28,28,30,30,31,31,32,32],"right_children":[2,4,6,8,10,-1,-1,12,14,16,18,20,22,24,26,28,30,-1,32,34,-1,36,38,40,42,44,-1,46,48,-1,50,52,54,-1,-1,-1,-1,-1,-1,-1,-1,-1,-1,-1,-1,-1,-1,-1,-1,-1,-1,-1,-1,-1,-1],"split_conditions":[1.22E2,3E0,2.75E2,0E0,1.557E3,7.0321643E-1,2.7431252E0,0E0,7.5114E4,1.387E3,1.3E1,1.4E1,7.7E1,1.85E2,2.5E1,2E0,3.03E2,-3.1927981E0,4.911E3,8.16E2,5.159437E0,0E0,1.68E2,2.1E1,5.3127E4,6E0,-4.8961505E-1,8.09E2,0E0,-6.0220594E0,4.08E2,4.62E2,3.4E2,-3.2176846E-1,2.1548723E-1,-2.8360665E-1,-1.5220944E0,-8.3185606E-2,1.0637115E0,-1.7487831E-1,-1.5535773E0,1.02301575E-1,-4.727201E-1,2.9009197E0,7.6552826E-1,-2.1066312E-1,-9.284373E-1,-6.000079E-1,1.9744118E-1,4.03159E-2,-5.6158334E-1,3.3740807E-1,2.0003748E0,-8.692698E-1,1.1840466E-1],"split_indices":[16,8,0,10,7,0,0,8,2,7,2,4,0,6,17,16,2,0,7,6,0,0,2,0,2,0,0,3,4,0,0,8,2,0,0,0,0,0,0,0,0,0,0,0,0,0,0,0,0,0,0,0,0,0,0],"split_type":[0,0,0,0,0,0,0,0,0,0,0,0,0,0,0,0,0,0,0,0,0,0,0,0,0,0,0,0,0,0,0,0,0,0,0,0,0,0,0,0,0,0,0,0,0,0,0,0,0,0,0,0,0,0,0],"sum_hessian":[4.129E3,4.127E3,2E0,3.003E3,1.124E3,1E0,1E0,8.12E2,2.191E3,7.64E2,3.6E2,5.11E2,3.01E2,2.185E3,6E0,7.53E2,1.1E1,1E0,3.59E2,5.1E2,1E0,1.67E2,1.34E2,1.4E1,2.171E3,4E0,2E0,5.51E2,2.02E2,4E0,7E0,1.03E2,2.56E2,1.47E2,3.63E2,9.7E1,7E1,1.22E2,1.2E1,5E0,9E0,2.12E3,5.1E1,3E0,1E0,5.1E2,4.1E1,2.1E1,1.81E2,6E0,1E0,9.8E1,5E0,3.5E1,2.21E2],"tree_param":{"num_deleted":"0","num_feature":"23","num_nodes":"55","size_leaf_vector":"1"}},{"base_weights":[-1.0173842E-2,7.929969E-3,-2.1285462E0,3.1636262E-3,6.5097556E0,-1.7085551E0,-1.486902E0,-1.15340695E-1,2.30541E-1,5.97734E-1,2.3316562E0,-2.7801845E0,-4.6316403E-1,-6.953502E-2,-7.771994E0,4.0324717E0,1.388603E-1,-3.204856E0,6.0218334E-1,-8.379104E-1,7.7370477E-1,-4.1057102E-2,-2.349976E0,-1.1239926E-2,-1.1298588E1,7.200562E0,-5.215831E0,3.3786613E-1,-7.209511E-1,-1.1397715E0,-5.1274686E0,-2.379876E0,-6.0843337E-2,-6.8248174E-4,-7.000681E-1,-8.7901413E-1,7.764153E-1,8.7953806E-1,-3.558616E-1,-3.6747215E0,-2.6906377E-1,2.6703398E0,9.9569395E-2,-2.872541E0,-4.3209678E-1,7.175801E-3,3.10395E-1,-3.097627E-1,1.4350169E0,-5.2101403E-1,5.453646E-1,-2.1583305E-1,-2.2885187E0,3.766475E-2,-1.2276027E0,4.2700395E-1,-6.3796216E-1],"categories":[],"categories_nodes":[],"categories_segments":[],"categories_sizes":[],"default_left":[0,0,0,0,0,0,0,0,0,0,0,0,0,0,0,0,0,0,0,0,0,0,0,0,0,0,0,0,0,0,0,0,0,0,0,0,0,0,0,0,0,0,0,0,0,0,0,0,0,0,0,0,0,0,0,0,0],"id":13,"left_children":[1,3,5,7,9,11,-1,13,15,-1,-1,17,19,21,23,25,27,29,-1,31,-1,33,35,37,39,41,43,45,47,49,51,53,55,-1,-1,-1,-1,-1,-1,-1,-1,-1,-1,-1,-1,-1,-1,-1,-1,-1,-1,-1,-1,-1,-1,-1,-1],"loss_changes":[1.584049E2,1.2691416E2,3.3099518E1,1.1034025E2,1.6227188E0,4.141945E1,0E0,9.435929E2,4.8847495E2,0E0,0E0,4.0995697E1,2.0401718E1,1.737538E2,4.3777747E2,1.0044389E3,2.3483192E2,5.768158E1,0E0,1.7828362E1,0E0,2.3515695E2,1.02108505E2,2.4225485E1,9.776709E1,2.890619E2,1.3433606E2,2.4366615E2,4.4743573E2,1.9047066E1,8.270499E1,2.1961853E1,3.6751553E1,0E0,0E0,0E0,0E0,0E0,0E0,0E0,0E0,0E0,0E0,0E0,0E0,0E0,0E0,0E0,0E0,0E0,0E0,0E0,0E0,0E0,0E0,0E0,0E0],"parents":[2147483647,0,0,1,1,2,2,3,3,4,4,5,5,7,7,8,8,11,11,12,12,13,13,14,14,15,15,16,16,17,17,19,19,21,21,22,22,23,23,24,24,25,25,26,26,27,27,28,28,29,29,30,30,31,31,32,32],"right_children":[2,4,6,8,10,12,-1,14,16,-1,-1,18,20,22,24,26,28,30,-1,32,-1,34,36,38,40,42,44,46,48,50,52,54,56,-1,-1,-1,-1,-1,-1,-1,-1,-1,-1,-1,-1,-1,-1,-1,-1,-1,-1,-1,-1,-1,-1,-1,-1],"split_conditions":[9.9298E4,1.22E2,2.7E1,3.51E2,2.75E2,1E0,-1.486902E0,2.75E2,5.07E2,5.97734E-1,2.3316562E0,8.53E2,3E0,8.54E2,0E0,7.6E1,5E0,8.13E2,6.0218334E-1,7.99E2,7.7370477E-1,1.34E2,1E0,0E0,8.15E2,7.76E2,1.425E3,3E0,8.17E2,8.05E2,1.27969E5,1.27969E5,8.49E2,-6.8248174E-4,-7.000681E-1,-8.7901413E-1,7.764153E-1,8.7953806E-1,-3.558616E-1,-3.6747215E0,-2.6906377E-1,2.6703398E0,9.9569395E-2,-2.872541E0,-4.3209678E-1,7.175801E-3,3.10395E-1,-3.097627E-1,1.4350169E0,-5.2101403E-1,5.453646E-1,-2.1583305E-1,-2.2885187E0,3.766475E-2,-1.2276027E0,4.2700395E-1,-6.3796216E-1],"split_indices":[0,16,7,0,0,8,0,0,0,0,0,3,2,6,7,1,11,3,0,3,0,0,8,10,3,3,7,4,3,3,0,0,3,0,0,0,0,0,0,0,0,0,0,0,0,0,0,0,0,0,0,0,0,0,0,0,0],"split_type":[0,0,0,0,0,0,0,0,0,0,0,0,0,0,0,0,0,0,0,0,0,0,0,0,0,0,0,0,0,0,0,0,0,0,0,0,0,0,0,0,0,0,0,0,0,0,0,0,0,0,0,0,0,0,0,0,0],"sum_hessian":[4.129E3,4.095E3,3.4E1,4.093E3,2E0,3.1E1,3E0,2.691E3,1.402E3,1E0,1E0,1.6E1,1.5E1,2.676E3,1.5E1,3.2E1,1.37E3,1.5E1,1E0,1.4E1,1E0,2.644E3,3.2E1,5E0,1E1,2.4E1,8E0,1.113E3,2.57E2,8E0,7E0,4E0,1E1,2.601E3,4.3E1,2.9E1,3E0,1E0,4E0,9E0,1E0,1.9E1,5E0,3E0,5E0,7.68E2,3.45E2,2.44E2,1.3E1,7E0,1E0,3E0,4E0,2E0,2E0,6E0,4E0],"tree_param":{"num_deleted":"0","num_feature":"23","num_nodes":"57","size_leaf_vector":"1"}},{"base_weights":[-8.181562E-3,-2.737955E-2,1.7351775E0,-4.8348535E-2,1.5691538E0,1.4398576E0,2.2093885E0,-2.505403E-2,-2.067336E0,2.0500584E-1,2.8751848E0,3.4006693E0,8.384869E-1,-7.162694E-2,5.562479E-1,-2.351355E0,-1.0058129E0,-9.3176633E-1,4.339003E0,1.2324925E1,1.6262085E0,1.7285713E0,1.2681918E0,4.727867E-1,1.374508E0,2.2285974E-1,-2.1428636E-1,4.3419296E-1,6.3832054E0,3.288196E-1,-2.3568864E0,2.7510185E0,-2.176763E0,3.5120704E0,5.2404326E-1,4.3856244E0,1.1605926E0,-1.9296082E0,2.606578E0,8.483288E-1,5.3189594E-2,7.5660445E-2,2.6815617E0,9.181331E-2,-2.0644732E0,4.1206248E-2,-1.2302839E-1,1.5399387E-1,-1.022867E0,2.1296577E0,4.2074075E-1,1.0521145E0,-1.633265E-3,-8.297922E-1,2.6498014E-1,9.4075865E-1,1.24020055E-1,-2.3722957E-1,-8.5826224E-1,-5.7597315E-1,4.8450282E-1,9.370817E-1,-5.644419E-1,-1.4186984E-1,1.6580516E-1,-1.6078149E-1,3.37554E-1,9.027452E-1,2.0568095E-1],"categories":[],"categories_nodes":[],"categories_segments":[],"categories_sizes":[],"default_left":[0,0,0,0,0,0,0,0,0,0,0,0,0,0,0,0,0,0,0,0,0,0,0,0,0,0,0,0,0,0,0,0,0,0,0,0,0,0,0,0,0,0,0,0,0,0,0,0,0,0,0,0,0,0,0,0,0,0,0,0,0,0,0,0,0,0,0,0,0],"id":14,"left_children":[1,3,5,7,9,11,-1,13,15,17,19,21,23,25,27,-1,29,31,33,35,37,39,-1,41,-1,43,45,47,49,51,53,55,57,-1,59,-1,-1,-1,61,-1,63,65,67,-1,-1,-1,-1,-1,-1,-1,-1,-1,-1,-1,-1,-1,-1,-1,-1,-1,-1,-1,-1,-1,-1,-1,-1,-1,-1],"loss_changes":[1.3827443E2,1.3686566E2,6.420798E1,1.8967253E2,9.383641E1,4.9032272E1,0E0,1.0803373E2,2.7389117E2,1.309271E2,2.986247E2,6.5149765E0,4.5745033E1,1.552375E2,2.0774634E2,0E0,7.290244E1,1.0685951E2,1.625145E2,1.6369019E0,2.1426678E2,9.057418E0,0E0,2.8743477E1,0E0,7.1482776E2,1.7143423E2,9.024828E1,1.1430969E1,2.2328798E1,2.8953232E1,4.1013412E0,1.385672E1,0E0,1.6432028E1,0E0,0E0,0E0,5.9247208E1,0E0,1.0496992E0,1.9217688E1,1.2061844E0,0E0,0E0,0E0,0E0,0E0,0E0,0E0,0E0,0E0,0E0,0E0,0E0,0E0,0E0,0E0,0E0,0E0,0E0,0E0,0E0,0E0,0E0,0E0,0E0,0E0,0E0],"parents":[2147483647,0,0,1,1,2,2,3,3,4,4,5,5,7,7,8,8,9,9,10,10,11,11,12,12,13,13,14,14,16,16,17,17,18,18,19,19,20,20,21,21,23,23,25,25,26,26,27,27,28,28,29,29,30,30,31,31,32,32,34,34,38,38,40,40,41,41,42,42],"right_children":[2,4,6,8,10,12,-1,14,16,18,20,22,24,26,28,-1,30,32,34,36,38,40,-1,42,-1,44,46,48,50,52,54,56,58,-1,60,-1,-1,-1,62,-1,64,66,68,-1,-1,-1,-1,-1,-1,-1,-1,-1,-1,-1,-1,-1,-1,-1,-1,-1,-1,-1,-1,-1,-1,-1,-1,-1,-1],"split_conditions":[3.07E2,1.6E1,6E0,1.3E1,1.7E1,6E0,2.2093885E0,0E0,0E0,2E0,1.13E2,4.13E2,7.24E2,0E0,4.3462E4,-2.351355E0,4.57E2,3.88E2,3.12E3,0E0,1.74E2,3.12E2,1.2681918E0,4.7E1,1.374508E0,2E0,1E0,1.1939E4,6.6085E4,1E0,6.1E2,1E0,1E0,3.5120704E0,4.66E2,4.3856244E0,1.1605926E0,-1.9296082E0,4.3E1,8.483288E-1,0E0,1.13E2,6.7E1,9.181331E-2,-2.0644732E0,4.1206248E-2,-1.2302839E-1,1.5399387E-1,-1.022867E0,2.1296577E0,4.2074075E-1,1.0521145E0,-1.633265E-3,-8.297922E-1,2.6498014E-1,9.4075865E-1,1.24020055E-1,-2.3722957E-1,-8.5826224E-1,-5.7597315E-1,4.8450282E-1,9.370817E-1,-5.644419E-1,-1.4186984E-1,1.6580516E-1,-1.6078149E-1,3.37554E-1,9.027452E-1,2.0568095E-1],"split_indices":[9,4,7,4,0,14,0,12,1,10,0,3,3,2,1,0,3,3,1,1,0,9,0,10,0,1,11,7,1,1,13,1,14,0,3,0,0,0,1,0,0,0,10,0,0,0,0,0,0,0,0,0,0,0,0,0,0,0,0,0,0,0,0,0,0,0,0,0,0],"split_type":[0,0,0,0,0,0,0,0,0,0,0,0,0,0,0,0,0,0,0,0,0,0,0,0,0,0,0,0,0,0,0,0,0,0,0,0,0,0,0,0,0,0,0,0,0,0,0,0,0,0,0,0,0,0,0,0,0,0,0,0,0,0,0,0,0,0,0,0,0],"sum_hessian":[4.129E3,4.085E3,4.4E1,4.033E3,5.2E1,4.3E1,1E0,3.988E3,4.5E1,2.6E1,2.6E1,9E0,3.4E1,3.693E3,2.95E2,6E0,3.9E1,2.1E1,5E0,2E0,2.4E1,4E0,5E0,3.2E1,2E0,1.205E3,2.488E3,2.9E2,5E0,2E1,1.9E1,5E0,1.6E1,1E0,4E0,1E0,1E0,2E0,2.2E1,2E0,2E0,2.8E1,4E0,1.192E3,1.3E1,8.9E2,1.598E3,2.85E2,5E0,4E0,1E0,1E0,1.9E1,1.7E1,2E0,4E0,1E0,6E0,1E1,1E0,3E0,2E1,2E0,1E0,1E0,1.8E1,1E1,3E0,1E0],"tree_param":{"num_deleted":"0","num_feature":"23","num_nodes":"69","size_leaf_vector":"1"}},{"base_weights":[-2.7852522E-3,1.1478055E-2,-1.6719202E0,-1.0084114E-2,1.3700523E0,-1.3549187E0,-1.1369858E0,4.312893E-3,-2.0695243E0,2.1391335E0,1.6373613E-1,-1.5440242E0,6.7610323E-1,-1.1781337E-2,2.0033832E0,-3.3279097E0,2.181048E0,5.4936874E-1,3.6219416E0,-5.2453303E-1,5.615311E0,-2.1430013E0,-7.622488E-1,3.8532093E-2,-4.9919483E-1,4.023605E0,-2.6831394E-1,-1.3345077E0,-5.199993E0,-5.7605875E-1,1.3178679E0,-6.8711376E-1,1.2680218E0,5.7068887E0,1.3972677E0,-1.3473637E0,9.965584E-1,5.2652794E-1,2.0003622E0,-7.203576E-1,-3.3275335E0,-1.9672301E0,-1.4523472E-1,-2.2217004E-2,1.18051656E-1,-6.078776E-1,-6.320179E-2,2.1245131E-1,1.7302934E0,1.0627744E0,-4.2607725E-1,-1.0260401E0,1.931446E-1,4.81294E-1,-2.0670955E0,1.7097074E-1,-3.4440398E-1,1.6247779E-1,-4.5979685E-1,5.3831494E-1,-3.253929E-1,1.1614143E0,2.6097841E0,1.4885252E0,-1.6788965E-1,-6.628019E-1,5.372697E-1,5.499996E-1,-8.5464454E-1,1.385406E-1,-1.5266452E0,-1.2475636E0,4.9808386E-1,1.6829683E-2,-1.0004448E0,2.9359385E-1,-5.068863E-1],"categories":[],"categories_nodes":[],"categories_segments":[],"categories_sizes":[],"default_left":[0,0,0,0,0,0,0,0,0,0,0,0,0,0,0,0,0,0,0,0,0,0,0,0,0,0,0,0,0,0,0,0,0,0,0,0,0,0,0,0,0,0,0,0,0,0,0,0,0,0,0,0,0,0,0,0,0,0,0,0,0,0,0,0,0,0,0,0,0,0,0,0,0,0,0,0,0],"id":15,"left_children":[1,3,5,7,9,11,-1,13,15,17,19,21,-1,23,25,27,29,31,33,35,37,39,41,43,45,47,49,51,53,55,-1,57,59,61,63,65,67,-1,-1,69,71,73,75,-1,-1,-1,-1,-1,-1,-1,-1,-1,-1,-1,-1,-1,-1,-1,-1,-1,-1,-1,-1,-1,-1,-1,-1,-1,-1,-1,-1,-1,-1,-1,-1,-1,-1],"loss_changes":[9.834369E1,1.2000125E2,1.8364601E1,1.19586464E2,5.9026077E1,2.5316708E1,0E0,1.2891063E2,1.5702637E2,8.994554E1,1.0050135E2,1.2882729E1,0E0,9.7499916E1,1.4793823E2,7.516051E1,4.5218613E1,1.8643316E1,8.479251E1,3.1381144E1,4.8662567E-1,2.6250832E1,1.0866647E1,1.4406668E2,1.6347327E2,9.4213715E1,7.5270355E1,5.1714424E1,1.3757062E2,3.276006E0,0E0,9.141461E0,1.8044832E1,2.1247345E1,7.9505455E1,4.7238415E1,3.4182182E1,0E0,0E0,4.8827972E1,4.4208725E1,1.4022459E1,2.0746307E1,0E0,0E0,0E0,0E0,0E0,0E0,0E0,0E0,0E0,0E0,0E0,0E0,0E0,0E0,0E0,0E0,0E0,0E0,0E0,0E0,0E0,0E0,0E0,0E0,0E0,0E0,0E0,0E0,0E0,0E0,0E0,0E0,0E0,0E0],"parents":[2147483647,0,0,1,1,2,2,3,3,4,4,5,5,7,7,8,8,9,9,10,10,11,11,13,13,14,14,15,15,16,16,17,17,18,18,19,19,20,20,21,21,22,22,23,23,24,24,25,25,26,26,27,27,28,28,29,29,31,31,32,32,33,33,34,34,35,35,36,36,39,39,40,40,41,41,42,42],"right_children":[2,4,6,8,10,12,-1,14,16,18,20,22,-1,24,26,28,30,32,34,36,38,40,42,44,46,48,50,52,54,56,-1,58,60,62,64,66,68,-1,-1,70,72,74,76,-1,-1,-1,-1,-1,-1,-1,-1,-1,-1,-1,-1,-1,-1,-1,-1,-1,-1,-1,-1,-1,-1,-1,-1,-1,-1,-1,-1,-1,-1,-1,-1,-1,-1],"split_conditions":[9.9298E4,6E0,2.7E1,1.2E2,2.1E1,3E0,-1.1369858E0,8.1E1,2.46E2,2E1,1.22E2,1E0,6.7610323E-1,1E1,7.24E2,6.8E2,2.21E2,6.5E2,1.5E2,4E0,2.75E2,0E0,7.99E2,4E0,6.11E2,4.79E2,9.7E1,6.93E2,6.89E2,4E0,1.3178679E0,5E0,1.8E1,7.41E2,6.98E2,3.76E2,2E0,5.2652794E-1,2.0003622E0,2E0,8.53E2,1.27969E5,8.49E2,-2.2217004E-2,1.18051656E-1,-6.078776E-1,-6.320179E-2,2.1245131E-1,1.7302934E0,1.0627744E0,-4.2607725E-1,-1.0260401E0,1.931446E-1,4.81294E-1,-2.0670955E0,1.7097074E-1,-3.4440398E-1,1.6247779E-1,-4.5979685E-1,5.3831494E-1,-3.253929E-1,1.1614143E0,2.6097841E0,1.4885252E0,-1.6788965E-1,-6.628019E-1,5.372697E-1,5.499996E-1,-8.5464454E-1,1.385406E-1,-1.5266452E0,-1.2475636E0,4.9808386E-1,1.6829683E-2,-1.0004448E0,2.9359385E-1,-5.068863E-1],"split_indices":[0,16,7,10,16,2,0,10,10,10,16,8,0,14,6,1,1,6,14,4,0,10,3,1,6,2,10,3,3,0,0,8,10,3,3,22,9,0,0,4,3,0,3,0,0,0,0,0,0,0,0,0,0,0,0,0,0,0,0,0,0,0,0,0,0,0,0,0,0,0,0,0,0,0,0,0,0],"split_type":[0,0,0,0,0,0,0,0,0,0,0,0,0,0,0,0,0,0,0,0,0,0,0,0,0,0,0,0,0,0,0,0,0,0,0,0,0,0,0,0,0,0,0,0,0,0,0,0,0,0,0,0,0,0,0,0,0,0,0,0,0,0,0,0,0,0,0,0,0,0,0,0,0,0,0,0,0],"sum_hessian":[4.129E3,4.095E3,3.4E1,4.032E3,6.3E1,3.1E1,3E0,4.005E3,2.7E1,3.8E1,2.5E1,3E1,1E0,3.974E3,3.1E1,2.1E1,6E0,1.9E1,1.9E1,2.3E1,2E0,1.6E1,1.4E1,3.603E3,3.71E2,1.6E1,1.5E1,1.1E1,1E1,3E0,3E0,7E0,1.2E1,9E0,1E1,1.5E1,8E0,1E0,1E0,8E0,8E0,4E0,1E1,2.736E3,8.67E2,5.8E1,3.13E2,6E0,1E1,3E0,1.2E1,5E0,6E0,2E0,8E0,1E0,2E0,3E0,4E0,1E1,2E0,7E0,2E0,3E0,7E0,1.2E1,3E0,7E0,1E0,7E0,1E0,7E0,1E0,2E0,2E0,6E0,4E0],"tree_param":{"num_deleted":"0","num_feature":"23","num_nodes":"77","size_leaf_vector":"1"}},{"base_weights":[-9.719289E-4,-1.7816445E-2,1.4627296E0,4.0748373E-2,-4.2285523E-1,1.2209831E0,1.8874604E0,-5.8598346E-3,1.3356768E0,-3.1928456E0,-1.7067708E-1,1.0377228E0,1.4201542E0,-3.7535287E-2,1.9845229E0,2.1184115E0,-3.6102647E-1,-8.074426E0,-1.0427362E0,-3.771494E-1,7.3927146E-1,2.0291517E0,5.2452433E-1,-6.741743E-2,2.1381807E0,-3.2132878E0,2.7011929E0,9.448307E0,1.7350215E0,-1.9624617E0,4.827187E-1,-2.3396783E0,-1.1366184E1,1.6822407E-1,-2.7776322E0,-5.531795E-1,1.0076575E0,3.7219484E0,1.24684595E-1,2.2124808E0,-8.061848E-2,9.059457E-1,-9.126271E-1,4.7061115E-4,-3.5854566E-1,2.5906458E-1,2.425422E0,1.7003077E0,-1.6914201E0,1.0603651E0,1.2745719E-1,3.6146214E0,2.4705234E-1,3.3986408E-1,1.6555742E0,-1.5152692E0,-3.080443E-1,-3.618203E-2,5.108312E-1,-9.8815495E-1,-8.62671E-2,-3.8318465E0,-2.279583E-1,7.3440546E-1,-3.7029877E-1,5.5688072E-2,-3.6820364E-1,3.5891658E-1,-5.91139E-1,1.5122635E0,-9.702192E-1,1.1055712E0,-1.6664849E-1,3.399936E-1,8.640581E-1,-2.9251432E-2,5.104008E-1,2.1173345E-1,-5.103435E-1],"categories":[],"categories_nodes":[],"categories_segments":[],"categories_sizes":[],"default_left":[0,0,0,0,0,0,0,0,0,0,0,0,0,0,0,0,0,0,0,0,0,0,0,0,0,0,0,0,0,0,0,0,0,0,0,0,0,0,0,0,0,0,0,0,0,0,0,0,0,0,0,0,0,0,0,0,0,0,0,0,0,0,0,0,0,0,0,0,0,0,0,0,0,0,0,0,0,0,0],"id":16,"left_children":[1,3,5,7,9,11,-1,13,15,17,19,21,-1,23,25,27,29,31,33,35,37,39,41,43,45,47,49,51,53,55,57,59,61,63,-1,65,67,69,71,73,-1,75,77,-1,-1,-1,-1,-1,-1,-1,-1,-1,-1,-1,-1,-1,-1,-1,-1,-1,-1,-1,-1,-1,-1,-1,-1,-1,-1,-1,-1,-1,-1,-1,-1,-1,-1,-1,-1],"loss_changes":[1.0185263E2,9.689388E1,4.7183426E1,2.1541231E2,3.598971E2,2.470092E1,0E0,2.1733195E2,1.654453E2,4.4290558E2,8.933356E1,2.1831657E1,0E0,2.2074019E2,2.0983585E2,2.2247482E2,5.4995445E1,2.1881305E2,3.099857E2,9.489552E1,1.6084996E2,6.913582E0,1.7819761E1,2.6046973E2,3.416835E2,1.826957E2,8.955435E1,7.979053E1,1.8056357E2,3.526928E1,2.007975E1,1.0801285E1,1.0964844E2,9.2552574E1,0E0,1.7156671E2,2.7088257E1,1.539199E2,1.8126143E2,6.823883E0,0E0,2.0119253E1,1.0133621E1,0E0,0E0,0E0,0E0,0E0,0E0,0E0,0E0,0E0,0E0,0E0,0E0,0E0,0E0,0E0,0E0,0E0,0E0,0E0,0E0,0E0,0E0,0E0,0E0,0E0,0E0,0E0,0E0,0E0,0E0,0E0,0E0,0E0,0E0,0E0,0E0],"parents":[2147483647,0,0,1,1,2,2,3,3,4,4,5,5,7,7,8,8,9,9,10,10,11,11,13,13,14,14,15,15,16,16,17,17,18,18,19,19,20,20,21,21,22,22,23,23,24,24,25,25,26,26,27,27,28,28,29,29,30,30,31,31,32,32,33,33,35,35,36,36,37,37,38,38,39,39,41,41,42,42],"right_children":[2,4,6,8,10,12,-1,14,16,18,20,22,-1,24,26,28,30,32,34,36,38,40,42,44,46,48,50,52,54,56,58,60,62,64,-1,66,68,70,72,74,-1,76,78,-1,-1,-1,-1,-1,-1,-1,-1,-1,-1,-1,-1,-1,-1,-1,-1,-1,-1,-1,-1,-1,-1,-1,-1,-1,-1,-1,-1,-1,-1,-1,-1,-1,-1,-1,-1],"split_conditions":[3E2,5.6E2,6E0,2.44E2,3.4E2,7.38E2,1.8874604E0,2.88E2,4E0,1.425E3,1.162E4,6E0,1.4201542E0,2.721E3,2.78E2,1.52E2,2E0,1.13E2,6.03E2,1.875E3,1E0,1.74E2,3.16E2,4.32E2,5E0,3.9E1,1.5E2,6.3E2,4E0,1.75E2,7.35E2,2.1E1,8.15E2,7.22E2,-2.7776322E0,6.5E2,0E0,1.5E1,1.217E3,4.13E2,-8.061848E-2,1.1E1,1.4E1,4.7061115E-4,-3.5854566E-1,2.5906458E-1,2.425422E0,1.7003077E0,-1.6914201E0,1.0603651E0,1.2745719E-1,3.6146214E0,2.4705234E-1,3.3986408E-1,1.6555742E0,-1.5152692E0,-3.080443E-1,-3.618203E-2,5.108312E-1,-9.8815495E-1,-8.62671E-2,-3.8318465E0,-2.279583E-1,7.3440546E-1,-3.7029877E-1,5.5688072E-2,-3.6820364E-1,3.5891658E-1,-5.91139E-1,1.5122635E0,-9.702192E-1,1.1055712E0,-1.6664849E-1,3.399936E-1,8.640581E-1,-2.9251432E-2,5.104008E-1,2.1173345E-1,-5.103435E-1],"split_indices":[9,1,7,1,2,3,0,8,14,7,7,10,0,2,2,2,4,0,0,12,8,0,9,2,4,1,14,0,4,2,0,8,3,3,0,6,0,10,1,3,0,10,10,0,0,0,0,0,0,0,0,0,0,0,0,0,0,0,0,0,0,0,0,0,0,0,0,0,0,0,0,0,0,0,0,0,0,0,0],"split_type":[0,0,0,0,0,0,0,0,0,0,0,0,0,0,0,0,0,0,0,0,0,0,0,0,0,0,0,0,0,0,0,0,0,0,0,0,0,0,0,0,0,0,0,0,0,0,0,0,0,0,0,0,0,0,0,0,0,0,0,0,0,0,0,0,0,0,0,0,0,0,0,0,0,0,0,0,0,0,0],"sum_hessian":[4.129E3,4.083E3,4.6E1,3.568E3,5.15E2,4.5E1,1E0,3.445E3,1.23E2,4.2E1,4.73E2,4.4E1,1E0,3.392E3,5.3E1,8.4E1,3.9E1,1.2E1,3E1,3.86E2,8.7E1,1.4E1,3E1,3.347E3,4.5E1,6E0,4.7E1,3E0,8.1E1,1.3E1,2.6E1,5E0,7E0,2.7E1,3E0,3.43E2,4.3E1,1.4E1,7.3E1,1.3E1,1E0,2.4E1,6E0,3.155E3,1.92E2,3.8E1,7E0,1E0,5E0,3.4E1,1.3E1,2E0,1E0,7.1E1,1E1,2E0,1.1E1,1.8E1,8E0,3E0,2E0,6E0,1E0,1E1,1.7E1,1.64E2,1.79E2,4.1E1,2E0,1.2E1,2E0,1.1E1,6.2E1,6E0,7E0,1.1E1,1.3E1,2E0,4E0],"tree_param":{"num_deleted":"0","num_feature":"23","num_nodes":"79","size_leaf_vector":"1"}},{"base_weights":[7.806697E-4,-3.0188346E-1,8.48486E-2,1.434452E-1,-8.902721E-1,-6.938778E-1,1.20847635E-1,9.504956E-2,3.7310426E0,-1.30748E0,8.6274564E-1,-9.8393965E-1,9.4618696E-1,1.6043857E-1,-6.352498E-1,-8.3024615E-1,4.710076E-1,-2.3482506E0,2.9354176E-2,4.3934733E-1,4.3537884E0,-2.251172E-1,-1.9042304E0,2.9529408E-1,2.0483377E0,3.5099575E-1,-6.738212E-2,-1.4210398E0,1.2405405E0,-5.821902E-2,-1.9001834E0,3.8887954E-1,2.3295937E0,-8.681741E-1,-4.0734243E0,-1.5426866E0,3.7384245E-1,2.5048852E0,1.990552E-1,1.4612924E0,1.1002264E-1,-6.390337E-1,1.9778165E0,-3.6725526E0,-1.0845969E0,-5.9651303E-1,1.1501894E0,7.6994604E-1,-2.3680574E-1,5.680153E-1,-1.7514563E-1,-5.206955E-1,1.7919773E-1,-2.3427804E0,2.9343775E-1,2.2717273E0,-8.3491766E-1,-9.8761034E-1,1.0713573E-1,-1.18838236E-1,-1.4453433E0,1.5711936E-1,-2.418415E-1,-3.1538826E-1,2.479236E0,1.4605784E-1,-1.6152273E0,-1.8797763E-1,-1.1426536E0,5.805978E-1,6.307006E-3,1.0610754E0,2.5398934E-1,6.629029E-3,1.1015617E0,-6.3966376E-1,9.628334E-3,1.3742306E0,2.6712254E-1,-2.5044246E0,-4.7753045E-1,-3.7932834E-1,4.4845524E-1,1.4958467E-1,-1.239362E0,-1.9559957E-1,4.5023626E-1,3.7766868E-1,-9.186379E-3,-1.10036254E-1,9.7062594E-1,-2.0733543E-1,3.5869178E-1,7.940113E-1,3.625779E-2,-1.0717677E0,-2.1970372E-1,3.477611E-1,-6.999612E-1,1.531654E-1,1.9560289E0,-5.983214E-1,4.2898837E-1],"categories":[],"categories_nodes":[],"categories_segments":[],"categories_sizes":[],"default_left":[0,0,0,0,0,0,0,0,0,0,0,0,0,0,0,0,0,0,0,0,0,0,0,0,0,0,0,0,0,0,0,0,0,0,0,0,0,0,0,0,0,0,0,0,0,0,0,0,0,0,0,0,0,0,0,0,0,0,0,0,0,0,0,0,0,0,0,0,0,0,0,0,0,0,0,0,0,0,0,0,0,0,0,0,0,0,0,0,0,0,0,0,0,0,0,0,0,0,0,0,0,0,0],"id":17,"left_children":[1,3,5,7,9,11,13,15,-1,17,19,21,23,25,27,29,31,33,35,37,39,41,43,45,47,49,51,53,55,57,59,61,-1,63,65,67,69,71,73,-1,-1,75,77,79,81,83,85,-1,-1,87,89,91,93,95,97,99,101,-1,-1,-1,-1,-1,-1,-1,-1,-1,-1,-1,-1,-1,-1,-1,-1,-1,-1,-1,-1,-1,-1,-1,-1,-1,-1,-1,-1,-1,-1,-1,-1,-1,-1,-1,-1,-1,-1,-1,-1,-1,-1,-1,-1,-1,-1],"loss_changes":[1.0511076E2,2.3542735E2,9.071585E1,3.034298E2,2.841693E2,6.8958984E1,9.2629776E1,1.7815382E2,0E0,4.3555762E2,1.0894479E2,8.476848E1,1.5177544E1,1.27570656E2,2.2875536E2,1.2214043E2,2.1504062E2,4.458601E2,7.531057E1,3.3252E1,1.4709961E1,6.326836E1,7.573244E1,1.2122129E1,1.3788631E1,1.827922E2,1.4976398E2,1.7294055E2,1.00345215E2,1.1802767E2,2.701646E2,5.8597378E1,0E0,1.6922946E2,4.8675916E2,4.9513786E1,6.2764328E1,8.985149E0,3.8020607E1,0E0,0E0,5.8191055E1,2.705643E1,1.5210086E2,1.9980854E1,3.3027435E1,6.0332594E0,0E0,0E0,4.6863165E2,3.0707486E2,1.3888734E2,1.2462912E2,1.3799756E2,9.139287E1,2.2861703E2,4.486948E1,0E0,0E0,0E0,0E0,0E0,0E0,0E0,0E0,0E0,0E0,0E0,0E0,0E0,0E0,0E0,0E0,0E0,0E0,0E0,0E0,0E0,0E0,0E0,0E0,0E0,0E0,0E0,0E0,0E0,0E0,0E0,0E0,0E0,0E0,0E0,0E0,0E0,0E0,0E0,0E0,0E0,0E0,0E0,0E0,0E0,0E0],"parents":[2147483647,0,0,1,1,2,2,3,3,4,4,5,5,6,6,7,7,9,9,10,10,11,11,12,12,13,13,14,14,15,15,16,16,17,17,18,18,19,19,20,20,21,21,22,22,23,23,24,24,25,25,26,26,27,27,28,28,29,29,30,30,31,31,33,33,34,34,35,35,36,36,37,37,38,38,41,41,42,42,43,43,44,44,45,45,46,46,49,49,50,50,51,51,52,52,53,53,54,54,55,55,56,56],"right_children":[2,4,6,8,10,12,14,16,-1,18,20,22,24,26,28,30,32,34,36,38,40,42,44,46,48,50,52,54,56,58,60,62,-1,64,66,68,70,72,74,-1,-1,76,78,80,82,84,86,-1,-1,88,90,92,94,96,98,100,102,-1,-1,-1,-1,-1,-1,-1,-1,-1,-1,-1,-1,-1,-1,-1,-1,-1,-1,-1,-1,-1,-1,-1,-1,-1,-1,-1,-1,-1,-1,-1,-1,-1,-1,-1,-1,-1,-1,-1,-1,-1,-1,-1,-1,-1,-1],"split_conditions":[0E0,0E0,0E0,1.4E1,1E0,8.32E2,8.37E2,8.16E2,3.7310426E0,1.223E3,8.19E2,6.54E2,0E0,0E0,1E0,7.81E2,2.784E4,0E0,6.89E2,7E0,2.412E3,6.2E2,7.99E2,8.37E2,1E0,2E0,2E0,0E0,1.5071E4,2.63E2,4E0,8.31E2,2.3295937E0,5E0,7.77E2,3E0,7.33E2,0E0,6E0,1.4612924E0,1.1002264E-1,0E0,4.99E2,1E0,2E0,0E0,0E0,7.6994604E-1,-2.3680574E-1,8.22E2,2.784E4,8.32E2,0E0,1.575E3,2.412E3,2.217E3,1.27969E5,-9.8761034E-1,1.0713573E-1,-1.18838236E-1,-1.4453433E0,1.5711936E-1,-2.418415E-1,-3.1538826E-1,2.479236E0,1.4605784E-1,-1.6152273E0,-1.8797763E-1,-1.1426536E0,5.805978E-1,6.307006E-3,1.0610754E0,2.5398934E-1,6.629029E-3,1.1015617E0,-6.3966376E-1,9.628334E-3,1.3742306E0,2.6712254E-1,-2.5044246E0,-4.7753045E-1,-3.7932834E-1,4.4845524E-1,1.4958467E-1,-1.239362E0,-1.9559957E-1,4.5023626E-1,3.7766868E-1,-9.186379E-3,-1.10036254E-1,9.7062594E-1,-2.0733543E-1,3.5869178E-1,7.940113E-1,3.625779E-2,-1.0717677E0,-2.1970372E-1,3.477611E-1,-6.999612E-1,1.531654E-1,1.9560289E0,-5.983214E-1,4.2898837E-1],"split_indices":[10,8,4,4,1,6,3,6,0,0,3,3,16,7,8,3,0,0,6,2,2,6,3,3,0,11,4,7,0,6,4,3,0,4,3,11,3,0,19,0,0,1,3,1,7,2,1,0,0,3,0,3,2,0,2,0,0,0,0,0,0,0,0,0,0,0,0,0,0,0,0,0,0,0,0,0,0,0,0,0,0,0,0,0,0,0,0,0,0,0,0,0,0,0,0,0,0,0,0,0,0,0,0],"split_type":[0,0,0,0,0,0,0,0,0,0,0,0,0,0,0,0,0,0,0,0,0,0,0,0,0,0,0,0,0,0,0,0,0,0,0,0,0,0,0,0,0,0,0,0,0,0,0,0,0,0,0,0,0,0,0,0,0,0,0,0,0,0,0,0,0,0,0,0,0,0,0,0,0,0,0,0,0,0,0,0,0,0,0,0,0,0,0,0,0,0,0,0,0,0,0,0,0,0,0,0,0,0,0],"sum_hessian":[4.129E3,8.97E2,3.232E3,5.11E2,3.86E2,1.42E2,3.09E3,5.1E2,1E0,3.12E2,7.4E1,1.21E2,2.1E1,2.937E3,1.53E2,1.47E2,3.63E2,1.75E2,1.37E2,6.7E1,7E0,6.7E1,5.4E1,1.4E1,7E0,1.599E3,1.338E3,1.08E2,4.5E1,8.6E1,6.1E1,3.6E2,3E0,9.5E1,8E1,2.4E1,1.13E2,6E0,6.1E1,6E0,1E0,5.7E1,1E1,1.6E1,3.8E1,7E0,7E0,6E0,1E0,1.132E3,4.67E2,4.71E2,8.67E2,7E1,3.8E1,3E1,1.5E1,9E0,7.7E1,4.1E1,2E1,3.24E2,3.6E1,9.4E1,1E0,1.8E1,6.2E1,1.8E1,6E0,2E1,9.3E1,3E0,3E0,5.9E1,2E0,1.7E1,4E1,2E0,8E0,4E0,1.2E1,3.6E1,2E0,6E0,1E0,1E0,6E0,5.25E2,6.07E2,4.43E2,2.4E1,4.29E2,4.2E1,1.9E1,8.48E2,3.9E1,3.1E1,2.9E1,9E0,2.2E1,8E0,1E1,5E0],"tree_param":{"num_deleted":"0","num_feature":"23","num_nodes":"103","size_leaf_vector":"1"}},{"base_weights":[2.4301247E-3,-2.1426928E0,1.1817381E-2,-4.1627126E0,3.3985075E-1,-3.0902994E-3,1.1538602E0,-1.7033005E0,-1.5122238E0,-1.1269299E0,7.365177E-1,1.331988E-2,-1.4357032E0,2.5835112E-1,2.0066338E0,-5.7579464E-1,1.7421342E-2,-5.348418E-1,-3.5329056E-1,-3.834317E-3,1.2264352E0,-5.687828E0,-6.556887E-1,-7.182844E-1,3.7962897E0,2.7704756E0,1.0589741E0,-9.095192E-3,-1.3525276E-1,2.1941317E-2,-7.127294E-1,3.4044975E-1,5.0296082E0,-4.9893782E-1,-1.8244274E0,1.2341131E0,-1.1667051E0,2.0910835E0,-1.667574E0,2.975704E0,5.879425E-1,-5.0577674E0,1.8107677E0,-5.7891207E-3,4.3628654E-1,-2.881443E-1,1.8357326E0,5.553591E-1,-3.077259E-1,8.9212066E-1,1.9348304E-1,-5.3864145E-1,9.258318E-3,7.1149385E-1,1.03240445E-1,-7.3851013E-1,-1.399408E-1,4.2960894E-1,-4.1826096E-1,-4.7261012E-1,-1.8033853E0,1.2301269E-1,9.1817874E-1],"categories":[],"categories_nodes":[],"categories_segments":[],"categories_sizes":[],"default_left":[0,0,0,0,0,0,0,0,0,0,0,0,0,0,0,0,0,0,0,0,0,0,0,0,0,0,0,0,0,0,0,0,0,0,0,0,0,0,0,0,0,0,0,0,0,0,0,0,0,0,0,0,0,0,0,0,0,0,0,0,0,0,0],"id":18,"left_children":[1,3,5,7,9,11,13,-1,15,17,-1,19,21,23,25,-1,-1,-1,27,29,31,33,35,37,39,-1,41,-1,-1,43,45,47,-1,-1,-1,49,51,53,55,-1,57,59,61,-1,-1,-1,-1,-1,-1,-1,-1,-1,-1,-1,-1,-1,-1,-1,-1,-1,-1,-1,-1],"loss_changes":[8.319037E1,9.168088E1,7.002825E1,3.156781E1,3.06896E1,9.549094E1,3.9955902E1,0E0,3.307726E0,2.4146209E0,0E0,8.3577736E1,1.4883963E2,9.601929E1,1.7516922E2,0E0,0E0,0E0,1.1235836E-1,7.239191E1,7.6525885E2,9.745636E-1,4.006864E1,6.2158913E1,1.1203112E2,0E0,1.241216E2,0E0,0E0,2.2584381E2,2.4114845E2,1.1335417E2,0E0,0E0,0E0,7.3065014E0,2.4151062E1,2.124609E0,1.5066788E1,0E0,1.036206E1,4.9160004E-1,3.9010338E1,0E0,0E0,0E0,0E0,0E0,0E0,0E0,0E0,0E0,0E0,0E0,0E0,0E0,0E0,0E0,0E0,0E0,0E0,0E0,0E0],"parents":[2147483647,0,0,1,1,2,2,3,3,4,4,5,5,6,6,8,8,9,9,11,11,12,12,13,13,14,14,18,18,19,19,20,20,21,21,22,22,23,23,24,24,26,26,29,29,30,30,31,31,35,35,36,36,37,37,38,38,40,40,41,41,42,42],"right_children":[2,4,6,8,10,12,14,-1,16,18,-1,20,22,24,26,-1,-1,-1,28,30,32,34,36,38,40,-1,42,-1,-1,44,46,48,-1,-1,-1,50,52,54,56,-1,58,60,62,-1,-1,-1,-1,-1,-1,-1,-1,-1,-1,-1,-1,-1,-1,-1,-1,-1,-1,-1,-1],"split_conditions":[1.36E2,1E0,1.6E1,9.143E3,1E0,1.3E1,1.7E1,-1.7033005E0,1E0,1E0,7.365177E-1,9E0,0E0,2E0,1.13E2,-5.7579464E-1,1.7421342E-2,-5.348418E-1,3E0,7E0,7.68E2,1E0,2E0,3.88E2,3.12E3,2.7704756E0,1.74E2,-9.095192E-3,-1.3525276E-1,6E0,4.6503E4,3E0,5.0296082E0,-4.9893782E-1,-1.8244274E0,1E0,5E0,1E0,3.12E3,2.975704E0,1.1E1,1.34E2,4.37E2,-5.7891207E-3,4.3628654E-1,-2.881443E-1,1.8357326E0,5.553591E-1,-3.077259E-1,8.9212066E-1,1.9348304E-1,-5.3864145E-1,9.258318E-3,7.1149385E-1,1.03240445E-1,-7.3851013E-1,-1.399408E-1,4.2960894E-1,-4.1826096E-1,-4.7261012E-1,-1.8033853E0,1.2301269E-1,9.1817874E-1],"split_indices":[3,7,4,0,14,4,0,0,10,1,0,5,1,10,0,0,0,0,1,4,3,14,0,3,1,0,0,0,0,11,0,14,0,0,0,1,8,1,1,0,0,0,3,0,0,0,0,0,0,0,0,0,0,0,0,0,0,0,0,0,0,0,0],"split_type":[0,0,0,0,0,0,0,0,0,0,0,0,0,0,0,0,0,0,0,0,0,0,0,0,0,0,0,0,0,0,0,0,0,0,0,0,0,0,0,0,0,0,0,0,0,0,0,0,0,0,0,0,0,0,0,0,0,0,0,0,0,0,0],"sum_hessian":[4.129E3,1.7E1,4.112E3,9E0,8E0,4.06E3,5.2E1,5E0,4E0,5E0,3E0,4.015E3,4.5E1,2.6E1,2.6E1,3E0,1E0,2E0,3E0,3.96E3,5.5E1,6E0,3.9E1,2.1E1,5E0,2E0,2.4E1,1E0,2E0,3.822E3,1.38E2,5.3E1,2E0,1E0,5E0,8E0,3.1E1,5E0,1.6E1,1E0,4E0,2E0,2.2E1,3.716E3,1.06E2,1.34E2,4E0,2.5E1,2.8E1,1E0,7E0,2E1,1.1E1,4E0,1E0,9E0,7E0,3E0,1E0,1E0,1E0,1.1E1,1.1E1],"tree_param":{"num_deleted":"0","num_feature":"23","num_nodes":"63","size_leaf_vector":"1"}},{"base_weights":[3.5758973E-3,9.609166E-3,-2.7600582E0,-6.0271686E-3,1.1248324E0,-4.6363797E0,7.4443865E-1,5.936716E-3,-1.8652592E0,3.6815953E0,7.518486E-1,-1.7347403E0,1.6410886E-1,-1.3715477E-1,6.5239537E-1,-1.2194352E-2,9.520141E-1,-3.4992135E0,1.6099006E0,9.0703297E-1,5.535759E0,2.2820501E0,1.1117637E-1,-1.680256E-2,3.6417887E0,3.4274035E0,2.3478687E-1,-3.9043643E0,-5.160122E-2,-4.029509E-1,2.1469307E0,-2.9994795E-1,5.6277853E-1,3.2401845E-1,1.9982914E0,-3.5910785E0,3.4618452E0,1.9137019E0,-6.2730354E-1,-1.15834735E-2,2.220542E-1,2.0536394E-1,1.2629889E0,1.3555136E0,-9.509814E-1,-2.665708E-1,4.3987685E-1,-1.2294474E0,-1.496192E-1,1.48366E-1,9.1183394E-1,-1.3911245E0,-2.2486082E-1,-2.7862087E-1,1.1715366E0,1.2458591E0,1.6647255E-1,3.3988364E-2,-1.1725782E0],"categories":[],"categories_nodes":[],"categories_segments":[],"categories_sizes":[],"default_left":[0,